<?xml version="1.0" encoding="UTF-8" standalone="yes"?>
<PMML xmlns="http://www.dmg.org/PMML-4_4" xmlns:data="http://jpmml.org/jpmml-model/InlineTable" version="4.4">
	<Header>
		<Application name="JPMML-SkLearn library" version="1.7.10"/>
		<Timestamp>2022-09-04T05:22:11Z</Timestamp>
	</Header>
	<MiningBuildTask>
		<Extension name="repr">PMMLPipeline(steps=[('mapper', DataFrameMapper(drop_cols=[],
                features=[(['best-possible-score'],
                           ContinuousDomain(invalid_value_treatment='as_is')),
                          (['team_count'],
                           ContinuousDomain(invalid_value_treatment='as_is')),
                          (['team-med'],
                           ContinuousDomain(invalid_value_treatment='as_is')),
                          (['team-70.0th_pctl'],
                           ContinuousDomain(invalid_value_treatment='as_is')),
                          (["('med-dfs', '1B')"],
                           Continuo...
                           ContinuousDomain(invalid_value_treatment='as_is')),
                          (["('70.0th-pctl-dfs', 'C')"],
                           ContinuousDomain(invalid_value_treatment='as_is')),
                          (["('70.0th-pctl-dfs', 'OF')"],
                           ContinuousDomain(invalid_value_treatment='as_is')),
                          (["('70.0th-pctl-dfs', 'P')"],
                           ContinuousDomain(invalid_value_treatment='as_is')),
                          (["('70.0th-pctl-dfs', 'SS')"],
                           ContinuousDomain(invalid_value_treatment='as_is'))])),
       ('selectfrommodel', SelectorProxy(selector=SelectFromModel(estimator=ExtraTreesRegressor(max_features=0.9000000000000001),
                                       threshold=0.0))),
       ('polynomialfeatures', PolynomialFeatures(include_bias=False)),
       ('adaboostregressor', AdaBoostRegressor(loss='square', n_estimators=100))])</Extension>
	</MiningBuildTask>
	<DataDictionary>
		<DataField name="last_winning_score" optype="continuous" dataType="double"/>
		<DataField name="best-possible-score" optype="continuous" dataType="double">
			<Interval closure="closedClosed" leftMargin="80.0" rightMargin="178.0"/>
		</DataField>
		<DataField name="team_count" optype="continuous" dataType="double">
			<Interval closure="closedClosed" leftMargin="2.0" rightMargin="3.0"/>
		</DataField>
		<DataField name="team-med" optype="continuous" dataType="double">
			<Interval closure="closedClosed" leftMargin="1.0" rightMargin="15.0"/>
		</DataField>
		<DataField name="team-70.0th_pctl" optype="continuous" dataType="double">
			<Interval closure="closedClosed" leftMargin="1.7" rightMargin="15.8"/>
		</DataField>
		<DataField name="('med-dfs', '1B')" optype="continuous" dataType="double">
			<Interval closure="closedClosed" leftMargin="0.0" rightMargin="17.0"/>
		</DataField>
		<DataField name="('med-dfs', '2B')" optype="continuous" dataType="double">
			<Interval closure="closedClosed" leftMargin="0.0" rightMargin="17.0"/>
		</DataField>
		<DataField name="('med-dfs', '3B')" optype="continuous" dataType="double">
			<Interval closure="closedClosed" leftMargin="0.0" rightMargin="22.0"/>
		</DataField>
		<DataField name="('med-dfs', 'C')" optype="continuous" dataType="double">
			<Interval closure="closedClosed" leftMargin="0.0" rightMargin="17.0"/>
		</DataField>
		<DataField name="('med-dfs', 'OF')" optype="continuous" dataType="double">
			<Interval closure="closedClosed" leftMargin="0.0" rightMargin="17.0"/>
		</DataField>
		<DataField name="('med-dfs', 'P')" optype="continuous" dataType="double">
			<Interval closure="closedClosed" leftMargin="-14.4745" rightMargin="28.275"/>
		</DataField>
		<DataField name="('med-dfs', 'SS')" optype="continuous" dataType="double">
			<Interval closure="closedClosed" leftMargin="0.0" rightMargin="20.5"/>
		</DataField>
		<DataField name="('70.0th-pctl-dfs', '1B')" optype="continuous" dataType="double">
			<Interval closure="closedClosed" leftMargin="0.0" rightMargin="25.399999999999995"/>
		</DataField>
		<DataField name="('70.0th-pctl-dfs', '2B')" optype="continuous" dataType="double">
			<Interval closure="closedClosed" leftMargin="0.0" rightMargin="21.0"/>
		</DataField>
		<DataField name="('70.0th-pctl-dfs', '3B')" optype="continuous" dataType="double">
			<Interval closure="closedClosed" leftMargin="1.5999999999999943" rightMargin="26.0"/>
		</DataField>
		<DataField name="('70.0th-pctl-dfs', 'C')" optype="continuous" dataType="double">
			<Interval closure="closedClosed" leftMargin="0.0" rightMargin="19.9"/>
		</DataField>
		<DataField name="('70.0th-pctl-dfs', 'OF')" optype="continuous" dataType="double">
			<Interval closure="closedClosed" leftMargin="2.0" rightMargin="25.4"/>
		</DataField>
		<DataField name="('70.0th-pctl-dfs', 'P')" optype="continuous" dataType="double">
			<Interval closure="closedClosed" leftMargin="-14.3215" rightMargin="32.775"/>
		</DataField>
		<DataField name="('70.0th-pctl-dfs', 'SS')" optype="continuous" dataType="double">
			<Interval closure="closedClosed" leftMargin="0.7999999999999998" rightMargin="22.5"/>
		</DataField>
	</DataDictionary>
	<MiningModel functionName="regression" algorithmName="sklearn.ensemble._weight_boosting.AdaBoostRegressor">
		<MiningSchema>
			<MiningField name="last_winning_score" usageType="target"/>
			<MiningField name="best-possible-score" missingValueTreatment="asIs" invalidValueTreatment="asIs"/>
			<MiningField name="team_count" missingValueTreatment="asIs" invalidValueTreatment="asIs"/>
			<MiningField name="team-med" missingValueTreatment="asIs" invalidValueTreatment="asIs"/>
			<MiningField name="team-70.0th_pctl" missingValueTreatment="asIs" invalidValueTreatment="asIs"/>
			<MiningField name="('med-dfs', '1B')" missingValueTreatment="asIs" invalidValueTreatment="asIs"/>
			<MiningField name="('med-dfs', '2B')" missingValueTreatment="asIs" invalidValueTreatment="asIs"/>
			<MiningField name="('med-dfs', '3B')" missingValueTreatment="asIs" invalidValueTreatment="asIs"/>
			<MiningField name="('med-dfs', 'C')" missingValueTreatment="asIs" invalidValueTreatment="asIs"/>
			<MiningField name="('med-dfs', 'OF')" missingValueTreatment="asIs" invalidValueTreatment="asIs"/>
			<MiningField name="('med-dfs', 'P')" missingValueTreatment="asIs" invalidValueTreatment="asIs"/>
			<MiningField name="('med-dfs', 'SS')" missingValueTreatment="asIs" invalidValueTreatment="asIs"/>
			<MiningField name="('70.0th-pctl-dfs', '1B')" missingValueTreatment="asIs" invalidValueTreatment="asIs"/>
			<MiningField name="('70.0th-pctl-dfs', '2B')" missingValueTreatment="asIs" invalidValueTreatment="asIs"/>
			<MiningField name="('70.0th-pctl-dfs', '3B')" missingValueTreatment="asIs" invalidValueTreatment="asIs"/>
			<MiningField name="('70.0th-pctl-dfs', 'C')" missingValueTreatment="asIs" invalidValueTreatment="asIs"/>
			<MiningField name="('70.0th-pctl-dfs', 'OF')" missingValueTreatment="asIs" invalidValueTreatment="asIs"/>
			<MiningField name="('70.0th-pctl-dfs', 'P')" missingValueTreatment="asIs" invalidValueTreatment="asIs"/>
			<MiningField name="('70.0th-pctl-dfs', 'SS')" missingValueTreatment="asIs" invalidValueTreatment="asIs"/>
		</MiningSchema>
		<ModelStats>
			<UnivariateStats field="best-possible-score">
				<Counts totalFreq="70" missingFreq="0" invalidFreq="0"/>
				<NumericInfo minimum="80.0" maximum="178.0" mean="114.67825" standardDeviation="22.92067576162716" median="112.59625" interQuartileRange="26.374750000000006"/>
			</UnivariateStats>
			<UnivariateStats field="team_count">
				<Counts totalFreq="70" missingFreq="0" invalidFreq="0"/>
				<NumericInfo minimum="2.0" maximum="3.0" mean="2.0428571428571427" standardDeviation="0.2025349554108261" median="2.0" interQuartileRange="0.0"/>
			</UnivariateStats>
			<UnivariateStats field="team-med">
				<Counts totalFreq="70" missingFreq="0" invalidFreq="0"/>
				<NumericInfo minimum="1.0" maximum="15.0" mean="4.65" standardDeviation="2.6435230821224702" median="4.25" interQuartileRange="2.875"/>
			</UnivariateStats>
			<UnivariateStats field="team-70.0th_pctl">
				<Counts totalFreq="70" missingFreq="0" invalidFreq="0"/>
				<NumericInfo minimum="1.7" maximum="15.8" mean="5.578571428571428" standardDeviation="2.7676133533189544" median="5.05" interQuartileRange="3.3749999999999996"/>
			</UnivariateStats>
			<UnivariateStats field="('med-dfs', '1B')">
				<Counts totalFreq="70" missingFreq="0" invalidFreq="0"/>
				<NumericInfo minimum="0.0" maximum="17.0" mean="5.035714285714286" standardDeviation="4.437922155831994" median="4.0" interQuartileRange="3.875"/>
			</UnivariateStats>
			<UnivariateStats field="('med-dfs', '2B')">
				<Counts totalFreq="70" missingFreq="0" invalidFreq="0"/>
				<NumericInfo minimum="0.0" maximum="17.0" mean="4.764285714285714" standardDeviation="3.9818529683081585" median="4.0" interQuartileRange="4.375"/>
			</UnivariateStats>
			<UnivariateStats field="('med-dfs', '3B')">
				<Counts totalFreq="70" missingFreq="0" invalidFreq="0"/>
				<NumericInfo minimum="0.0" maximum="22.0" mean="5.728571428571429" standardDeviation="4.874632377556951" median="4.0" interQuartileRange="4.0"/>
			</UnivariateStats>
			<UnivariateStats field="('med-dfs', 'C')">
				<Counts totalFreq="70" missingFreq="0" invalidFreq="0"/>
				<NumericInfo minimum="0.0" maximum="17.0" mean="3.7785714285714285" standardDeviation="4.0032448573320005" median="2.5" interQuartileRange="5.875"/>
			</UnivariateStats>
			<UnivariateStats field="('med-dfs', 'OF')">
				<Counts totalFreq="70" missingFreq="0" invalidFreq="0"/>
				<NumericInfo minimum="0.0" maximum="17.0" mean="4.507142857142857" standardDeviation="2.4661897406190576" median="4.0" interQuartileRange="3.0"/>
			</UnivariateStats>
			<UnivariateStats field="('med-dfs', 'P')">
				<Counts totalFreq="70" missingFreq="0" invalidFreq="0"/>
				<NumericInfo minimum="-14.4745" maximum="28.275" mean="12.918500000000003" standardDeviation="7.710225168566739" median="13.452" interQuartileRange="8.934875000000002"/>
			</UnivariateStats>
			<UnivariateStats field="('med-dfs', 'SS')">
				<Counts totalFreq="70" missingFreq="0" invalidFreq="0"/>
				<NumericInfo minimum="0.0" maximum="20.5" mean="6.507142857142857" standardDeviation="4.561087634343728" median="5.5" interQuartileRange="5.375"/>
			</UnivariateStats>
			<UnivariateStats field="('70.0th-pctl-dfs', '1B')">
				<Counts totalFreq="70" missingFreq="0" invalidFreq="0"/>
				<NumericInfo minimum="0.0" maximum="25.399999999999995" mean="8.507142857142858" standardDeviation="5.91318916680745" median="7.299999999999999" interQuartileRange="8.224999999999998"/>
			</UnivariateStats>
			<UnivariateStats field="('70.0th-pctl-dfs', '2B')">
				<Counts totalFreq="70" missingFreq="0" invalidFreq="0"/>
				<NumericInfo minimum="0.0" maximum="21.0" mean="7.402857142857142" standardDeviation="4.570588315635134" median="6.349999999999998" interQuartileRange="3.95"/>
			</UnivariateStats>
			<UnivariateStats field="('70.0th-pctl-dfs', '3B')">
				<Counts totalFreq="70" missingFreq="0" invalidFreq="0"/>
				<NumericInfo minimum="1.5999999999999943" maximum="26.0" mean="8.528571428571427" standardDeviation="5.564380156909865" median="6.85" interQuartileRange="6.375"/>
			</UnivariateStats>
			<UnivariateStats field="('70.0th-pctl-dfs', 'C')">
				<Counts totalFreq="70" missingFreq="0" invalidFreq="0"/>
				<NumericInfo minimum="0.0" maximum="19.9" mean="5.721428571428571" standardDeviation="4.410892130596156" median="5.0" interQuartileRange="4.425000000000002"/>
			</UnivariateStats>
			<UnivariateStats field="('70.0th-pctl-dfs', 'OF')">
				<Counts totalFreq="70" missingFreq="0" invalidFreq="0"/>
				<NumericInfo minimum="2.0" maximum="25.4" mean="8.49285714285714" standardDeviation="4.377224215954067" median="7.6" interQuartileRange="4.125000000000001"/>
			</UnivariateStats>
			<UnivariateStats field="('70.0th-pctl-dfs', 'P')">
				<Counts totalFreq="70" missingFreq="0" invalidFreq="0"/>
				<NumericInfo minimum="-14.3215" maximum="32.775" mean="16.71498" standardDeviation="8.131225445573554" median="17.87575" interQuartileRange="10.128525000000002"/>
			</UnivariateStats>
			<UnivariateStats field="('70.0th-pctl-dfs', 'SS')">
				<Counts totalFreq="70" missingFreq="0" invalidFreq="0"/>
				<NumericInfo minimum="0.7999999999999998" maximum="22.5" mean="9.128571428571426" standardDeviation="5.142960316425407" median="8.349999999999998" interQuartileRange="6.350000000000002"/>
			</UnivariateStats>
		</ModelStats>
		<LocalTransformations>
			<DerivedField name="('med-dfs', 'C'):('70.0th-pctl-dfs', 'OF')" optype="continuous" dataType="double">
				<Apply function="*">
					<FieldRef field="('med-dfs', 'C')"/>
					<FieldRef field="('70.0th-pctl-dfs', 'OF')"/>
				</Apply>
			</DerivedField>
			<DerivedField name="float(('med-dfs', 'C'):('70.0th-pctl-dfs', 'OF'))" optype="continuous" dataType="float">
				<FieldRef field="('med-dfs', 'C'):('70.0th-pctl-dfs', 'OF')"/>
			</DerivedField>
			<DerivedField name="double(float(('med-dfs', 'C'):('70.0th-pctl-dfs', 'OF')))" optype="continuous" dataType="double">
				<FieldRef field="float(('med-dfs', 'C'):('70.0th-pctl-dfs', 'OF'))"/>
			</DerivedField>
			<DerivedField name="team_count:team-70.0th_pctl" optype="continuous" dataType="double">
				<Apply function="*">
					<FieldRef field="team_count"/>
					<FieldRef field="team-70.0th_pctl"/>
				</Apply>
			</DerivedField>
			<DerivedField name="float(team_count:team-70.0th_pctl)" optype="continuous" dataType="float">
				<FieldRef field="team_count:team-70.0th_pctl"/>
			</DerivedField>
			<DerivedField name="double(float(team_count:team-70.0th_pctl))" optype="continuous" dataType="double">
				<FieldRef field="float(team_count:team-70.0th_pctl)"/>
			</DerivedField>
			<DerivedField name="team_count:('70.0th-pctl-dfs', 'C')" optype="continuous" dataType="double">
				<Apply function="*">
					<FieldRef field="team_count"/>
					<FieldRef field="('70.0th-pctl-dfs', 'C')"/>
				</Apply>
			</DerivedField>
			<DerivedField name="float(team_count:('70.0th-pctl-dfs', 'C'))" optype="continuous" dataType="float">
				<FieldRef field="team_count:('70.0th-pctl-dfs', 'C')"/>
			</DerivedField>
			<DerivedField name="double(float(team_count:('70.0th-pctl-dfs', 'C')))" optype="continuous" dataType="double">
				<FieldRef field="float(team_count:('70.0th-pctl-dfs', 'C'))"/>
			</DerivedField>
			<DerivedField name="float(('70.0th-pctl-dfs', 'C'))" optype="continuous" dataType="float">
				<FieldRef field="('70.0th-pctl-dfs', 'C')"/>
			</DerivedField>
			<DerivedField name="double(float(('70.0th-pctl-dfs', 'C')))" optype="continuous" dataType="double">
				<FieldRef field="float(('70.0th-pctl-dfs', 'C'))"/>
			</DerivedField>
			<DerivedField name="team-med:('med-dfs', '3B')" optype="continuous" dataType="double">
				<Apply function="*">
					<FieldRef field="team-med"/>
					<FieldRef field="('med-dfs', '3B')"/>
				</Apply>
			</DerivedField>
			<DerivedField name="float(team-med:('med-dfs', '3B'))" optype="continuous" dataType="float">
				<FieldRef field="team-med:('med-dfs', '3B')"/>
			</DerivedField>
			<DerivedField name="double(float(team-med:('med-dfs', '3B')))" optype="continuous" dataType="double">
				<FieldRef field="float(team-med:('med-dfs', '3B'))"/>
			</DerivedField>
			<DerivedField name="team-70.0th_pctl^2" optype="continuous" dataType="double">
				<Apply function="pow">
					<FieldRef field="team-70.0th_pctl"/>
					<Constant dataType="integer">2</Constant>
				</Apply>
			</DerivedField>
			<DerivedField name="float(team-70.0th_pctl^2)" optype="continuous" dataType="float">
				<FieldRef field="team-70.0th_pctl^2"/>
			</DerivedField>
			<DerivedField name="double(float(team-70.0th_pctl^2))" optype="continuous" dataType="double">
				<FieldRef field="float(team-70.0th_pctl^2)"/>
			</DerivedField>
			<DerivedField name="('med-dfs', 'SS'):('70.0th-pctl-dfs', 'P')" optype="continuous" dataType="double">
				<Apply function="*">
					<FieldRef field="('med-dfs', 'SS')"/>
					<FieldRef field="('70.0th-pctl-dfs', 'P')"/>
				</Apply>
			</DerivedField>
			<DerivedField name="float(('med-dfs', 'SS'):('70.0th-pctl-dfs', 'P'))" optype="continuous" dataType="float">
				<FieldRef field="('med-dfs', 'SS'):('70.0th-pctl-dfs', 'P')"/>
			</DerivedField>
			<DerivedField name="double(float(('med-dfs', 'SS'):('70.0th-pctl-dfs', 'P')))" optype="continuous" dataType="double">
				<FieldRef field="float(('med-dfs', 'SS'):('70.0th-pctl-dfs', 'P'))"/>
			</DerivedField>
			<DerivedField name="best-possible-score:('70.0th-pctl-dfs', '1B')" optype="continuous" dataType="double">
				<Apply function="*">
					<FieldRef field="best-possible-score"/>
					<FieldRef field="('70.0th-pctl-dfs', '1B')"/>
				</Apply>
			</DerivedField>
			<DerivedField name="float(best-possible-score:('70.0th-pctl-dfs', '1B'))" optype="continuous" dataType="float">
				<FieldRef field="best-possible-score:('70.0th-pctl-dfs', '1B')"/>
			</DerivedField>
			<DerivedField name="double(float(best-possible-score:('70.0th-pctl-dfs', '1B')))" optype="continuous" dataType="double">
				<FieldRef field="float(best-possible-score:('70.0th-pctl-dfs', '1B'))"/>
			</DerivedField>
			<DerivedField name="float(best-possible-score)" optype="continuous" dataType="float">
				<FieldRef field="best-possible-score"/>
			</DerivedField>
			<DerivedField name="double(float(best-possible-score))" optype="continuous" dataType="double">
				<FieldRef field="float(best-possible-score)"/>
			</DerivedField>
			<DerivedField name="('70.0th-pctl-dfs', '1B'):('70.0th-pctl-dfs', 'P')" optype="continuous" dataType="double">
				<Apply function="*">
					<FieldRef field="('70.0th-pctl-dfs', '1B')"/>
					<FieldRef field="('70.0th-pctl-dfs', 'P')"/>
				</Apply>
			</DerivedField>
			<DerivedField name="float(('70.0th-pctl-dfs', '1B'):('70.0th-pctl-dfs', 'P'))" optype="continuous" dataType="float">
				<FieldRef field="('70.0th-pctl-dfs', '1B'):('70.0th-pctl-dfs', 'P')"/>
			</DerivedField>
			<DerivedField name="double(float(('70.0th-pctl-dfs', '1B'):('70.0th-pctl-dfs', 'P')))" optype="continuous" dataType="double">
				<FieldRef field="float(('70.0th-pctl-dfs', '1B'):('70.0th-pctl-dfs', 'P'))"/>
			</DerivedField>
			<DerivedField name="best-possible-score:team-70.0th_pctl" optype="continuous" dataType="double">
				<Apply function="*">
					<FieldRef field="best-possible-score"/>
					<FieldRef field="team-70.0th_pctl"/>
				</Apply>
			</DerivedField>
			<DerivedField name="float(best-possible-score:team-70.0th_pctl)" optype="continuous" dataType="float">
				<FieldRef field="best-possible-score:team-70.0th_pctl"/>
			</DerivedField>
			<DerivedField name="double(float(best-possible-score:team-70.0th_pctl))" optype="continuous" dataType="double">
				<FieldRef field="float(best-possible-score:team-70.0th_pctl)"/>
			</DerivedField>
			<DerivedField name="best-possible-score:('70.0th-pctl-dfs', 'P')" optype="continuous" dataType="double">
				<Apply function="*">
					<FieldRef field="best-possible-score"/>
					<FieldRef field="('70.0th-pctl-dfs', 'P')"/>
				</Apply>
			</DerivedField>
			<DerivedField name="float(best-possible-score:('70.0th-pctl-dfs', 'P'))" optype="continuous" dataType="float">
				<FieldRef field="best-possible-score:('70.0th-pctl-dfs', 'P')"/>
			</DerivedField>
			<DerivedField name="double(float(best-possible-score:('70.0th-pctl-dfs', 'P')))" optype="continuous" dataType="double">
				<FieldRef field="float(best-possible-score:('70.0th-pctl-dfs', 'P'))"/>
			</DerivedField>
			<DerivedField name="team-med:('med-dfs', 'SS')" optype="continuous" dataType="double">
				<Apply function="*">
					<FieldRef field="team-med"/>
					<FieldRef field="('med-dfs', 'SS')"/>
				</Apply>
			</DerivedField>
			<DerivedField name="float(team-med:('med-dfs', 'SS'))" optype="continuous" dataType="float">
				<FieldRef field="team-med:('med-dfs', 'SS')"/>
			</DerivedField>
			<DerivedField name="double(float(team-med:('med-dfs', 'SS')))" optype="continuous" dataType="double">
				<FieldRef field="float(team-med:('med-dfs', 'SS'))"/>
			</DerivedField>
			<DerivedField name="team_count:('70.0th-pctl-dfs', 'SS')" optype="continuous" dataType="double">
				<Apply function="*">
					<FieldRef field="team_count"/>
					<FieldRef field="('70.0th-pctl-dfs', 'SS')"/>
				</Apply>
			</DerivedField>
			<DerivedField name="float(team_count:('70.0th-pctl-dfs', 'SS'))" optype="continuous" dataType="float">
				<FieldRef field="team_count:('70.0th-pctl-dfs', 'SS')"/>
			</DerivedField>
			<DerivedField name="double(float(team_count:('70.0th-pctl-dfs', 'SS')))" optype="continuous" dataType="double">
				<FieldRef field="float(team_count:('70.0th-pctl-dfs', 'SS'))"/>
			</DerivedField>
			<DerivedField name="best-possible-score:team_count" optype="continuous" dataType="double">
				<Apply function="*">
					<FieldRef field="best-possible-score"/>
					<FieldRef field="team_count"/>
				</Apply>
			</DerivedField>
			<DerivedField name="float(best-possible-score:team_count)" optype="continuous" dataType="float">
				<FieldRef field="best-possible-score:team_count"/>
			</DerivedField>
			<DerivedField name="double(float(best-possible-score:team_count))" optype="continuous" dataType="double">
				<FieldRef field="float(best-possible-score:team_count)"/>
			</DerivedField>
			<DerivedField name="('med-dfs', 'OF'):('med-dfs', 'P')" optype="continuous" dataType="double">
				<Apply function="*">
					<FieldRef field="('med-dfs', 'OF')"/>
					<FieldRef field="('med-dfs', 'P')"/>
				</Apply>
			</DerivedField>
			<DerivedField name="float(('med-dfs', 'OF'):('med-dfs', 'P'))" optype="continuous" dataType="float">
				<FieldRef field="('med-dfs', 'OF'):('med-dfs', 'P')"/>
			</DerivedField>
			<DerivedField name="double(float(('med-dfs', 'OF'):('med-dfs', 'P')))" optype="continuous" dataType="double">
				<FieldRef field="float(('med-dfs', 'OF'):('med-dfs', 'P'))"/>
			</DerivedField>
			<DerivedField name="('med-dfs', '3B'):('70.0th-pctl-dfs', 'C')" optype="continuous" dataType="double">
				<Apply function="*">
					<FieldRef field="('med-dfs', '3B')"/>
					<FieldRef field="('70.0th-pctl-dfs', 'C')"/>
				</Apply>
			</DerivedField>
			<DerivedField name="float(('med-dfs', '3B'):('70.0th-pctl-dfs', 'C'))" optype="continuous" dataType="float">
				<FieldRef field="('med-dfs', '3B'):('70.0th-pctl-dfs', 'C')"/>
			</DerivedField>
			<DerivedField name="double(float(('med-dfs', '3B'):('70.0th-pctl-dfs', 'C')))" optype="continuous" dataType="double">
				<FieldRef field="float(('med-dfs', '3B'):('70.0th-pctl-dfs', 'C'))"/>
			</DerivedField>
			<DerivedField name="('med-dfs', 'P')^2" optype="continuous" dataType="double">
				<Apply function="pow">
					<FieldRef field="('med-dfs', 'P')"/>
					<Constant dataType="integer">2</Constant>
				</Apply>
			</DerivedField>
			<DerivedField name="float(('med-dfs', 'P')^2)" optype="continuous" dataType="float">
				<FieldRef field="('med-dfs', 'P')^2"/>
			</DerivedField>
			<DerivedField name="double(float(('med-dfs', 'P')^2))" optype="continuous" dataType="double">
				<FieldRef field="float(('med-dfs', 'P')^2)"/>
			</DerivedField>
			<DerivedField name="('70.0th-pctl-dfs', 'OF'):('70.0th-pctl-dfs', 'P')" optype="continuous" dataType="double">
				<Apply function="*">
					<FieldRef field="('70.0th-pctl-dfs', 'OF')"/>
					<FieldRef field="('70.0th-pctl-dfs', 'P')"/>
				</Apply>
			</DerivedField>
			<DerivedField name="float(('70.0th-pctl-dfs', 'OF'):('70.0th-pctl-dfs', 'P'))" optype="continuous" dataType="float">
				<FieldRef field="('70.0th-pctl-dfs', 'OF'):('70.0th-pctl-dfs', 'P')"/>
			</DerivedField>
			<DerivedField name="double(float(('70.0th-pctl-dfs', 'OF'):('70.0th-pctl-dfs', 'P')))" optype="continuous" dataType="double">
				<FieldRef field="float(('70.0th-pctl-dfs', 'OF'):('70.0th-pctl-dfs', 'P'))"/>
			</DerivedField>
			<DerivedField name="('med-dfs', 'SS'):('70.0th-pctl-dfs', '2B')" optype="continuous" dataType="double">
				<Apply function="*">
					<FieldRef field="('med-dfs', 'SS')"/>
					<FieldRef field="('70.0th-pctl-dfs', '2B')"/>
				</Apply>
			</DerivedField>
			<DerivedField name="float(('med-dfs', 'SS'):('70.0th-pctl-dfs', '2B'))" optype="continuous" dataType="float">
				<FieldRef field="('med-dfs', 'SS'):('70.0th-pctl-dfs', '2B')"/>
			</DerivedField>
			<DerivedField name="double(float(('med-dfs', 'SS'):('70.0th-pctl-dfs', '2B')))" optype="continuous" dataType="double">
				<FieldRef field="float(('med-dfs', 'SS'):('70.0th-pctl-dfs', '2B'))"/>
			</DerivedField>
			<DerivedField name="team-70.0th_pctl:('70.0th-pctl-dfs', 'OF')" optype="continuous" dataType="double">
				<Apply function="*">
					<FieldRef field="team-70.0th_pctl"/>
					<FieldRef field="('70.0th-pctl-dfs', 'OF')"/>
				</Apply>
			</DerivedField>
			<DerivedField name="float(team-70.0th_pctl:('70.0th-pctl-dfs', 'OF'))" optype="continuous" dataType="float">
				<FieldRef field="team-70.0th_pctl:('70.0th-pctl-dfs', 'OF')"/>
			</DerivedField>
			<DerivedField name="double(float(team-70.0th_pctl:('70.0th-pctl-dfs', 'OF')))" optype="continuous" dataType="double">
				<FieldRef field="float(team-70.0th_pctl:('70.0th-pctl-dfs', 'OF'))"/>
			</DerivedField>
			<DerivedField name="best-possible-score:team-med" optype="continuous" dataType="double">
				<Apply function="*">
					<FieldRef field="best-possible-score"/>
					<FieldRef field="team-med"/>
				</Apply>
			</DerivedField>
			<DerivedField name="float(best-possible-score:team-med)" optype="continuous" dataType="float">
				<FieldRef field="best-possible-score:team-med"/>
			</DerivedField>
			<DerivedField name="double(float(best-possible-score:team-med))" optype="continuous" dataType="double">
				<FieldRef field="float(best-possible-score:team-med)"/>
			</DerivedField>
			<DerivedField name="team-70.0th_pctl:('70.0th-pctl-dfs', 'P')" optype="continuous" dataType="double">
				<Apply function="*">
					<FieldRef field="team-70.0th_pctl"/>
					<FieldRef field="('70.0th-pctl-dfs', 'P')"/>
				</Apply>
			</DerivedField>
			<DerivedField name="float(team-70.0th_pctl:('70.0th-pctl-dfs', 'P'))" optype="continuous" dataType="float">
				<FieldRef field="team-70.0th_pctl:('70.0th-pctl-dfs', 'P')"/>
			</DerivedField>
			<DerivedField name="double(float(team-70.0th_pctl:('70.0th-pctl-dfs', 'P')))" optype="continuous" dataType="double">
				<FieldRef field="float(team-70.0th_pctl:('70.0th-pctl-dfs', 'P'))"/>
			</DerivedField>
			<DerivedField name="team-med:('70.0th-pctl-dfs', '2B')" optype="continuous" dataType="double">
				<Apply function="*">
					<FieldRef field="team-med"/>
					<FieldRef field="('70.0th-pctl-dfs', '2B')"/>
				</Apply>
			</DerivedField>
			<DerivedField name="float(team-med:('70.0th-pctl-dfs', '2B'))" optype="continuous" dataType="float">
				<FieldRef field="team-med:('70.0th-pctl-dfs', '2B')"/>
			</DerivedField>
			<DerivedField name="double(float(team-med:('70.0th-pctl-dfs', '2B')))" optype="continuous" dataType="double">
				<FieldRef field="float(team-med:('70.0th-pctl-dfs', '2B'))"/>
			</DerivedField>
			<DerivedField name="('med-dfs', 'P'):('70.0th-pctl-dfs', 'SS')" optype="continuous" dataType="double">
				<Apply function="*">
					<FieldRef field="('med-dfs', 'P')"/>
					<FieldRef field="('70.0th-pctl-dfs', 'SS')"/>
				</Apply>
			</DerivedField>
			<DerivedField name="float(('med-dfs', 'P'):('70.0th-pctl-dfs', 'SS'))" optype="continuous" dataType="float">
				<FieldRef field="('med-dfs', 'P'):('70.0th-pctl-dfs', 'SS')"/>
			</DerivedField>
			<DerivedField name="double(float(('med-dfs', 'P'):('70.0th-pctl-dfs', 'SS')))" optype="continuous" dataType="double">
				<FieldRef field="float(('med-dfs', 'P'):('70.0th-pctl-dfs', 'SS'))"/>
			</DerivedField>
			<DerivedField name="float(('70.0th-pctl-dfs', 'SS'))" optype="continuous" dataType="float">
				<FieldRef field="('70.0th-pctl-dfs', 'SS')"/>
			</DerivedField>
			<DerivedField name="double(float(('70.0th-pctl-dfs', 'SS')))" optype="continuous" dataType="double">
				<FieldRef field="float(('70.0th-pctl-dfs', 'SS'))"/>
			</DerivedField>
			<DerivedField name="('med-dfs', '3B'):('med-dfs', 'P')" optype="continuous" dataType="double">
				<Apply function="*">
					<FieldRef field="('med-dfs', '3B')"/>
					<FieldRef field="('med-dfs', 'P')"/>
				</Apply>
			</DerivedField>
			<DerivedField name="float(('med-dfs', '3B'):('med-dfs', 'P'))" optype="continuous" dataType="float">
				<FieldRef field="('med-dfs', '3B'):('med-dfs', 'P')"/>
			</DerivedField>
			<DerivedField name="double(float(('med-dfs', '3B'):('med-dfs', 'P')))" optype="continuous" dataType="double">
				<FieldRef field="float(('med-dfs', '3B'):('med-dfs', 'P'))"/>
			</DerivedField>
			<DerivedField name="team_count:('70.0th-pctl-dfs', '2B')" optype="continuous" dataType="double">
				<Apply function="*">
					<FieldRef field="team_count"/>
					<FieldRef field="('70.0th-pctl-dfs', '2B')"/>
				</Apply>
			</DerivedField>
			<DerivedField name="float(team_count:('70.0th-pctl-dfs', '2B'))" optype="continuous" dataType="float">
				<FieldRef field="team_count:('70.0th-pctl-dfs', '2B')"/>
			</DerivedField>
			<DerivedField name="double(float(team_count:('70.0th-pctl-dfs', '2B')))" optype="continuous" dataType="double">
				<FieldRef field="float(team_count:('70.0th-pctl-dfs', '2B'))"/>
			</DerivedField>
			<DerivedField name="('med-dfs', 'P'):('70.0th-pctl-dfs', 'C')" optype="continuous" dataType="double">
				<Apply function="*">
					<FieldRef field="('med-dfs', 'P')"/>
					<FieldRef field="('70.0th-pctl-dfs', 'C')"/>
				</Apply>
			</DerivedField>
			<DerivedField name="float(('med-dfs', 'P'):('70.0th-pctl-dfs', 'C'))" optype="continuous" dataType="float">
				<FieldRef field="('med-dfs', 'P'):('70.0th-pctl-dfs', 'C')"/>
			</DerivedField>
			<DerivedField name="double(float(('med-dfs', 'P'):('70.0th-pctl-dfs', 'C')))" optype="continuous" dataType="double">
				<FieldRef field="float(('med-dfs', 'P'):('70.0th-pctl-dfs', 'C'))"/>
			</DerivedField>
			<DerivedField name="('med-dfs', '1B'):('70.0th-pctl-dfs', 'P')" optype="continuous" dataType="double">
				<Apply function="*">
					<FieldRef field="('med-dfs', '1B')"/>
					<FieldRef field="('70.0th-pctl-dfs', 'P')"/>
				</Apply>
			</DerivedField>
			<DerivedField name="float(('med-dfs', '1B'):('70.0th-pctl-dfs', 'P'))" optype="continuous" dataType="float">
				<FieldRef field="('med-dfs', '1B'):('70.0th-pctl-dfs', 'P')"/>
			</DerivedField>
			<DerivedField name="double(float(('med-dfs', '1B'):('70.0th-pctl-dfs', 'P')))" optype="continuous" dataType="double">
				<FieldRef field="float(('med-dfs', '1B'):('70.0th-pctl-dfs', 'P'))"/>
			</DerivedField>
			<DerivedField name="('70.0th-pctl-dfs', '2B'):('70.0th-pctl-dfs', 'SS')" optype="continuous" dataType="double">
				<Apply function="*">
					<FieldRef field="('70.0th-pctl-dfs', '2B')"/>
					<FieldRef field="('70.0th-pctl-dfs', 'SS')"/>
				</Apply>
			</DerivedField>
			<DerivedField name="float(('70.0th-pctl-dfs', '2B'):('70.0th-pctl-dfs', 'SS'))" optype="continuous" dataType="float">
				<FieldRef field="('70.0th-pctl-dfs', '2B'):('70.0th-pctl-dfs', 'SS')"/>
			</DerivedField>
			<DerivedField name="double(float(('70.0th-pctl-dfs', '2B'):('70.0th-pctl-dfs', 'SS')))" optype="continuous" dataType="double">
				<FieldRef field="float(('70.0th-pctl-dfs', '2B'):('70.0th-pctl-dfs', 'SS'))"/>
			</DerivedField>
			<DerivedField name="('med-dfs', 'P'):('70.0th-pctl-dfs', 'P')" optype="continuous" dataType="double">
				<Apply function="*">
					<FieldRef field="('med-dfs', 'P')"/>
					<FieldRef field="('70.0th-pctl-dfs', 'P')"/>
				</Apply>
			</DerivedField>
			<DerivedField name="float(('med-dfs', 'P'):('70.0th-pctl-dfs', 'P'))" optype="continuous" dataType="float">
				<FieldRef field="('med-dfs', 'P'):('70.0th-pctl-dfs', 'P')"/>
			</DerivedField>
			<DerivedField name="double(float(('med-dfs', 'P'):('70.0th-pctl-dfs', 'P')))" optype="continuous" dataType="double">
				<FieldRef field="float(('med-dfs', 'P'):('70.0th-pctl-dfs', 'P'))"/>
			</DerivedField>
			<DerivedField name="('med-dfs', '3B'):('70.0th-pctl-dfs', '2B')" optype="continuous" dataType="double">
				<Apply function="*">
					<FieldRef field="('med-dfs', '3B')"/>
					<FieldRef field="('70.0th-pctl-dfs', '2B')"/>
				</Apply>
			</DerivedField>
			<DerivedField name="float(('med-dfs', '3B'):('70.0th-pctl-dfs', '2B'))" optype="continuous" dataType="float">
				<FieldRef field="('med-dfs', '3B'):('70.0th-pctl-dfs', '2B')"/>
			</DerivedField>
			<DerivedField name="double(float(('med-dfs', '3B'):('70.0th-pctl-dfs', '2B')))" optype="continuous" dataType="double">
				<FieldRef field="float(('med-dfs', '3B'):('70.0th-pctl-dfs', '2B'))"/>
			</DerivedField>
			<DerivedField name="('70.0th-pctl-dfs', '3B')^2" optype="continuous" dataType="double">
				<Apply function="pow">
					<FieldRef field="('70.0th-pctl-dfs', '3B')"/>
					<Constant dataType="integer">2</Constant>
				</Apply>
			</DerivedField>
			<DerivedField name="float(('70.0th-pctl-dfs', '3B')^2)" optype="continuous" dataType="float">
				<FieldRef field="('70.0th-pctl-dfs', '3B')^2"/>
			</DerivedField>
			<DerivedField name="double(float(('70.0th-pctl-dfs', '3B')^2))" optype="continuous" dataType="double">
				<FieldRef field="float(('70.0th-pctl-dfs', '3B')^2)"/>
			</DerivedField>
			<DerivedField name="best-possible-score^2" optype="continuous" dataType="double">
				<Apply function="pow">
					<FieldRef field="best-possible-score"/>
					<Constant dataType="integer">2</Constant>
				</Apply>
			</DerivedField>
			<DerivedField name="float(best-possible-score^2)" optype="continuous" dataType="float">
				<FieldRef field="best-possible-score^2"/>
			</DerivedField>
			<DerivedField name="double(float(best-possible-score^2))" optype="continuous" dataType="double">
				<FieldRef field="float(best-possible-score^2)"/>
			</DerivedField>
			<DerivedField name="('med-dfs', '2B'):('med-dfs', 'OF')" optype="continuous" dataType="double">
				<Apply function="*">
					<FieldRef field="('med-dfs', '2B')"/>
					<FieldRef field="('med-dfs', 'OF')"/>
				</Apply>
			</DerivedField>
			<DerivedField name="float(('med-dfs', '2B'):('med-dfs', 'OF'))" optype="continuous" dataType="float">
				<FieldRef field="('med-dfs', '2B'):('med-dfs', 'OF')"/>
			</DerivedField>
			<DerivedField name="double(float(('med-dfs', '2B'):('med-dfs', 'OF')))" optype="continuous" dataType="double">
				<FieldRef field="float(('med-dfs', '2B'):('med-dfs', 'OF'))"/>
			</DerivedField>
			<DerivedField name="team-70.0th_pctl:('med-dfs', 'P')" optype="continuous" dataType="double">
				<Apply function="*">
					<FieldRef field="team-70.0th_pctl"/>
					<FieldRef field="('med-dfs', 'P')"/>
				</Apply>
			</DerivedField>
			<DerivedField name="float(team-70.0th_pctl:('med-dfs', 'P'))" optype="continuous" dataType="float">
				<FieldRef field="team-70.0th_pctl:('med-dfs', 'P')"/>
			</DerivedField>
			<DerivedField name="double(float(team-70.0th_pctl:('med-dfs', 'P')))" optype="continuous" dataType="double">
				<FieldRef field="float(team-70.0th_pctl:('med-dfs', 'P'))"/>
			</DerivedField>
			<DerivedField name="('70.0th-pctl-dfs', '3B'):('70.0th-pctl-dfs', 'OF')" optype="continuous" dataType="double">
				<Apply function="*">
					<FieldRef field="('70.0th-pctl-dfs', '3B')"/>
					<FieldRef field="('70.0th-pctl-dfs', 'OF')"/>
				</Apply>
			</DerivedField>
			<DerivedField name="float(('70.0th-pctl-dfs', '3B'):('70.0th-pctl-dfs', 'OF'))" optype="continuous" dataType="float">
				<FieldRef field="('70.0th-pctl-dfs', '3B'):('70.0th-pctl-dfs', 'OF')"/>
			</DerivedField>
			<DerivedField name="double(float(('70.0th-pctl-dfs', '3B'):('70.0th-pctl-dfs', 'OF')))" optype="continuous" dataType="double">
				<FieldRef field="float(('70.0th-pctl-dfs', '3B'):('70.0th-pctl-dfs', 'OF'))"/>
			</DerivedField>
			<DerivedField name="float(('70.0th-pctl-dfs', '1B'))" optype="continuous" dataType="float">
				<FieldRef field="('70.0th-pctl-dfs', '1B')"/>
			</DerivedField>
			<DerivedField name="double(float(('70.0th-pctl-dfs', '1B')))" optype="continuous" dataType="double">
				<FieldRef field="float(('70.0th-pctl-dfs', '1B'))"/>
			</DerivedField>
			<DerivedField name="team_count:('med-dfs', 'P')" optype="continuous" dataType="double">
				<Apply function="*">
					<FieldRef field="team_count"/>
					<FieldRef field="('med-dfs', 'P')"/>
				</Apply>
			</DerivedField>
			<DerivedField name="float(team_count:('med-dfs', 'P'))" optype="continuous" dataType="float">
				<FieldRef field="team_count:('med-dfs', 'P')"/>
			</DerivedField>
			<DerivedField name="double(float(team_count:('med-dfs', 'P')))" optype="continuous" dataType="double">
				<FieldRef field="float(team_count:('med-dfs', 'P'))"/>
			</DerivedField>
			<DerivedField name="team_count:('med-dfs', '3B')" optype="continuous" dataType="double">
				<Apply function="*">
					<FieldRef field="team_count"/>
					<FieldRef field="('med-dfs', '3B')"/>
				</Apply>
			</DerivedField>
			<DerivedField name="float(team_count:('med-dfs', '3B'))" optype="continuous" dataType="float">
				<FieldRef field="team_count:('med-dfs', '3B')"/>
			</DerivedField>
			<DerivedField name="double(float(team_count:('med-dfs', '3B')))" optype="continuous" dataType="double">
				<FieldRef field="float(team_count:('med-dfs', '3B'))"/>
			</DerivedField>
			<DerivedField name="('med-dfs', '1B'):('med-dfs', '2B')" optype="continuous" dataType="double">
				<Apply function="*">
					<FieldRef field="('med-dfs', '1B')"/>
					<FieldRef field="('med-dfs', '2B')"/>
				</Apply>
			</DerivedField>
			<DerivedField name="float(('med-dfs', '1B'):('med-dfs', '2B'))" optype="continuous" dataType="float">
				<FieldRef field="('med-dfs', '1B'):('med-dfs', '2B')"/>
			</DerivedField>
			<DerivedField name="double(float(('med-dfs', '1B'):('med-dfs', '2B')))" optype="continuous" dataType="double">
				<FieldRef field="float(('med-dfs', '1B'):('med-dfs', '2B'))"/>
			</DerivedField>
			<DerivedField name="team-med:('med-dfs', 'C')" optype="continuous" dataType="double">
				<Apply function="*">
					<FieldRef field="team-med"/>
					<FieldRef field="('med-dfs', 'C')"/>
				</Apply>
			</DerivedField>
			<DerivedField name="float(team-med:('med-dfs', 'C'))" optype="continuous" dataType="float">
				<FieldRef field="team-med:('med-dfs', 'C')"/>
			</DerivedField>
			<DerivedField name="double(float(team-med:('med-dfs', 'C')))" optype="continuous" dataType="double">
				<FieldRef field="float(team-med:('med-dfs', 'C'))"/>
			</DerivedField>
			<DerivedField name="team-70.0th_pctl:('med-dfs', '2B')" optype="continuous" dataType="double">
				<Apply function="*">
					<FieldRef field="team-70.0th_pctl"/>
					<FieldRef field="('med-dfs', '2B')"/>
				</Apply>
			</DerivedField>
			<DerivedField name="float(team-70.0th_pctl:('med-dfs', '2B'))" optype="continuous" dataType="float">
				<FieldRef field="team-70.0th_pctl:('med-dfs', '2B')"/>
			</DerivedField>
			<DerivedField name="double(float(team-70.0th_pctl:('med-dfs', '2B')))" optype="continuous" dataType="double">
				<FieldRef field="float(team-70.0th_pctl:('med-dfs', '2B'))"/>
			</DerivedField>
			<DerivedField name="('med-dfs', '1B'):('70.0th-pctl-dfs', '1B')" optype="continuous" dataType="double">
				<Apply function="*">
					<FieldRef field="('med-dfs', '1B')"/>
					<FieldRef field="('70.0th-pctl-dfs', '1B')"/>
				</Apply>
			</DerivedField>
			<DerivedField name="float(('med-dfs', '1B'):('70.0th-pctl-dfs', '1B'))" optype="continuous" dataType="float">
				<FieldRef field="('med-dfs', '1B'):('70.0th-pctl-dfs', '1B')"/>
			</DerivedField>
			<DerivedField name="double(float(('med-dfs', '1B'):('70.0th-pctl-dfs', '1B')))" optype="continuous" dataType="double">
				<FieldRef field="float(('med-dfs', '1B'):('70.0th-pctl-dfs', '1B'))"/>
			</DerivedField>
			<DerivedField name="('med-dfs', 'P'):('70.0th-pctl-dfs', '1B')" optype="continuous" dataType="double">
				<Apply function="*">
					<FieldRef field="('med-dfs', 'P')"/>
					<FieldRef field="('70.0th-pctl-dfs', '1B')"/>
				</Apply>
			</DerivedField>
			<DerivedField name="float(('med-dfs', 'P'):('70.0th-pctl-dfs', '1B'))" optype="continuous" dataType="float">
				<FieldRef field="('med-dfs', 'P'):('70.0th-pctl-dfs', '1B')"/>
			</DerivedField>
			<DerivedField name="double(float(('med-dfs', 'P'):('70.0th-pctl-dfs', '1B')))" optype="continuous" dataType="double">
				<FieldRef field="float(('med-dfs', 'P'):('70.0th-pctl-dfs', '1B'))"/>
			</DerivedField>
			<DerivedField name="('med-dfs', '2B'):('med-dfs', 'P')" optype="continuous" dataType="double">
				<Apply function="*">
					<FieldRef field="('med-dfs', '2B')"/>
					<FieldRef field="('med-dfs', 'P')"/>
				</Apply>
			</DerivedField>
			<DerivedField name="float(('med-dfs', '2B'):('med-dfs', 'P'))" optype="continuous" dataType="float">
				<FieldRef field="('med-dfs', '2B'):('med-dfs', 'P')"/>
			</DerivedField>
			<DerivedField name="double(float(('med-dfs', '2B'):('med-dfs', 'P')))" optype="continuous" dataType="double">
				<FieldRef field="float(('med-dfs', '2B'):('med-dfs', 'P'))"/>
			</DerivedField>
			<DerivedField name="best-possible-score:('70.0th-pctl-dfs', '2B')" optype="continuous" dataType="double">
				<Apply function="*">
					<FieldRef field="best-possible-score"/>
					<FieldRef field="('70.0th-pctl-dfs', '2B')"/>
				</Apply>
			</DerivedField>
			<DerivedField name="float(best-possible-score:('70.0th-pctl-dfs', '2B'))" optype="continuous" dataType="float">
				<FieldRef field="best-possible-score:('70.0th-pctl-dfs', '2B')"/>
			</DerivedField>
			<DerivedField name="double(float(best-possible-score:('70.0th-pctl-dfs', '2B')))" optype="continuous" dataType="double">
				<FieldRef field="float(best-possible-score:('70.0th-pctl-dfs', '2B'))"/>
			</DerivedField>
			<DerivedField name="best-possible-score:('med-dfs', '3B')" optype="continuous" dataType="double">
				<Apply function="*">
					<FieldRef field="best-possible-score"/>
					<FieldRef field="('med-dfs', '3B')"/>
				</Apply>
			</DerivedField>
			<DerivedField name="float(best-possible-score:('med-dfs', '3B'))" optype="continuous" dataType="float">
				<FieldRef field="best-possible-score:('med-dfs', '3B')"/>
			</DerivedField>
			<DerivedField name="double(float(best-possible-score:('med-dfs', '3B')))" optype="continuous" dataType="double">
				<FieldRef field="float(best-possible-score:('med-dfs', '3B'))"/>
			</DerivedField>
			<DerivedField name="('med-dfs', '2B'):('70.0th-pctl-dfs', 'P')" optype="continuous" dataType="double">
				<Apply function="*">
					<FieldRef field="('med-dfs', '2B')"/>
					<FieldRef field="('70.0th-pctl-dfs', 'P')"/>
				</Apply>
			</DerivedField>
			<DerivedField name="float(('med-dfs', '2B'):('70.0th-pctl-dfs', 'P'))" optype="continuous" dataType="float">
				<FieldRef field="('med-dfs', '2B'):('70.0th-pctl-dfs', 'P')"/>
			</DerivedField>
			<DerivedField name="double(float(('med-dfs', '2B'):('70.0th-pctl-dfs', 'P')))" optype="continuous" dataType="double">
				<FieldRef field="float(('med-dfs', '2B'):('70.0th-pctl-dfs', 'P'))"/>
			</DerivedField>
			<DerivedField name="team_count:team-med" optype="continuous" dataType="double">
				<Apply function="*">
					<FieldRef field="team_count"/>
					<FieldRef field="team-med"/>
				</Apply>
			</DerivedField>
			<DerivedField name="float(team_count:team-med)" optype="continuous" dataType="float">
				<FieldRef field="team_count:team-med"/>
			</DerivedField>
			<DerivedField name="double(float(team_count:team-med))" optype="continuous" dataType="double">
				<FieldRef field="float(team_count:team-med)"/>
			</DerivedField>
			<DerivedField name="team-med:('med-dfs', 'OF')" optype="continuous" dataType="double">
				<Apply function="*">
					<FieldRef field="team-med"/>
					<FieldRef field="('med-dfs', 'OF')"/>
				</Apply>
			</DerivedField>
			<DerivedField name="float(team-med:('med-dfs', 'OF'))" optype="continuous" dataType="float">
				<FieldRef field="team-med:('med-dfs', 'OF')"/>
			</DerivedField>
			<DerivedField name="double(float(team-med:('med-dfs', 'OF')))" optype="continuous" dataType="double">
				<FieldRef field="float(team-med:('med-dfs', 'OF'))"/>
			</DerivedField>
			<DerivedField name="('med-dfs', '2B'):('70.0th-pctl-dfs', 'OF')" optype="continuous" dataType="double">
				<Apply function="*">
					<FieldRef field="('med-dfs', '2B')"/>
					<FieldRef field="('70.0th-pctl-dfs', 'OF')"/>
				</Apply>
			</DerivedField>
			<DerivedField name="float(('med-dfs', '2B'):('70.0th-pctl-dfs', 'OF'))" optype="continuous" dataType="float">
				<FieldRef field="('med-dfs', '2B'):('70.0th-pctl-dfs', 'OF')"/>
			</DerivedField>
			<DerivedField name="double(float(('med-dfs', '2B'):('70.0th-pctl-dfs', 'OF')))" optype="continuous" dataType="double">
				<FieldRef field="float(('med-dfs', '2B'):('70.0th-pctl-dfs', 'OF'))"/>
			</DerivedField>
			<DerivedField name="float(team-70.0th_pctl)" optype="continuous" dataType="float">
				<FieldRef field="team-70.0th_pctl"/>
			</DerivedField>
			<DerivedField name="double(float(team-70.0th_pctl))" optype="continuous" dataType="double">
				<FieldRef field="float(team-70.0th_pctl)"/>
			</DerivedField>
			<DerivedField name="('med-dfs', '3B'):('70.0th-pctl-dfs', '1B')" optype="continuous" dataType="double">
				<Apply function="*">
					<FieldRef field="('med-dfs', '3B')"/>
					<FieldRef field="('70.0th-pctl-dfs', '1B')"/>
				</Apply>
			</DerivedField>
			<DerivedField name="float(('med-dfs', '3B'):('70.0th-pctl-dfs', '1B'))" optype="continuous" dataType="float">
				<FieldRef field="('med-dfs', '3B'):('70.0th-pctl-dfs', '1B')"/>
			</DerivedField>
			<DerivedField name="double(float(('med-dfs', '3B'):('70.0th-pctl-dfs', '1B')))" optype="continuous" dataType="double">
				<FieldRef field="float(('med-dfs', '3B'):('70.0th-pctl-dfs', '1B'))"/>
			</DerivedField>
			<DerivedField name="('med-dfs', '3B'):('med-dfs', 'OF')" optype="continuous" dataType="double">
				<Apply function="*">
					<FieldRef field="('med-dfs', '3B')"/>
					<FieldRef field="('med-dfs', 'OF')"/>
				</Apply>
			</DerivedField>
			<DerivedField name="float(('med-dfs', '3B'):('med-dfs', 'OF'))" optype="continuous" dataType="float">
				<FieldRef field="('med-dfs', '3B'):('med-dfs', 'OF')"/>
			</DerivedField>
			<DerivedField name="double(float(('med-dfs', '3B'):('med-dfs', 'OF')))" optype="continuous" dataType="double">
				<FieldRef field="float(('med-dfs', '3B'):('med-dfs', 'OF'))"/>
			</DerivedField>
			<DerivedField name="('70.0th-pctl-dfs', '3B'):('70.0th-pctl-dfs', 'C')" optype="continuous" dataType="double">
				<Apply function="*">
					<FieldRef field="('70.0th-pctl-dfs', '3B')"/>
					<FieldRef field="('70.0th-pctl-dfs', 'C')"/>
				</Apply>
			</DerivedField>
			<DerivedField name="float(('70.0th-pctl-dfs', '3B'):('70.0th-pctl-dfs', 'C'))" optype="continuous" dataType="float">
				<FieldRef field="('70.0th-pctl-dfs', '3B'):('70.0th-pctl-dfs', 'C')"/>
			</DerivedField>
			<DerivedField name="double(float(('70.0th-pctl-dfs', '3B'):('70.0th-pctl-dfs', 'C')))" optype="continuous" dataType="double">
				<FieldRef field="float(('70.0th-pctl-dfs', '3B'):('70.0th-pctl-dfs', 'C'))"/>
			</DerivedField>
			<DerivedField name="('70.0th-pctl-dfs', 'SS')^2" optype="continuous" dataType="double">
				<Apply function="pow">
					<FieldRef field="('70.0th-pctl-dfs', 'SS')"/>
					<Constant dataType="integer">2</Constant>
				</Apply>
			</DerivedField>
			<DerivedField name="float(('70.0th-pctl-dfs', 'SS')^2)" optype="continuous" dataType="float">
				<FieldRef field="('70.0th-pctl-dfs', 'SS')^2"/>
			</DerivedField>
			<DerivedField name="double(float(('70.0th-pctl-dfs', 'SS')^2))" optype="continuous" dataType="double">
				<FieldRef field="float(('70.0th-pctl-dfs', 'SS')^2)"/>
			</DerivedField>
			<DerivedField name="team-70.0th_pctl:('med-dfs', 'SS')" optype="continuous" dataType="double">
				<Apply function="*">
					<FieldRef field="team-70.0th_pctl"/>
					<FieldRef field="('med-dfs', 'SS')"/>
				</Apply>
			</DerivedField>
			<DerivedField name="float(team-70.0th_pctl:('med-dfs', 'SS'))" optype="continuous" dataType="float">
				<FieldRef field="team-70.0th_pctl:('med-dfs', 'SS')"/>
			</DerivedField>
			<DerivedField name="double(float(team-70.0th_pctl:('med-dfs', 'SS')))" optype="continuous" dataType="double">
				<FieldRef field="float(team-70.0th_pctl:('med-dfs', 'SS'))"/>
			</DerivedField>
			<DerivedField name="('med-dfs', 'C'):('med-dfs', 'P')" optype="continuous" dataType="double">
				<Apply function="*">
					<FieldRef field="('med-dfs', 'C')"/>
					<FieldRef field="('med-dfs', 'P')"/>
				</Apply>
			</DerivedField>
			<DerivedField name="float(('med-dfs', 'C'):('med-dfs', 'P'))" optype="continuous" dataType="float">
				<FieldRef field="('med-dfs', 'C'):('med-dfs', 'P')"/>
			</DerivedField>
			<DerivedField name="double(float(('med-dfs', 'C'):('med-dfs', 'P')))" optype="continuous" dataType="double">
				<FieldRef field="float(('med-dfs', 'C'):('med-dfs', 'P'))"/>
			</DerivedField>
			<DerivedField name="('med-dfs', 'OF'):('70.0th-pctl-dfs', '1B')" optype="continuous" dataType="double">
				<Apply function="*">
					<FieldRef field="('med-dfs', 'OF')"/>
					<FieldRef field="('70.0th-pctl-dfs', '1B')"/>
				</Apply>
			</DerivedField>
			<DerivedField name="float(('med-dfs', 'OF'):('70.0th-pctl-dfs', '1B'))" optype="continuous" dataType="float">
				<FieldRef field="('med-dfs', 'OF'):('70.0th-pctl-dfs', '1B')"/>
			</DerivedField>
			<DerivedField name="double(float(('med-dfs', 'OF'):('70.0th-pctl-dfs', '1B')))" optype="continuous" dataType="double">
				<FieldRef field="float(('med-dfs', 'OF'):('70.0th-pctl-dfs', '1B'))"/>
			</DerivedField>
			<DerivedField name="team-70.0th_pctl:('70.0th-pctl-dfs', 'SS')" optype="continuous" dataType="double">
				<Apply function="*">
					<FieldRef field="team-70.0th_pctl"/>
					<FieldRef field="('70.0th-pctl-dfs', 'SS')"/>
				</Apply>
			</DerivedField>
			<DerivedField name="float(team-70.0th_pctl:('70.0th-pctl-dfs', 'SS'))" optype="continuous" dataType="float">
				<FieldRef field="team-70.0th_pctl:('70.0th-pctl-dfs', 'SS')"/>
			</DerivedField>
			<DerivedField name="double(float(team-70.0th_pctl:('70.0th-pctl-dfs', 'SS')))" optype="continuous" dataType="double">
				<FieldRef field="float(team-70.0th_pctl:('70.0th-pctl-dfs', 'SS'))"/>
			</DerivedField>
			<DerivedField name="team_count:('70.0th-pctl-dfs', '3B')" optype="continuous" dataType="double">
				<Apply function="*">
					<FieldRef field="team_count"/>
					<FieldRef field="('70.0th-pctl-dfs', '3B')"/>
				</Apply>
			</DerivedField>
			<DerivedField name="float(team_count:('70.0th-pctl-dfs', '3B'))" optype="continuous" dataType="float">
				<FieldRef field="team_count:('70.0th-pctl-dfs', '3B')"/>
			</DerivedField>
			<DerivedField name="double(float(team_count:('70.0th-pctl-dfs', '3B')))" optype="continuous" dataType="double">
				<FieldRef field="float(team_count:('70.0th-pctl-dfs', '3B'))"/>
			</DerivedField>
			<DerivedField name="team-med:('70.0th-pctl-dfs', 'P')" optype="continuous" dataType="double">
				<Apply function="*">
					<FieldRef field="team-med"/>
					<FieldRef field="('70.0th-pctl-dfs', 'P')"/>
				</Apply>
			</DerivedField>
			<DerivedField name="float(team-med:('70.0th-pctl-dfs', 'P'))" optype="continuous" dataType="float">
				<FieldRef field="team-med:('70.0th-pctl-dfs', 'P')"/>
			</DerivedField>
			<DerivedField name="double(float(team-med:('70.0th-pctl-dfs', 'P')))" optype="continuous" dataType="double">
				<FieldRef field="float(team-med:('70.0th-pctl-dfs', 'P'))"/>
			</DerivedField>
			<DerivedField name="('med-dfs', 'OF'):('70.0th-pctl-dfs', 'SS')" optype="continuous" dataType="double">
				<Apply function="*">
					<FieldRef field="('med-dfs', 'OF')"/>
					<FieldRef field="('70.0th-pctl-dfs', 'SS')"/>
				</Apply>
			</DerivedField>
			<DerivedField name="float(('med-dfs', 'OF'):('70.0th-pctl-dfs', 'SS'))" optype="continuous" dataType="float">
				<FieldRef field="('med-dfs', 'OF'):('70.0th-pctl-dfs', 'SS')"/>
			</DerivedField>
			<DerivedField name="double(float(('med-dfs', 'OF'):('70.0th-pctl-dfs', 'SS')))" optype="continuous" dataType="double">
				<FieldRef field="float(('med-dfs', 'OF'):('70.0th-pctl-dfs', 'SS'))"/>
			</DerivedField>
			<DerivedField name="('70.0th-pctl-dfs', '2B'):('70.0th-pctl-dfs', 'P')" optype="continuous" dataType="double">
				<Apply function="*">
					<FieldRef field="('70.0th-pctl-dfs', '2B')"/>
					<FieldRef field="('70.0th-pctl-dfs', 'P')"/>
				</Apply>
			</DerivedField>
			<DerivedField name="float(('70.0th-pctl-dfs', '2B'):('70.0th-pctl-dfs', 'P'))" optype="continuous" dataType="float">
				<FieldRef field="('70.0th-pctl-dfs', '2B'):('70.0th-pctl-dfs', 'P')"/>
			</DerivedField>
			<DerivedField name="double(float(('70.0th-pctl-dfs', '2B'):('70.0th-pctl-dfs', 'P')))" optype="continuous" dataType="double">
				<FieldRef field="float(('70.0th-pctl-dfs', '2B'):('70.0th-pctl-dfs', 'P'))"/>
			</DerivedField>
			<DerivedField name="('med-dfs', '1B'):('70.0th-pctl-dfs', 'C')" optype="continuous" dataType="double">
				<Apply function="*">
					<FieldRef field="('med-dfs', '1B')"/>
					<FieldRef field="('70.0th-pctl-dfs', 'C')"/>
				</Apply>
			</DerivedField>
			<DerivedField name="float(('med-dfs', '1B'):('70.0th-pctl-dfs', 'C'))" optype="continuous" dataType="float">
				<FieldRef field="('med-dfs', '1B'):('70.0th-pctl-dfs', 'C')"/>
			</DerivedField>
			<DerivedField name="double(float(('med-dfs', '1B'):('70.0th-pctl-dfs', 'C')))" optype="continuous" dataType="double">
				<FieldRef field="float(('med-dfs', '1B'):('70.0th-pctl-dfs', 'C'))"/>
			</DerivedField>
			<DerivedField name="team_count^2" optype="continuous" dataType="double">
				<Apply function="pow">
					<FieldRef field="team_count"/>
					<Constant dataType="integer">2</Constant>
				</Apply>
			</DerivedField>
			<DerivedField name="float(team_count^2)" optype="continuous" dataType="float">
				<FieldRef field="team_count^2"/>
			</DerivedField>
			<DerivedField name="double(float(team_count^2))" optype="continuous" dataType="double">
				<FieldRef field="float(team_count^2)"/>
			</DerivedField>
			<DerivedField name="('70.0th-pctl-dfs', '1B'):('70.0th-pctl-dfs', '2B')" optype="continuous" dataType="double">
				<Apply function="*">
					<FieldRef field="('70.0th-pctl-dfs', '1B')"/>
					<FieldRef field="('70.0th-pctl-dfs', '2B')"/>
				</Apply>
			</DerivedField>
			<DerivedField name="float(('70.0th-pctl-dfs', '1B'):('70.0th-pctl-dfs', '2B'))" optype="continuous" dataType="float">
				<FieldRef field="('70.0th-pctl-dfs', '1B'):('70.0th-pctl-dfs', '2B')"/>
			</DerivedField>
			<DerivedField name="double(float(('70.0th-pctl-dfs', '1B'):('70.0th-pctl-dfs', '2B')))" optype="continuous" dataType="double">
				<FieldRef field="float(('70.0th-pctl-dfs', '1B'):('70.0th-pctl-dfs', '2B'))"/>
			</DerivedField>
			<DerivedField name="('70.0th-pctl-dfs', 'P'):('70.0th-pctl-dfs', 'SS')" optype="continuous" dataType="double">
				<Apply function="*">
					<FieldRef field="('70.0th-pctl-dfs', 'P')"/>
					<FieldRef field="('70.0th-pctl-dfs', 'SS')"/>
				</Apply>
			</DerivedField>
			<DerivedField name="float(('70.0th-pctl-dfs', 'P'):('70.0th-pctl-dfs', 'SS'))" optype="continuous" dataType="float">
				<FieldRef field="('70.0th-pctl-dfs', 'P'):('70.0th-pctl-dfs', 'SS')"/>
			</DerivedField>
			<DerivedField name="double(float(('70.0th-pctl-dfs', 'P'):('70.0th-pctl-dfs', 'SS')))" optype="continuous" dataType="double">
				<FieldRef field="float(('70.0th-pctl-dfs', 'P'):('70.0th-pctl-dfs', 'SS'))"/>
			</DerivedField>
			<DerivedField name="('med-dfs', '1B'):('med-dfs', 'OF')" optype="continuous" dataType="double">
				<Apply function="*">
					<FieldRef field="('med-dfs', '1B')"/>
					<FieldRef field="('med-dfs', 'OF')"/>
				</Apply>
			</DerivedField>
			<DerivedField name="float(('med-dfs', '1B'):('med-dfs', 'OF'))" optype="continuous" dataType="float">
				<FieldRef field="('med-dfs', '1B'):('med-dfs', 'OF')"/>
			</DerivedField>
			<DerivedField name="double(float(('med-dfs', '1B'):('med-dfs', 'OF')))" optype="continuous" dataType="double">
				<FieldRef field="float(('med-dfs', '1B'):('med-dfs', 'OF'))"/>
			</DerivedField>
			<DerivedField name="('med-dfs', 'C'):('70.0th-pctl-dfs', 'P')" optype="continuous" dataType="double">
				<Apply function="*">
					<FieldRef field="('med-dfs', 'C')"/>
					<FieldRef field="('70.0th-pctl-dfs', 'P')"/>
				</Apply>
			</DerivedField>
			<DerivedField name="float(('med-dfs', 'C'):('70.0th-pctl-dfs', 'P'))" optype="continuous" dataType="float">
				<FieldRef field="('med-dfs', 'C'):('70.0th-pctl-dfs', 'P')"/>
			</DerivedField>
			<DerivedField name="double(float(('med-dfs', 'C'):('70.0th-pctl-dfs', 'P')))" optype="continuous" dataType="double">
				<FieldRef field="float(('med-dfs', 'C'):('70.0th-pctl-dfs', 'P'))"/>
			</DerivedField>
			<DerivedField name="team-70.0th_pctl:('med-dfs', 'OF')" optype="continuous" dataType="double">
				<Apply function="*">
					<FieldRef field="team-70.0th_pctl"/>
					<FieldRef field="('med-dfs', 'OF')"/>
				</Apply>
			</DerivedField>
			<DerivedField name="float(team-70.0th_pctl:('med-dfs', 'OF'))" optype="continuous" dataType="float">
				<FieldRef field="team-70.0th_pctl:('med-dfs', 'OF')"/>
			</DerivedField>
			<DerivedField name="double(float(team-70.0th_pctl:('med-dfs', 'OF')))" optype="continuous" dataType="double">
				<FieldRef field="float(team-70.0th_pctl:('med-dfs', 'OF'))"/>
			</DerivedField>
			<DerivedField name="('med-dfs', 'P'):('70.0th-pctl-dfs', '3B')" optype="continuous" dataType="double">
				<Apply function="*">
					<FieldRef field="('med-dfs', 'P')"/>
					<FieldRef field="('70.0th-pctl-dfs', '3B')"/>
				</Apply>
			</DerivedField>
			<DerivedField name="float(('med-dfs', 'P'):('70.0th-pctl-dfs', '3B'))" optype="continuous" dataType="float">
				<FieldRef field="('med-dfs', 'P'):('70.0th-pctl-dfs', '3B')"/>
			</DerivedField>
			<DerivedField name="double(float(('med-dfs', 'P'):('70.0th-pctl-dfs', '3B')))" optype="continuous" dataType="double">
				<FieldRef field="float(('med-dfs', 'P'):('70.0th-pctl-dfs', '3B'))"/>
			</DerivedField>
			<DerivedField name="('70.0th-pctl-dfs', 'C'):('70.0th-pctl-dfs', 'P')" optype="continuous" dataType="double">
				<Apply function="*">
					<FieldRef field="('70.0th-pctl-dfs', 'C')"/>
					<FieldRef field="('70.0th-pctl-dfs', 'P')"/>
				</Apply>
			</DerivedField>
			<DerivedField name="float(('70.0th-pctl-dfs', 'C'):('70.0th-pctl-dfs', 'P'))" optype="continuous" dataType="float">
				<FieldRef field="('70.0th-pctl-dfs', 'C'):('70.0th-pctl-dfs', 'P')"/>
			</DerivedField>
			<DerivedField name="double(float(('70.0th-pctl-dfs', 'C'):('70.0th-pctl-dfs', 'P')))" optype="continuous" dataType="double">
				<FieldRef field="float(('70.0th-pctl-dfs', 'C'):('70.0th-pctl-dfs', 'P'))"/>
			</DerivedField>
			<DerivedField name="('70.0th-pctl-dfs', '1B')^2" optype="continuous" dataType="double">
				<Apply function="pow">
					<FieldRef field="('70.0th-pctl-dfs', '1B')"/>
					<Constant dataType="integer">2</Constant>
				</Apply>
			</DerivedField>
			<DerivedField name="float(('70.0th-pctl-dfs', '1B')^2)" optype="continuous" dataType="float">
				<FieldRef field="('70.0th-pctl-dfs', '1B')^2"/>
			</DerivedField>
			<DerivedField name="double(float(('70.0th-pctl-dfs', '1B')^2))" optype="continuous" dataType="double">
				<FieldRef field="float(('70.0th-pctl-dfs', '1B')^2)"/>
			</DerivedField>
			<DerivedField name="float(('med-dfs', 'SS'))" optype="continuous" dataType="float">
				<FieldRef field="('med-dfs', 'SS')"/>
			</DerivedField>
			<DerivedField name="double(float(('med-dfs', 'SS')))" optype="continuous" dataType="double">
				<FieldRef field="float(('med-dfs', 'SS'))"/>
			</DerivedField>
			<DerivedField name="team-70.0th_pctl:('70.0th-pctl-dfs', 'C')" optype="continuous" dataType="double">
				<Apply function="*">
					<FieldRef field="team-70.0th_pctl"/>
					<FieldRef field="('70.0th-pctl-dfs', 'C')"/>
				</Apply>
			</DerivedField>
			<DerivedField name="float(team-70.0th_pctl:('70.0th-pctl-dfs', 'C'))" optype="continuous" dataType="float">
				<FieldRef field="team-70.0th_pctl:('70.0th-pctl-dfs', 'C')"/>
			</DerivedField>
			<DerivedField name="double(float(team-70.0th_pctl:('70.0th-pctl-dfs', 'C')))" optype="continuous" dataType="double">
				<FieldRef field="float(team-70.0th_pctl:('70.0th-pctl-dfs', 'C'))"/>
			</DerivedField>
			<DerivedField name="team-70.0th_pctl:('70.0th-pctl-dfs', '3B')" optype="continuous" dataType="double">
				<Apply function="*">
					<FieldRef field="team-70.0th_pctl"/>
					<FieldRef field="('70.0th-pctl-dfs', '3B')"/>
				</Apply>
			</DerivedField>
			<DerivedField name="float(team-70.0th_pctl:('70.0th-pctl-dfs', '3B'))" optype="continuous" dataType="float">
				<FieldRef field="team-70.0th_pctl:('70.0th-pctl-dfs', '3B')"/>
			</DerivedField>
			<DerivedField name="double(float(team-70.0th_pctl:('70.0th-pctl-dfs', '3B')))" optype="continuous" dataType="double">
				<FieldRef field="float(team-70.0th_pctl:('70.0th-pctl-dfs', '3B'))"/>
			</DerivedField>
			<DerivedField name="('70.0th-pctl-dfs', '2B'):('70.0th-pctl-dfs', 'C')" optype="continuous" dataType="double">
				<Apply function="*">
					<FieldRef field="('70.0th-pctl-dfs', '2B')"/>
					<FieldRef field="('70.0th-pctl-dfs', 'C')"/>
				</Apply>
			</DerivedField>
			<DerivedField name="float(('70.0th-pctl-dfs', '2B'):('70.0th-pctl-dfs', 'C'))" optype="continuous" dataType="float">
				<FieldRef field="('70.0th-pctl-dfs', '2B'):('70.0th-pctl-dfs', 'C')"/>
			</DerivedField>
			<DerivedField name="double(float(('70.0th-pctl-dfs', '2B'):('70.0th-pctl-dfs', 'C')))" optype="continuous" dataType="double">
				<FieldRef field="float(('70.0th-pctl-dfs', '2B'):('70.0th-pctl-dfs', 'C'))"/>
			</DerivedField>
			<DerivedField name="('70.0th-pctl-dfs', 'OF')^2" optype="continuous" dataType="double">
				<Apply function="pow">
					<FieldRef field="('70.0th-pctl-dfs', 'OF')"/>
					<Constant dataType="integer">2</Constant>
				</Apply>
			</DerivedField>
			<DerivedField name="float(('70.0th-pctl-dfs', 'OF')^2)" optype="continuous" dataType="float">
				<FieldRef field="('70.0th-pctl-dfs', 'OF')^2"/>
			</DerivedField>
			<DerivedField name="double(float(('70.0th-pctl-dfs', 'OF')^2))" optype="continuous" dataType="double">
				<FieldRef field="float(('70.0th-pctl-dfs', 'OF')^2)"/>
			</DerivedField>
			<DerivedField name="('med-dfs', 'OF')^2" optype="continuous" dataType="double">
				<Apply function="pow">
					<FieldRef field="('med-dfs', 'OF')"/>
					<Constant dataType="integer">2</Constant>
				</Apply>
			</DerivedField>
			<DerivedField name="float(('med-dfs', 'OF')^2)" optype="continuous" dataType="float">
				<FieldRef field="('med-dfs', 'OF')^2"/>
			</DerivedField>
			<DerivedField name="double(float(('med-dfs', 'OF')^2))" optype="continuous" dataType="double">
				<FieldRef field="float(('med-dfs', 'OF')^2)"/>
			</DerivedField>
			<DerivedField name="team-70.0th_pctl:('70.0th-pctl-dfs', '2B')" optype="continuous" dataType="double">
				<Apply function="*">
					<FieldRef field="team-70.0th_pctl"/>
					<FieldRef field="('70.0th-pctl-dfs', '2B')"/>
				</Apply>
			</DerivedField>
			<DerivedField name="float(team-70.0th_pctl:('70.0th-pctl-dfs', '2B'))" optype="continuous" dataType="float">
				<FieldRef field="team-70.0th_pctl:('70.0th-pctl-dfs', '2B')"/>
			</DerivedField>
			<DerivedField name="double(float(team-70.0th_pctl:('70.0th-pctl-dfs', '2B')))" optype="continuous" dataType="double">
				<FieldRef field="float(team-70.0th_pctl:('70.0th-pctl-dfs', '2B'))"/>
			</DerivedField>
			<DerivedField name="float(('med-dfs', 'P'))" optype="continuous" dataType="float">
				<FieldRef field="('med-dfs', 'P')"/>
			</DerivedField>
			<DerivedField name="double(float(('med-dfs', 'P')))" optype="continuous" dataType="double">
				<FieldRef field="float(('med-dfs', 'P'))"/>
			</DerivedField>
			<DerivedField name="team-med:team-70.0th_pctl" optype="continuous" dataType="double">
				<Apply function="*">
					<FieldRef field="team-med"/>
					<FieldRef field="team-70.0th_pctl"/>
				</Apply>
			</DerivedField>
			<DerivedField name="float(team-med:team-70.0th_pctl)" optype="continuous" dataType="float">
				<FieldRef field="team-med:team-70.0th_pctl"/>
			</DerivedField>
			<DerivedField name="double(float(team-med:team-70.0th_pctl))" optype="continuous" dataType="double">
				<FieldRef field="float(team-med:team-70.0th_pctl)"/>
			</DerivedField>
			<DerivedField name="('med-dfs', 'P'):('med-dfs', 'SS')" optype="continuous" dataType="double">
				<Apply function="*">
					<FieldRef field="('med-dfs', 'P')"/>
					<FieldRef field="('med-dfs', 'SS')"/>
				</Apply>
			</DerivedField>
			<DerivedField name="float(('med-dfs', 'P'):('med-dfs', 'SS'))" optype="continuous" dataType="float">
				<FieldRef field="('med-dfs', 'P'):('med-dfs', 'SS')"/>
			</DerivedField>
			<DerivedField name="double(float(('med-dfs', 'P'):('med-dfs', 'SS')))" optype="continuous" dataType="double">
				<FieldRef field="float(('med-dfs', 'P'):('med-dfs', 'SS'))"/>
			</DerivedField>
			<DerivedField name="('70.0th-pctl-dfs', '2B'):('70.0th-pctl-dfs', 'OF')" optype="continuous" dataType="double">
				<Apply function="*">
					<FieldRef field="('70.0th-pctl-dfs', '2B')"/>
					<FieldRef field="('70.0th-pctl-dfs', 'OF')"/>
				</Apply>
			</DerivedField>
			<DerivedField name="float(('70.0th-pctl-dfs', '2B'):('70.0th-pctl-dfs', 'OF'))" optype="continuous" dataType="float">
				<FieldRef field="('70.0th-pctl-dfs', '2B'):('70.0th-pctl-dfs', 'OF')"/>
			</DerivedField>
			<DerivedField name="double(float(('70.0th-pctl-dfs', '2B'):('70.0th-pctl-dfs', 'OF')))" optype="continuous" dataType="double">
				<FieldRef field="float(('70.0th-pctl-dfs', '2B'):('70.0th-pctl-dfs', 'OF'))"/>
			</DerivedField>
			<DerivedField name="('med-dfs', '3B'):('70.0th-pctl-dfs', '3B')" optype="continuous" dataType="double">
				<Apply function="*">
					<FieldRef field="('med-dfs', '3B')"/>
					<FieldRef field="('70.0th-pctl-dfs', '3B')"/>
				</Apply>
			</DerivedField>
			<DerivedField name="float(('med-dfs', '3B'):('70.0th-pctl-dfs', '3B'))" optype="continuous" dataType="float">
				<FieldRef field="('med-dfs', '3B'):('70.0th-pctl-dfs', '3B')"/>
			</DerivedField>
			<DerivedField name="double(float(('med-dfs', '3B'):('70.0th-pctl-dfs', '3B')))" optype="continuous" dataType="double">
				<FieldRef field="float(('med-dfs', '3B'):('70.0th-pctl-dfs', '3B'))"/>
			</DerivedField>
			<DerivedField name="team-70.0th_pctl:('med-dfs', '1B')" optype="continuous" dataType="double">
				<Apply function="*">
					<FieldRef field="team-70.0th_pctl"/>
					<FieldRef field="('med-dfs', '1B')"/>
				</Apply>
			</DerivedField>
			<DerivedField name="float(team-70.0th_pctl:('med-dfs', '1B'))" optype="continuous" dataType="float">
				<FieldRef field="team-70.0th_pctl:('med-dfs', '1B')"/>
			</DerivedField>
			<DerivedField name="double(float(team-70.0th_pctl:('med-dfs', '1B')))" optype="continuous" dataType="double">
				<FieldRef field="float(team-70.0th_pctl:('med-dfs', '1B'))"/>
			</DerivedField>
			<DerivedField name="team_count:('med-dfs', '1B')" optype="continuous" dataType="double">
				<Apply function="*">
					<FieldRef field="team_count"/>
					<FieldRef field="('med-dfs', '1B')"/>
				</Apply>
			</DerivedField>
			<DerivedField name="float(team_count:('med-dfs', '1B'))" optype="continuous" dataType="float">
				<FieldRef field="team_count:('med-dfs', '1B')"/>
			</DerivedField>
			<DerivedField name="double(float(team_count:('med-dfs', '1B')))" optype="continuous" dataType="double">
				<FieldRef field="float(team_count:('med-dfs', '1B'))"/>
			</DerivedField>
			<DerivedField name="best-possible-score:('med-dfs', '2B')" optype="continuous" dataType="double">
				<Apply function="*">
					<FieldRef field="best-possible-score"/>
					<FieldRef field="('med-dfs', '2B')"/>
				</Apply>
			</DerivedField>
			<DerivedField name="float(best-possible-score:('med-dfs', '2B'))" optype="continuous" dataType="float">
				<FieldRef field="best-possible-score:('med-dfs', '2B')"/>
			</DerivedField>
			<DerivedField name="double(float(best-possible-score:('med-dfs', '2B')))" optype="continuous" dataType="double">
				<FieldRef field="float(best-possible-score:('med-dfs', '2B'))"/>
			</DerivedField>
			<DerivedField name="('med-dfs', 'SS'):('70.0th-pctl-dfs', 'C')" optype="continuous" dataType="double">
				<Apply function="*">
					<FieldRef field="('med-dfs', 'SS')"/>
					<FieldRef field="('70.0th-pctl-dfs', 'C')"/>
				</Apply>
			</DerivedField>
			<DerivedField name="float(('med-dfs', 'SS'):('70.0th-pctl-dfs', 'C'))" optype="continuous" dataType="float">
				<FieldRef field="('med-dfs', 'SS'):('70.0th-pctl-dfs', 'C')"/>
			</DerivedField>
			<DerivedField name="double(float(('med-dfs', 'SS'):('70.0th-pctl-dfs', 'C')))" optype="continuous" dataType="double">
				<FieldRef field="float(('med-dfs', 'SS'):('70.0th-pctl-dfs', 'C'))"/>
			</DerivedField>
			<DerivedField name="('70.0th-pctl-dfs', 'P')^2" optype="continuous" dataType="double">
				<Apply function="pow">
					<FieldRef field="('70.0th-pctl-dfs', 'P')"/>
					<Constant dataType="integer">2</Constant>
				</Apply>
			</DerivedField>
			<DerivedField name="float(('70.0th-pctl-dfs', 'P')^2)" optype="continuous" dataType="float">
				<FieldRef field="('70.0th-pctl-dfs', 'P')^2"/>
			</DerivedField>
			<DerivedField name="double(float(('70.0th-pctl-dfs', 'P')^2))" optype="continuous" dataType="double">
				<FieldRef field="float(('70.0th-pctl-dfs', 'P')^2)"/>
			</DerivedField>
			<DerivedField name="('70.0th-pctl-dfs', '2B')^2" optype="continuous" dataType="double">
				<Apply function="pow">
					<FieldRef field="('70.0th-pctl-dfs', '2B')"/>
					<Constant dataType="integer">2</Constant>
				</Apply>
			</DerivedField>
			<DerivedField name="float(('70.0th-pctl-dfs', '2B')^2)" optype="continuous" dataType="float">
				<FieldRef field="('70.0th-pctl-dfs', '2B')^2"/>
			</DerivedField>
			<DerivedField name="double(float(('70.0th-pctl-dfs', '2B')^2))" optype="continuous" dataType="double">
				<FieldRef field="float(('70.0th-pctl-dfs', '2B')^2)"/>
			</DerivedField>
			<DerivedField name="('med-dfs', '3B'):('70.0th-pctl-dfs', 'SS')" optype="continuous" dataType="double">
				<Apply function="*">
					<FieldRef field="('med-dfs', '3B')"/>
					<FieldRef field="('70.0th-pctl-dfs', 'SS')"/>
				</Apply>
			</DerivedField>
			<DerivedField name="float(('med-dfs', '3B'):('70.0th-pctl-dfs', 'SS'))" optype="continuous" dataType="float">
				<FieldRef field="('med-dfs', '3B'):('70.0th-pctl-dfs', 'SS')"/>
			</DerivedField>
			<DerivedField name="double(float(('med-dfs', '3B'):('70.0th-pctl-dfs', 'SS')))" optype="continuous" dataType="double">
				<FieldRef field="float(('med-dfs', '3B'):('70.0th-pctl-dfs', 'SS'))"/>
			</DerivedField>
			<DerivedField name="float(('med-dfs', 'OF'))" optype="continuous" dataType="float">
				<FieldRef field="('med-dfs', 'OF')"/>
			</DerivedField>
			<DerivedField name="double(float(('med-dfs', 'OF')))" optype="continuous" dataType="double">
				<FieldRef field="float(('med-dfs', 'OF'))"/>
			</DerivedField>
			<DerivedField name="('med-dfs', '1B'):('70.0th-pctl-dfs', '2B')" optype="continuous" dataType="double">
				<Apply function="*">
					<FieldRef field="('med-dfs', '1B')"/>
					<FieldRef field="('70.0th-pctl-dfs', '2B')"/>
				</Apply>
			</DerivedField>
			<DerivedField name="float(('med-dfs', '1B'):('70.0th-pctl-dfs', '2B'))" optype="continuous" dataType="float">
				<FieldRef field="('med-dfs', '1B'):('70.0th-pctl-dfs', '2B')"/>
			</DerivedField>
			<DerivedField name="double(float(('med-dfs', '1B'):('70.0th-pctl-dfs', '2B')))" optype="continuous" dataType="double">
				<FieldRef field="float(('med-dfs', '1B'):('70.0th-pctl-dfs', '2B'))"/>
			</DerivedField>
			<DerivedField name="team-med:('med-dfs', '2B')" optype="continuous" dataType="double">
				<Apply function="*">
					<FieldRef field="team-med"/>
					<FieldRef field="('med-dfs', '2B')"/>
				</Apply>
			</DerivedField>
			<DerivedField name="float(team-med:('med-dfs', '2B'))" optype="continuous" dataType="float">
				<FieldRef field="team-med:('med-dfs', '2B')"/>
			</DerivedField>
			<DerivedField name="double(float(team-med:('med-dfs', '2B')))" optype="continuous" dataType="double">
				<FieldRef field="float(team-med:('med-dfs', '2B'))"/>
			</DerivedField>
			<DerivedField name="best-possible-score:('med-dfs', 'OF')" optype="continuous" dataType="double">
				<Apply function="*">
					<FieldRef field="best-possible-score"/>
					<FieldRef field="('med-dfs', 'OF')"/>
				</Apply>
			</DerivedField>
			<DerivedField name="float(best-possible-score:('med-dfs', 'OF'))" optype="continuous" dataType="float">
				<FieldRef field="best-possible-score:('med-dfs', 'OF')"/>
			</DerivedField>
			<DerivedField name="double(float(best-possible-score:('med-dfs', 'OF')))" optype="continuous" dataType="double">
				<FieldRef field="float(best-possible-score:('med-dfs', 'OF'))"/>
			</DerivedField>
			<DerivedField name="('med-dfs', 'C'):('med-dfs', 'OF')" optype="continuous" dataType="double">
				<Apply function="*">
					<FieldRef field="('med-dfs', 'C')"/>
					<FieldRef field="('med-dfs', 'OF')"/>
				</Apply>
			</DerivedField>
			<DerivedField name="float(('med-dfs', 'C'):('med-dfs', 'OF'))" optype="continuous" dataType="float">
				<FieldRef field="('med-dfs', 'C'):('med-dfs', 'OF')"/>
			</DerivedField>
			<DerivedField name="double(float(('med-dfs', 'C'):('med-dfs', 'OF')))" optype="continuous" dataType="double">
				<FieldRef field="float(('med-dfs', 'C'):('med-dfs', 'OF'))"/>
			</DerivedField>
			<DerivedField name="best-possible-score:('70.0th-pctl-dfs', 'OF')" optype="continuous" dataType="double">
				<Apply function="*">
					<FieldRef field="best-possible-score"/>
					<FieldRef field="('70.0th-pctl-dfs', 'OF')"/>
				</Apply>
			</DerivedField>
			<DerivedField name="float(best-possible-score:('70.0th-pctl-dfs', 'OF'))" optype="continuous" dataType="float">
				<FieldRef field="best-possible-score:('70.0th-pctl-dfs', 'OF')"/>
			</DerivedField>
			<DerivedField name="double(float(best-possible-score:('70.0th-pctl-dfs', 'OF')))" optype="continuous" dataType="double">
				<FieldRef field="float(best-possible-score:('70.0th-pctl-dfs', 'OF'))"/>
			</DerivedField>
			<DerivedField name="('med-dfs', 'C'):('70.0th-pctl-dfs', 'C')" optype="continuous" dataType="double">
				<Apply function="*">
					<FieldRef field="('med-dfs', 'C')"/>
					<FieldRef field="('70.0th-pctl-dfs', 'C')"/>
				</Apply>
			</DerivedField>
			<DerivedField name="float(('med-dfs', 'C'):('70.0th-pctl-dfs', 'C'))" optype="continuous" dataType="float">
				<FieldRef field="('med-dfs', 'C'):('70.0th-pctl-dfs', 'C')"/>
			</DerivedField>
			<DerivedField name="double(float(('med-dfs', 'C'):('70.0th-pctl-dfs', 'C')))" optype="continuous" dataType="double">
				<FieldRef field="float(('med-dfs', 'C'):('70.0th-pctl-dfs', 'C'))"/>
			</DerivedField>
			<DerivedField name="team-med:('70.0th-pctl-dfs', '1B')" optype="continuous" dataType="double">
				<Apply function="*">
					<FieldRef field="team-med"/>
					<FieldRef field="('70.0th-pctl-dfs', '1B')"/>
				</Apply>
			</DerivedField>
			<DerivedField name="float(team-med:('70.0th-pctl-dfs', '1B'))" optype="continuous" dataType="float">
				<FieldRef field="team-med:('70.0th-pctl-dfs', '1B')"/>
			</DerivedField>
			<DerivedField name="double(float(team-med:('70.0th-pctl-dfs', '1B')))" optype="continuous" dataType="double">
				<FieldRef field="float(team-med:('70.0th-pctl-dfs', '1B'))"/>
			</DerivedField>
			<DerivedField name="('med-dfs', 'C'):('70.0th-pctl-dfs', 'SS')" optype="continuous" dataType="double">
				<Apply function="*">
					<FieldRef field="('med-dfs', 'C')"/>
					<FieldRef field="('70.0th-pctl-dfs', 'SS')"/>
				</Apply>
			</DerivedField>
			<DerivedField name="float(('med-dfs', 'C'):('70.0th-pctl-dfs', 'SS'))" optype="continuous" dataType="float">
				<FieldRef field="('med-dfs', 'C'):('70.0th-pctl-dfs', 'SS')"/>
			</DerivedField>
			<DerivedField name="double(float(('med-dfs', 'C'):('70.0th-pctl-dfs', 'SS')))" optype="continuous" dataType="double">
				<FieldRef field="float(('med-dfs', 'C'):('70.0th-pctl-dfs', 'SS'))"/>
			</DerivedField>
		</LocalTransformations>
		<Segmentation multipleModelMethod="weightedMedian">
			<Segment id="1" weight="2.8160003510762723">
				<True/>
				<TreeModel functionName="regression" algorithmName="sklearn.tree._classes.DecisionTreeRegressor" missingValueStrategy="nullPrediction" noTrueChildStrategy="returnLastPrediction">
					<MiningSchema>
						<MiningField name="double(float(('med-dfs', 'C'):('70.0th-pctl-dfs', 'OF')))"/>
						<MiningField name="double(float(team_count:team-70.0th_pctl))"/>
						<MiningField name="double(float(team_count:('70.0th-pctl-dfs', 'C')))"/>
						<MiningField name="double(float(('70.0th-pctl-dfs', 'C')))"/>
						<MiningField name="double(float(team-med:('med-dfs', '3B')))"/>
						<MiningField name="double(float(team-70.0th_pctl^2))"/>
					</MiningSchema>
					<Node score="118.0">
						<True/>
						<Node score="0.0">
							<SimplePredicate field="double(float(('med-dfs', 'C'):('70.0th-pctl-dfs', 'OF')))" operator="lessOrEqual" value="114.29999923706055"/>
							<Node score="74.81379310344829">
								<SimplePredicate field="double(float(team_count:team-70.0th_pctl))" operator="lessOrEqual" value="19.399999618530273"/>
								<Node score="94.39580645161291">
									<SimplePredicate field="double(float(team_count:('70.0th-pctl-dfs', 'C')))" operator="lessOrEqual" value="8.0"/>
								</Node>
							</Node>
						</Node>
						<Node score="153.0">
							<SimplePredicate field="double(float(('70.0th-pctl-dfs', 'C')))" operator="lessOrEqual" value="8.299999952316284"/>
							<Node score="136.5">
								<SimplePredicate field="double(float(team-med:('med-dfs', '3B')))" operator="lessOrEqual" value="153.0"/>
							</Node>
						</Node>
						<Node score="122.94">
							<SimplePredicate field="double(float(team-70.0th_pctl^2))" operator="lessOrEqual" value="145.0"/>
						</Node>
					</Node>
				</TreeModel>
			</Segment>
			<Segment id="2" weight="3.2460136591201714">
				<True/>
				<TreeModel functionName="regression" algorithmName="sklearn.tree._classes.DecisionTreeRegressor" missingValueStrategy="nullPrediction" noTrueChildStrategy="returnLastPrediction">
					<MiningSchema>
						<MiningField name="double(float(('med-dfs', 'SS'):('70.0th-pctl-dfs', 'P')))"/>
						<MiningField name="double(float(best-possible-score:('70.0th-pctl-dfs', '1B')))"/>
						<MiningField name="double(float(best-possible-score))"/>
					</MiningSchema>
					<Node score="0.0">
						<True/>
						<Node score="105.9712">
							<SimplePredicate field="double(float(('med-dfs', 'SS'):('70.0th-pctl-dfs', 'P')))" operator="lessOrEqual" value="238.73999786376953"/>
							<Node score="0.0">
								<SimplePredicate field="double(float(best-possible-score:('70.0th-pctl-dfs', '1B')))" operator="lessOrEqual" value="155.73374938964844"/>
							</Node>
							<Node score="81.654375">
								<SimplePredicate field="double(float(best-possible-score))" operator="lessOrEqual" value="115.60499954223633"/>
							</Node>
						</Node>
					</Node>
				</TreeModel>
			</Segment>
			<Segment id="3" weight="3.730914396527006">
				<True/>
				<TreeModel functionName="regression" algorithmName="sklearn.tree._classes.DecisionTreeRegressor" missingValueStrategy="nullPrediction" noTrueChildStrategy="returnLastPrediction">
					<MiningSchema>
						<MiningField name="double(float(('70.0th-pctl-dfs', '1B'):('70.0th-pctl-dfs', 'P')))"/>
						<MiningField name="double(float(best-possible-score:team-70.0th_pctl))"/>
						<MiningField name="double(float(best-possible-score:('70.0th-pctl-dfs', 'P')))"/>
						<MiningField name="double(float(team-med:('med-dfs', 'SS')))"/>
					</MiningSchema>
					<Node score="0.0">
						<True/>
						<Node score="153.0">
							<SimplePredicate field="double(float(('70.0th-pctl-dfs', '1B'):('70.0th-pctl-dfs', 'P')))" operator="lessOrEqual" value="352.74749755859375"/>
							<Node score="98.9641666666667">
								<SimplePredicate field="double(float(best-possible-score:team-70.0th_pctl))" operator="lessOrEqual" value="1178.0249633789062"/>
								<Node score="80.93666666666667">
									<SimplePredicate field="double(float(best-possible-score:('70.0th-pctl-dfs', 'P')))" operator="lessOrEqual" value="2109.6756591796875"/>
								</Node>
							</Node>
							<Node score="126.22666666666665">
								<SimplePredicate field="double(float(team-med:('med-dfs', 'SS')))" operator="lessOrEqual" value="209.625"/>
							</Node>
						</Node>
					</Node>
				</TreeModel>
			</Segment>
			<Segment id="4" weight="3.933711499723086">
				<True/>
				<TreeModel functionName="regression" algorithmName="sklearn.tree._classes.DecisionTreeRegressor" missingValueStrategy="nullPrediction" noTrueChildStrategy="returnLastPrediction">
					<MiningSchema>
						<MiningField name="double(float(team_count:('70.0th-pctl-dfs', 'SS')))"/>
						<MiningField name="double(float(best-possible-score:team_count))"/>
						<MiningField name="double(float(('med-dfs', 'OF'):('med-dfs', 'P')))"/>
						<MiningField name="double(float(('med-dfs', '3B'):('70.0th-pctl-dfs', 'C')))"/>
						<MiningField name="double(float(('med-dfs', 'P')^2))"/>
						<MiningField name="double(float(('70.0th-pctl-dfs', 'OF'):('70.0th-pctl-dfs', 'P')))"/>
					</MiningSchema>
					<Node score="0.0">
						<True/>
						<Node score="113.55799999999999">
							<SimplePredicate field="double(float(team_count:('70.0th-pctl-dfs', 'SS')))" operator="lessOrEqual" value="27.199999809265137"/>
							<Node score="54.53333333333333">
								<SimplePredicate field="double(float(best-possible-score:team_count))" operator="lessOrEqual" value="194.5"/>
								<Node score="79.58333333333333">
									<SimplePredicate field="double(float(('med-dfs', 'OF'):('med-dfs', 'P')))" operator="lessOrEqual" value="59.03499794006348"/>
								</Node>
							</Node>
							<Node score="91.82333333333334">
								<SimplePredicate field="double(float(('med-dfs', '3B'):('70.0th-pctl-dfs', 'C')))" operator="lessOrEqual" value="57.85000038146973"/>
							</Node>
						</Node>
						<Node score="111.7">
							<SimplePredicate field="double(float(('med-dfs', 'P')^2))" operator="lessOrEqual" value="176.48999786376953"/>
							<Node score="80.5">
								<SimplePredicate field="double(float(('70.0th-pctl-dfs', 'OF'):('70.0th-pctl-dfs', 'P')))" operator="lessOrEqual" value="156.23146438598633"/>
							</Node>
						</Node>
					</Node>
				</TreeModel>
			</Segment>
			<Segment id="5" weight="3.535875853554648">
				<True/>
				<TreeModel functionName="regression" algorithmName="sklearn.tree._classes.DecisionTreeRegressor" missingValueStrategy="nullPrediction" noTrueChildStrategy="returnLastPrediction">
					<MiningSchema>
						<MiningField name="double(float(best-possible-score:team_count))"/>
						<MiningField name="double(float(('med-dfs', 'SS'):('70.0th-pctl-dfs', '2B')))"/>
						<MiningField name="double(float(team-70.0th_pctl:('70.0th-pctl-dfs', 'OF')))"/>
						<MiningField name="double(float(best-possible-score:team-med))"/>
						<MiningField name="double(float(team-70.0th_pctl:('70.0th-pctl-dfs', 'P')))"/>
					</MiningSchema>
					<Node score="153.0">
						<True/>
						<Node score="0.0">
							<SimplePredicate field="double(float(('med-dfs', 'SS'):('70.0th-pctl-dfs', '2B')))" operator="lessOrEqual" value="118.07500076293945"/>
							<Node score="103.96285714285715">
								<SimplePredicate field="double(float(team-70.0th_pctl:('70.0th-pctl-dfs', 'OF')))" operator="lessOrEqual" value="50.75"/>
								<Node score="84.65148148148148">
									<SimplePredicate field="double(float(best-possible-score:team-med))" operator="lessOrEqual" value="471.71400451660156"/>
								</Node>
							</Node>
							<Node score="78.565">
								<SimplePredicate field="double(float(team-70.0th_pctl:('70.0th-pctl-dfs', 'P')))" operator="lessOrEqual" value="98.68790435791016"/>
							</Node>
						</Node>
						<Node score="112.34999999999998">
							<SimplePredicate field="double(float(best-possible-score:team_count))" operator="lessOrEqual" value="308.3500061035156"/>
						</Node>
					</Node>
				</TreeModel>
			</Segment>
			<Segment id="6" weight="2.6672443063940223">
				<True/>
				<TreeModel functionName="regression" algorithmName="sklearn.tree._classes.DecisionTreeRegressor" missingValueStrategy="nullPrediction" noTrueChildStrategy="returnLastPrediction">
					<MiningSchema>
						<MiningField name="('70.0th-pctl-dfs', 'OF')"/>
						<MiningField name="('70.0th-pctl-dfs', 'SS')"/>
						<MiningField name="double(float(team_count:team-70.0th_pctl))"/>
						<MiningField name="double(float(best-possible-score:team-70.0th_pctl))"/>
						<MiningField name="double(float(team-med:('70.0th-pctl-dfs', '2B')))"/>
						<MiningField name="double(float(('med-dfs', 'P'):('70.0th-pctl-dfs', 'SS')))"/>
					</MiningSchema>
					<LocalTransformations>
						<DerivedField name="('70.0th-pctl-dfs', 'OF'):('70.0th-pctl-dfs', 'SS')" optype="continuous" dataType="double">
							<Apply function="*">
								<FieldRef field="('70.0th-pctl-dfs', 'OF')"/>
								<FieldRef field="('70.0th-pctl-dfs', 'SS')"/>
							</Apply>
						</DerivedField>
						<DerivedField name="float(('70.0th-pctl-dfs', 'OF'):('70.0th-pctl-dfs', 'SS'))" optype="continuous" dataType="float">
							<FieldRef field="('70.0th-pctl-dfs', 'OF'):('70.0th-pctl-dfs', 'SS')"/>
						</DerivedField>
						<DerivedField name="double(float(('70.0th-pctl-dfs', 'OF'):('70.0th-pctl-dfs', 'SS')))" optype="continuous" dataType="double">
							<FieldRef field="float(('70.0th-pctl-dfs', 'OF'):('70.0th-pctl-dfs', 'SS'))"/>
						</DerivedField>
					</LocalTransformations>
					<Node score="153.0">
						<True/>
						<Node score="0.0">
							<SimplePredicate field="double(float(best-possible-score:team-70.0th_pctl))" operator="lessOrEqual" value="1178.0249633789062"/>
							<Node score="65.625">
								<SimplePredicate field="double(float(team_count:team-70.0th_pctl))" operator="lessOrEqual" value="19.399999618530273"/>
								<Node score="93.87642857142859">
									<SimplePredicate field="double(float(('70.0th-pctl-dfs', 'OF'):('70.0th-pctl-dfs', 'SS')))" operator="lessOrEqual" value="139.76000213623047"/>
								</Node>
							</Node>
						</Node>
						<Node score="114.85">
							<SimplePredicate field="double(float(team-med:('70.0th-pctl-dfs', '2B')))" operator="lessOrEqual" value="292.5"/>
							<Node score="126.56999999999996">
								<SimplePredicate field="double(float(('med-dfs', 'P'):('70.0th-pctl-dfs', 'SS')))" operator="lessOrEqual" value="100.84450149536133"/>
							</Node>
						</Node>
					</Node>
				</TreeModel>
			</Segment>
			<Segment id="7" weight="4.196367488095105">
				<True/>
				<TreeModel functionName="regression" algorithmName="sklearn.tree._classes.DecisionTreeRegressor" missingValueStrategy="nullPrediction" noTrueChildStrategy="returnLastPrediction">
					<MiningSchema>
						<MiningField name="double(float(best-possible-score))"/>
						<MiningField name="double(float(('med-dfs', '3B'):('70.0th-pctl-dfs', 'C')))"/>
						<MiningField name="double(float(('70.0th-pctl-dfs', 'SS')))"/>
						<MiningField name="double(float(('med-dfs', '3B'):('med-dfs', 'P')))"/>
					</MiningSchema>
					<Node score="0.0">
						<True/>
						<Node score="141.22357142857143">
							<SimplePredicate field="double(float(('70.0th-pctl-dfs', 'SS')))" operator="lessOrEqual" value="18.100000381469727"/>
							<Node score="50.79999999999999">
								<SimplePredicate field="double(float(best-possible-score))" operator="lessOrEqual" value="90.67499923706055"/>
								<Node score="0.0">
									<SimplePredicate field="double(float(('med-dfs', '3B'):('med-dfs', 'P')))" operator="lessOrEqual" value="42.625000953674316"/>
								</Node>
							</Node>
							<Node score="89.9166666666667">
								<SimplePredicate field="double(float(('med-dfs', '3B'):('70.0th-pctl-dfs', 'C')))" operator="lessOrEqual" value="64.45000076293945"/>
							</Node>
						</Node>
					</Node>
				</TreeModel>
			</Segment>
			<Segment id="8" weight="3.952486842207065">
				<True/>
				<TreeModel functionName="regression" algorithmName="sklearn.tree._classes.DecisionTreeRegressor" missingValueStrategy="nullPrediction" noTrueChildStrategy="returnLastPrediction">
					<MiningSchema>
						<MiningField name="double(float(('med-dfs', 'SS'):('70.0th-pctl-dfs', 'P')))"/>
						<MiningField name="double(float(best-possible-score))"/>
						<MiningField name="double(float(best-possible-score:team-70.0th_pctl))"/>
						<MiningField name="double(float(team_count:('70.0th-pctl-dfs', '2B')))"/>
					</MiningSchema>
					<Node score="0.0">
						<True/>
						<Node score="153.0">
							<SimplePredicate field="double(float(('med-dfs', 'SS'):('70.0th-pctl-dfs', 'P')))" operator="lessOrEqual" value="229.07217407226562"/>
							<Node score="89.69235294117648">
								<SimplePredicate field="double(float(best-possible-score:team-70.0th_pctl))" operator="lessOrEqual" value="1206.3599853515625"/>
								<Node score="0.0">
									<SimplePredicate field="double(float(best-possible-score))" operator="lessOrEqual" value="85.70000076293945"/>
								</Node>
							</Node>
							<Node score="131.2423076923077">
								<SimplePredicate field="double(float(team_count:('70.0th-pctl-dfs', '2B')))" operator="lessOrEqual" value="41.0"/>
							</Node>
						</Node>
					</Node>
				</TreeModel>
			</Segment>
			<Segment id="9" weight="3.00499450971372">
				<True/>
				<TreeModel functionName="regression" algorithmName="sklearn.tree._classes.DecisionTreeRegressor" missingValueStrategy="nullPrediction" noTrueChildStrategy="returnLastPrediction">
					<MiningSchema>
						<MiningField name="double(float(team_count:team-70.0th_pctl))"/>
						<MiningField name="double(float(best-possible-score))"/>
						<MiningField name="double(float(('70.0th-pctl-dfs', '1B'):('70.0th-pctl-dfs', 'P')))"/>
						<MiningField name="double(float(('med-dfs', 'P'):('70.0th-pctl-dfs', 'C')))"/>
					</MiningSchema>
					<Node score="0.0">
						<True/>
						<Node score="104.38236842105266">
							<SimplePredicate field="double(float(('70.0th-pctl-dfs', '1B'):('70.0th-pctl-dfs', 'P')))" operator="lessOrEqual" value="352.74749755859375"/>
							<Node score="0.0">
								<SimplePredicate field="double(float(best-possible-score))" operator="lessOrEqual" value="96.32099914550781"/>
								<Node score="60.666666666666664">
									<SimplePredicate field="double(float(team_count:team-70.0th_pctl))" operator="lessOrEqual" value="13.599999904632568"/>
								</Node>
							</Node>
							<Node score="143.2941176470588">
								<SimplePredicate field="double(float(('med-dfs', 'P'):('70.0th-pctl-dfs', 'C')))" operator="lessOrEqual" value="-32.140950202941895"/>
							</Node>
						</Node>
					</Node>
				</TreeModel>
			</Segment>
			<Segment id="10" weight="3.3011885116589075">
				<True/>
				<TreeModel functionName="regression" algorithmName="sklearn.tree._classes.DecisionTreeRegressor" missingValueStrategy="nullPrediction" noTrueChildStrategy="returnLastPrediction">
					<MiningSchema>
						<MiningField name="('med-dfs', 'SS')"/>
						<MiningField name="double(float(team_count:('70.0th-pctl-dfs', 'C')))"/>
						<MiningField name="double(float(best-possible-score))"/>
						<MiningField name="double(float(('med-dfs', '1B'):('70.0th-pctl-dfs', 'P')))"/>
						<MiningField name="double(float(('70.0th-pctl-dfs', '2B'):('70.0th-pctl-dfs', 'SS')))"/>
						<MiningField name="double(float(('med-dfs', 'P'):('70.0th-pctl-dfs', 'P')))"/>
					</MiningSchema>
					<LocalTransformations>
						<DerivedField name="('med-dfs', 'SS')^2" optype="continuous" dataType="double">
							<Apply function="pow">
								<FieldRef field="('med-dfs', 'SS')"/>
								<Constant dataType="integer">2</Constant>
							</Apply>
						</DerivedField>
						<DerivedField name="float(('med-dfs', 'SS')^2)" optype="continuous" dataType="float">
							<FieldRef field="('med-dfs', 'SS')^2"/>
						</DerivedField>
						<DerivedField name="double(float(('med-dfs', 'SS')^2))" optype="continuous" dataType="double">
							<FieldRef field="float(('med-dfs', 'SS')^2)"/>
						</DerivedField>
					</LocalTransformations>
					<Node score="0.0">
						<True/>
						<Node score="132.0">
							<SimplePredicate field="double(float(('med-dfs', '1B'):('70.0th-pctl-dfs', 'P')))" operator="lessOrEqual" value="157.68000030517578"/>
							<Node score="108.91607142857148">
								<SimplePredicate field="double(float(('70.0th-pctl-dfs', '2B'):('70.0th-pctl-dfs', 'SS')))" operator="lessOrEqual" value="335.5"/>
								<Node score="85.68222222222222">
									<SimplePredicate field="double(float(best-possible-score))" operator="lessOrEqual" value="111.8375015258789"/>
								</Node>
							</Node>
							<Node score="153.0">
								<SimplePredicate field="double(float(('med-dfs', 'SS')^2))" operator="lessOrEqual" value="218.125"/>
							</Node>
						</Node>
						<Node score="59.25">
							<SimplePredicate field="double(float(('med-dfs', 'P'):('70.0th-pctl-dfs', 'P')))" operator="lessOrEqual" value="236.42625427246094"/>
							<Node score="64.79999999999998">
								<SimplePredicate field="double(float(team_count:('70.0th-pctl-dfs', 'C')))" operator="lessOrEqual" value="12.5"/>
							</Node>
						</Node>
					</Node>
				</TreeModel>
			</Segment>
			<Segment id="11" weight="4.470781285798242">
				<True/>
				<TreeModel functionName="regression" algorithmName="sklearn.tree._classes.DecisionTreeRegressor" missingValueStrategy="nullPrediction" noTrueChildStrategy="returnLastPrediction">
					<MiningSchema>
						<MiningField name="double(float(team_count:('70.0th-pctl-dfs', 'C')))"/>
						<MiningField name="double(float(best-possible-score))"/>
						<MiningField name="double(float(('med-dfs', '3B'):('70.0th-pctl-dfs', '2B')))"/>
						<MiningField name="double(float(('70.0th-pctl-dfs', '3B')^2))"/>
						<MiningField name="double(float(best-possible-score^2))"/>
						<MiningField name="double(float(('med-dfs', '2B'):('med-dfs', 'OF')))"/>
					</MiningSchema>
					<Node score="153.0">
						<True/>
						<Node score="0.0">
							<SimplePredicate field="double(float(('med-dfs', '3B'):('70.0th-pctl-dfs', '2B')))" operator="lessOrEqual" value="35.20000076293945"/>
							<Node score="64.3">
								<SimplePredicate field="double(float(('70.0th-pctl-dfs', '3B')^2))" operator="lessOrEqual" value="51.8799991607666"/>
								<Node score="87.11600000000001">
									<SimplePredicate field="double(float(team_count:('70.0th-pctl-dfs', 'C')))" operator="lessOrEqual" value="8.000000238418579"/>
								</Node>
							</Node>
						</Node>
						<Node score="107.93285714285715">
							<SimplePredicate field="double(float(best-possible-score))" operator="lessOrEqual" value="147.5"/>
							<Node score="82.24">
								<SimplePredicate field="double(float(best-possible-score^2))" operator="lessOrEqual" value="10158.3232421875"/>
							</Node>
						</Node>
						<Node score="132.015">
							<SimplePredicate field="double(float(('med-dfs', '2B'):('med-dfs', 'OF')))" operator="lessOrEqual" value="141.75"/>
						</Node>
					</Node>
				</TreeModel>
			</Segment>
			<Segment id="12" weight="3.6415401974502357">
				<True/>
				<TreeModel functionName="regression" algorithmName="sklearn.tree._classes.DecisionTreeRegressor" missingValueStrategy="nullPrediction" noTrueChildStrategy="returnLastPrediction">
					<MiningSchema>
						<MiningField name="double(float(('med-dfs', 'C'):('70.0th-pctl-dfs', 'OF')))"/>
						<MiningField name="double(float(('70.0th-pctl-dfs', '1B'):('70.0th-pctl-dfs', 'P')))"/>
						<MiningField name="double(float(team-70.0th_pctl:('70.0th-pctl-dfs', 'P')))"/>
						<MiningField name="double(float(('med-dfs', 'P'):('70.0th-pctl-dfs', 'C')))"/>
						<MiningField name="double(float(team-70.0th_pctl:('med-dfs', 'P')))"/>
						<MiningField name="double(float(('70.0th-pctl-dfs', '3B'):('70.0th-pctl-dfs', 'OF')))"/>
					</MiningSchema>
					<Node score="121.26666666666664">
						<True/>
						<Node score="153.0">
							<SimplePredicate field="double(float(team-70.0th_pctl:('med-dfs', 'P')))" operator="lessOrEqual" value="98.25374984741211"/>
							<Node score="77.00461538461538">
								<SimplePredicate field="double(float(('med-dfs', 'C'):('70.0th-pctl-dfs', 'OF')))" operator="lessOrEqual" value="114.29999923706055"/>
								<Node score="102.98307692307694">
									<SimplePredicate field="double(float(('70.0th-pctl-dfs', '1B'):('70.0th-pctl-dfs', 'P')))" operator="lessOrEqual" value="91.21366882324219"/>
								</Node>
							</Node>
							<Node score="130.1">
								<SimplePredicate field="double(float(('70.0th-pctl-dfs', '3B'):('70.0th-pctl-dfs', 'OF')))" operator="lessOrEqual" value="307.75"/>
							</Node>
						</Node>
						<Node score="0.0">
							<SimplePredicate field="double(float(team-70.0th_pctl:('70.0th-pctl-dfs', 'P')))" operator="lessOrEqual" value="143.69400024414062"/>
						</Node>
						<Node score="90.05333333333334">
							<SimplePredicate field="double(float(('med-dfs', 'P'):('70.0th-pctl-dfs', 'C')))" operator="lessOrEqual" value="53.16862487792969"/>
						</Node>
					</Node>
				</TreeModel>
			</Segment>
			<Segment id="13" weight="3.457183345794549">
				<True/>
				<TreeModel functionName="regression" algorithmName="sklearn.tree._classes.DecisionTreeRegressor" missingValueStrategy="nullPrediction" noTrueChildStrategy="returnLastPrediction">
					<MiningSchema>
						<MiningField name="double(float(('70.0th-pctl-dfs', '1B'):('70.0th-pctl-dfs', 'P')))"/>
						<MiningField name="double(float(best-possible-score:team-70.0th_pctl))"/>
						<MiningField name="double(float(('70.0th-pctl-dfs', '1B')))"/>
					</MiningSchema>
					<Node score="0.0">
						<True/>
						<Node score="0.0">
							<SimplePredicate field="double(float(('70.0th-pctl-dfs', '1B')))" operator="lessOrEqual" value="0.949999988079071"/>
						</Node>
						<Node score="134.81">
							<SimplePredicate field="double(float(('70.0th-pctl-dfs', '1B'):('70.0th-pctl-dfs', 'P')))" operator="lessOrEqual" value="352.74749755859375"/>
							<Node score="91.65510204081636">
								<SimplePredicate field="double(float(best-possible-score:team-70.0th_pctl))" operator="lessOrEqual" value="1138.8599853515625"/>
							</Node>
						</Node>
					</Node>
				</TreeModel>
			</Segment>
			<Segment id="14" weight="2.7647452517813655">
				<True/>
				<TreeModel functionName="regression" algorithmName="sklearn.tree._classes.DecisionTreeRegressor" missingValueStrategy="nullPrediction" noTrueChildStrategy="returnLastPrediction">
					<MiningSchema>
						<MiningField name="double(float(('70.0th-pctl-dfs', '1B'):('70.0th-pctl-dfs', 'P')))"/>
						<MiningField name="double(float(best-possible-score^2))"/>
						<MiningField name="double(float(team_count:('med-dfs', 'P')))"/>
					</MiningSchema>
					<Node score="0.0">
						<True/>
						<Node score="0.0">
							<SimplePredicate field="double(float(team_count:('med-dfs', 'P')))" operator="lessOrEqual" value="43.875"/>
							<Node score="113.87000000000002">
								<SimplePredicate field="double(float(('70.0th-pctl-dfs', '1B'):('70.0th-pctl-dfs', 'P')))" operator="lessOrEqual" value="352.74749755859375"/>
								<Node score="80.53800000000001">
