<?xml version="1.0" encoding="UTF-8" standalone="yes"?>
<PMML xmlns="http://www.dmg.org/PMML-4_4" xmlns:data="http://jpmml.org/jpmml-model/InlineTable" version="4.4">
	<Header>
		<Application name="SkLearn2PMML package" version="0.88.1"/>
		<Timestamp>2022-12-13T03:06:12Z</Timestamp>
	</Header>
	<MiningBuildTask>
		<Extension name="repr">PMMLPipeline(steps=[('mapper', DataFrameMapper(drop_cols=[],
                features=[(['best-possible-score'],
                           ContinuousDomain(invalid_value_treatment='as_is')),
                          (['team_count'],
                           ContinuousDomain(invalid_value_treatment='as_is')),
                          (['team-med'],
                           ContinuousDomain(invalid_value_treatment='as_is')),
                          (['team-70.0th_pctl'],
                           ContinuousDomain(invalid_value_treatment='as_is')),
                          (["('med-dfs', 'C')"],
                           Continuou...
                          (["('70.0th-pctl-dfs', 'PF')"],
                           ContinuousDomain(invalid_value_treatment='as_is')),
                          (["('70.0th-pctl-dfs', 'PG')"],
                           ContinuousDomain(invalid_value_treatment='as_is')),
                          (["('70.0th-pctl-dfs', 'SF')"],
                           ContinuousDomain(invalid_value_treatment='as_is')),
                          (["('70.0th-pctl-dfs', 'SG')"],
                           ContinuousDomain(invalid_value_treatment='as_is')),
                          (['service'],
                           [CategoricalDomain(), OneHotEncoder()])])),
       ('variancethreshold', SelectorProxy(selector=VarianceThreshold(threshold=0.1))),
       ('polynomialfeatures', PolynomialFeatures(include_bias=False)),
       ('gradientboostingregressor', GradientBoostingRegressor(loss='lad', max_depth=10,
                          max_features=0.9500000000000001, min_samples_leaf=16,
                          min_samples_split=19))])</Extension>
	</MiningBuildTask>
	<DataDictionary>
		<DataField name="last_winning_score" optype="continuous" dataType="double"/>
		<DataField name="best-possible-score" optype="continuous" dataType="double">
			<Interval closure="closedClosed" leftMargin="275.1" rightMargin="492.9"/>
		</DataField>
		<DataField name="team_count" optype="continuous" dataType="double">
			<Interval closure="closedClosed" leftMargin="4.0" rightMargin="26.0"/>
		</DataField>
		<DataField name="team-med" optype="continuous" dataType="double">
			<Interval closure="closedClosed" leftMargin="94.0" rightMargin="133.0"/>
		</DataField>
		<DataField name="team-70.0th_pctl" optype="continuous" dataType="double">
			<Interval closure="closedClosed" leftMargin="96.4" rightMargin="136.0"/>
		</DataField>
		<DataField name="('med-dfs', 'C')" optype="continuous" dataType="double">
			<Interval closure="closedClosed" leftMargin="14.5" rightMargin="37.2"/>
		</DataField>
		<DataField name="('med-dfs', 'PF')" optype="continuous" dataType="double">
			<Interval closure="closedClosed" leftMargin="10.6" rightMargin="31.4"/>
		</DataField>
		<DataField name="('med-dfs', 'PG')" optype="continuous" dataType="double">
			<Interval closure="closedClosed" leftMargin="13.2" rightMargin="37.75"/>
		</DataField>
		<DataField name="('med-dfs', 'SF')" optype="continuous" dataType="double">
			<Interval closure="closedClosed" leftMargin="9.65" rightMargin="25.5"/>
		</DataField>
		<DataField name="('med-dfs', 'SG')" optype="continuous" dataType="double">
			<Interval closure="closedClosed" leftMargin="9.4" rightMargin="27.1"/>
		</DataField>
		<DataField name="('70.0th-pctl-dfs', 'C')" optype="continuous" dataType="double">
			<Interval closure="closedClosed" leftMargin="20.6" rightMargin="46.44"/>
		</DataField>
		<DataField name="('70.0th-pctl-dfs', 'PF')" optype="continuous" dataType="double">
			<Interval closure="closedClosed" leftMargin="15.7" rightMargin="37.76"/>
		</DataField>
		<DataField name="('70.0th-pctl-dfs', 'PG')" optype="continuous" dataType="double">
			<Interval closure="closedClosed" leftMargin="21.439999999999998" rightMargin="43.35"/>
		</DataField>
		<DataField name="('70.0th-pctl-dfs', 'SF')" optype="continuous" dataType="double">
			<Interval closure="closedClosed" leftMargin="12.82" rightMargin="32.0"/>
		</DataField>
		<DataField name="('70.0th-pctl-dfs', 'SG')" optype="continuous" dataType="double">
			<Interval closure="closedClosed" leftMargin="17.75" rightMargin="37.35"/>
		</DataField>
		<DataField name="service" optype="categorical" dataType="string">
			<Value value="draftkings"/>
			<Value value="fanduel"/>
			<Value value="yahoo"/>
		</DataField>
	</DataDictionary>
	<MiningModel functionName="regression" algorithmName="sklearn.ensemble._gb.GradientBoostingRegressor">
		<MiningSchema>
			<MiningField name="last_winning_score" usageType="target"/>
			<MiningField name="best-possible-score" missingValueTreatment="asIs" invalidValueTreatment="asIs"/>
			<MiningField name="team_count" missingValueTreatment="asIs" invalidValueTreatment="asIs"/>
			<MiningField name="('med-dfs', 'C')" missingValueTreatment="asIs" invalidValueTreatment="asIs"/>
			<MiningField name="('med-dfs', 'PF')" missingValueTreatment="asIs" invalidValueTreatment="asIs"/>
			<MiningField name="('med-dfs', 'SG')" missingValueTreatment="asIs" invalidValueTreatment="asIs"/>
			<MiningField name="('70.0th-pctl-dfs', 'PF')" missingValueTreatment="asIs" invalidValueTreatment="asIs"/>
			<MiningField name="('70.0th-pctl-dfs', 'PG')" missingValueTreatment="asIs" invalidValueTreatment="asIs"/>
			<MiningField name="('70.0th-pctl-dfs', 'SF')" missingValueTreatment="asIs" invalidValueTreatment="asIs"/>
			<MiningField name="('70.0th-pctl-dfs', 'SG')" missingValueTreatment="asIs" invalidValueTreatment="asIs"/>
			<MiningField name="service" missingValueTreatment="asIs"/>
			<MiningField name="team-70.0th_pctl" missingValueTreatment="asIs" invalidValueTreatment="asIs"/>
			<MiningField name="('med-dfs', 'SF')" missingValueTreatment="asIs" invalidValueTreatment="asIs"/>
			<MiningField name="('70.0th-pctl-dfs', 'C')" missingValueTreatment="asIs" invalidValueTreatment="asIs"/>
			<MiningField name="team-med" missingValueTreatment="asIs" invalidValueTreatment="asIs"/>
			<MiningField name="('med-dfs', 'PG')" missingValueTreatment="asIs" invalidValueTreatment="asIs"/>
		</MiningSchema>
		<ModelStats>
			<UnivariateStats field="best-possible-score">
				<Counts totalFreq="191" missingFreq="0" invalidFreq="0"/>
				<NumericInfo minimum="275.1" maximum="492.9" mean="410.26099476439794" standardDeviation="39.65530882314008" median="414.0" interQuartileRange="54.424999999999955"/>
			</UnivariateStats>
			<UnivariateStats field="team_count">
				<Counts totalFreq="191" missingFreq="0" invalidFreq="0"/>
				<NumericInfo minimum="4.0" maximum="26.0" mean="13.832460732984293" standardDeviation="6.079163082836741" median="14.0" interQuartileRange="10.0"/>
			</UnivariateStats>
			<UnivariateStats field="('med-dfs', 'C')">
				<Counts totalFreq="191" missingFreq="0" invalidFreq="0"/>
				<NumericInfo minimum="14.5" maximum="37.2" mean="23.374869109947646" standardDeviation="3.504044500637648" median="23.6" interQuartileRange="4.199999999999999"/>
			</UnivariateStats>
			<UnivariateStats field="('med-dfs', 'PF')">
				<Counts totalFreq="191" missingFreq="0" invalidFreq="0"/>
				<NumericInfo minimum="10.6" maximum="31.4" mean="20.14973821989529" standardDeviation="3.3495936198861753" median="20.25" interQuartileRange="3.9750000000000014"/>
			</UnivariateStats>
			<UnivariateStats field="('med-dfs', 'SG')">
				<Counts totalFreq="191" missingFreq="0" invalidFreq="0"/>
				<NumericInfo minimum="9.4" maximum="27.1" mean="19.23455497382199" standardDeviation="2.8151510771701074" median="19.5" interQuartileRange="2.6999999999999993"/>
			</UnivariateStats>
			<UnivariateStats field="('70.0th-pctl-dfs', 'PF')">
				<Counts totalFreq="191" missingFreq="0" invalidFreq="0"/>
				<NumericInfo minimum="15.7" maximum="37.76" mean="28.011073298429316" standardDeviation="3.969977748611479" median="28.0" interQuartileRange="4.927499999999998"/>
			</UnivariateStats>
			<UnivariateStats field="('70.0th-pctl-dfs', 'PG')">
				<Counts totalFreq="191" missingFreq="0" invalidFreq="0"/>
				<NumericInfo minimum="21.439999999999998" maximum="43.35" mean="30.010602094240834" standardDeviation="4.243372291835355" median="29.25" interQuartileRange="5.375"/>
			</UnivariateStats>
			<UnivariateStats field="('70.0th-pctl-dfs', 'SF')">
				<Counts totalFreq="191" missingFreq="0" invalidFreq="0"/>
				<NumericInfo minimum="12.82" maximum="32.0" mean="26.4715445026178" standardDeviation="3.1652015554720956" median="26.450000000000003" interQuartileRange="3.8000000000000043"/>
			</UnivariateStats>
			<UnivariateStats field="('70.0th-pctl-dfs', 'SG')">
				<Counts totalFreq="191" missingFreq="0" invalidFreq="0"/>
				<NumericInfo minimum="17.75" maximum="37.35" mean="26.809502617801044" standardDeviation="3.1287194641890217" median="26.925" interQuartileRange="3.664999999999999"/>
			</UnivariateStats>
			<UnivariateStats field="service">
				<Counts totalFreq="191" missingFreq="0" invalidFreq="0"/>
				<DiscrStats>
					<Array type="string">draftkings fanduel yahoo</Array>
					<Array type="int">88 100 3</Array>
				</DiscrStats>
			</UnivariateStats>
			<UnivariateStats field="team-70.0th_pctl">
				<Counts totalFreq="191" missingFreq="0" invalidFreq="0"/>
				<NumericInfo minimum="96.4" maximum="136.0" mean="116.6764397905759" standardDeviation="5.439406332644255" median="116.3" interQuartileRange="6.400000000000006"/>
			</UnivariateStats>
			<UnivariateStats field="('med-dfs', 'SF')">
				<Counts totalFreq="191" missingFreq="0" invalidFreq="0"/>
				<NumericInfo minimum="9.65" maximum="25.5" mean="19.003795811518323" standardDeviation="2.8060847992737927" median="19.125" interQuartileRange="3.587500000000002"/>
			</UnivariateStats>
			<UnivariateStats field="('70.0th-pctl-dfs', 'C')">
				<Counts totalFreq="191" missingFreq="0" invalidFreq="0"/>
				<NumericInfo minimum="20.6" maximum="46.44" mean="31.685916230366487" standardDeviation="3.824623524339394" median="31.4" interQuartileRange="4.527499999999996"/>
			</UnivariateStats>
			<UnivariateStats field="team-med">
				<Counts totalFreq="191" missingFreq="0" invalidFreq="0"/>
				<NumericInfo minimum="94.0" maximum="133.0" mean="111.10732984293193" standardDeviation="4.982193285925794" median="111.5" interQuartileRange="6.5"/>
			</UnivariateStats>
			<UnivariateStats field="('med-dfs', 'PG')">
				<Counts totalFreq="191" missingFreq="0" invalidFreq="0"/>
				<NumericInfo minimum="13.2" maximum="37.75" mean="21.736780104712043" standardDeviation="3.7051769674366466" median="21.25" interQuartileRange="4.337499999999999"/>
			</UnivariateStats>
		</ModelStats>
		<Targets>
			<Target field="last_winning_score" rescaleConstant="318.3999999999999" rescaleFactor="0.1"/>
		</Targets>
		<LocalTransformations>
			<DerivedField name="float(best-possible-score)" optype="continuous" dataType="float">
				<FieldRef field="best-possible-score"/>
			</DerivedField>
			<DerivedField name="float(team-med)" optype="continuous" dataType="float">
				<FieldRef field="team-med"/>
			</DerivedField>
			<DerivedField name="float(team-70.0th_pctl)" optype="continuous" dataType="float">
				<FieldRef field="team-70.0th_pctl"/>
			</DerivedField>
			<DerivedField name="float(('med-dfs', 'PF'))" optype="continuous" dataType="float">
				<FieldRef field="('med-dfs', 'PF')"/>
			</DerivedField>
			<DerivedField name="float(('med-dfs', 'PG'))" optype="continuous" dataType="float">
				<FieldRef field="('med-dfs', 'PG')"/>
			</DerivedField>
			<DerivedField name="float(('med-dfs', 'SF'))" optype="continuous" dataType="float">
				<FieldRef field="('med-dfs', 'SF')"/>
			</DerivedField>
			<DerivedField name="float(('70.0th-pctl-dfs', 'C'))" optype="continuous" dataType="float">
				<FieldRef field="('70.0th-pctl-dfs', 'C')"/>
			</DerivedField>
			<DerivedField name="float(('70.0th-pctl-dfs', 'PF'))" optype="continuous" dataType="float">
				<FieldRef field="('70.0th-pctl-dfs', 'PF')"/>
			</DerivedField>
			<DerivedField name="best-possible-score^2" optype="continuous" dataType="double">
				<Apply function="pow">
					<FieldRef field="best-possible-score"/>
					<Constant dataType="integer">2</Constant>
				</Apply>
			</DerivedField>
			<DerivedField name="float(best-possible-score^2)" optype="continuous" dataType="float">
				<FieldRef field="best-possible-score^2"/>
			</DerivedField>
			<DerivedField name="best-possible-score:team-med" optype="continuous" dataType="double">
				<Apply function="*">
					<FieldRef field="best-possible-score"/>
					<FieldRef field="team-med"/>
				</Apply>
			</DerivedField>
			<DerivedField name="float(best-possible-score:team-med)" optype="continuous" dataType="float">
				<FieldRef field="best-possible-score:team-med"/>
			</DerivedField>
			<DerivedField name="best-possible-score:team-70.0th_pctl" optype="continuous" dataType="double">
				<Apply function="*">
					<FieldRef field="best-possible-score"/>
					<FieldRef field="team-70.0th_pctl"/>
				</Apply>
			</DerivedField>
			<DerivedField name="float(best-possible-score:team-70.0th_pctl)" optype="continuous" dataType="float">
				<FieldRef field="best-possible-score:team-70.0th_pctl"/>
			</DerivedField>
			<DerivedField name="best-possible-score:('med-dfs', 'C')" optype="continuous" dataType="double">
				<Apply function="*">
					<FieldRef field="best-possible-score"/>
					<FieldRef field="('med-dfs', 'C')"/>
				</Apply>
			</DerivedField>
			<DerivedField name="float(best-possible-score:('med-dfs', 'C'))" optype="continuous" dataType="float">
				<FieldRef field="best-possible-score:('med-dfs', 'C')"/>
			</DerivedField>
			<DerivedField name="best-possible-score:('med-dfs', 'PF')" optype="continuous" dataType="double">
				<Apply function="*">
					<FieldRef field="best-possible-score"/>
					<FieldRef field="('med-dfs', 'PF')"/>
				</Apply>
			</DerivedField>
			<DerivedField name="float(best-possible-score:('med-dfs', 'PF'))" optype="continuous" dataType="float">
				<FieldRef field="best-possible-score:('med-dfs', 'PF')"/>
			</DerivedField>
			<DerivedField name="best-possible-score:('med-dfs', 'PG')" optype="continuous" dataType="double">
				<Apply function="*">
					<FieldRef field="best-possible-score"/>
					<FieldRef field="('med-dfs', 'PG')"/>
				</Apply>
			</DerivedField>
			<DerivedField name="float(best-possible-score:('med-dfs', 'PG'))" optype="continuous" dataType="float">
				<FieldRef field="best-possible-score:('med-dfs', 'PG')"/>
			</DerivedField>
			<DerivedField name="best-possible-score:('med-dfs', 'SF')" optype="continuous" dataType="double">
				<Apply function="*">
					<FieldRef field="best-possible-score"/>
					<FieldRef field="('med-dfs', 'SF')"/>
				</Apply>
			</DerivedField>
			<DerivedField name="float(best-possible-score:('med-dfs', 'SF'))" optype="continuous" dataType="float">
				<FieldRef field="best-possible-score:('med-dfs', 'SF')"/>
			</DerivedField>
			<DerivedField name="best-possible-score:('med-dfs', 'SG')" optype="continuous" dataType="double">
				<Apply function="*">
					<FieldRef field="best-possible-score"/>
					<FieldRef field="('med-dfs', 'SG')"/>
				</Apply>
			</DerivedField>
			<DerivedField name="float(best-possible-score:('med-dfs', 'SG'))" optype="continuous" dataType="float">
				<FieldRef field="best-possible-score:('med-dfs', 'SG')"/>
			</DerivedField>
			<DerivedField name="best-possible-score:('70.0th-pctl-dfs', 'C')" optype="continuous" dataType="double">
				<Apply function="*">
					<FieldRef field="best-possible-score"/>
					<FieldRef field="('70.0th-pctl-dfs', 'C')"/>
				</Apply>
			</DerivedField>
			<DerivedField name="float(best-possible-score:('70.0th-pctl-dfs', 'C'))" optype="continuous" dataType="float">
				<FieldRef field="best-possible-score:('70.0th-pctl-dfs', 'C')"/>
			</DerivedField>
			<DerivedField name="best-possible-score:('70.0th-pctl-dfs', 'PF')" optype="continuous" dataType="double">
				<Apply function="*">
					<FieldRef field="best-possible-score"/>
					<FieldRef field="('70.0th-pctl-dfs', 'PF')"/>
				</Apply>
			</DerivedField>
			<DerivedField name="float(best-possible-score:('70.0th-pctl-dfs', 'PF'))" optype="continuous" dataType="float">
				<FieldRef field="best-possible-score:('70.0th-pctl-dfs', 'PF')"/>
			</DerivedField>
			<DerivedField name="best-possible-score:('70.0th-pctl-dfs', 'PG')" optype="continuous" dataType="double">
				<Apply function="*">
					<FieldRef field="best-possible-score"/>
					<FieldRef field="('70.0th-pctl-dfs', 'PG')"/>
				</Apply>
			</DerivedField>
			<DerivedField name="float(best-possible-score:('70.0th-pctl-dfs', 'PG'))" optype="continuous" dataType="float">
				<FieldRef field="best-possible-score:('70.0th-pctl-dfs', 'PG')"/>
			</DerivedField>
			<DerivedField name="best-possible-score:('70.0th-pctl-dfs', 'SF')" optype="continuous" dataType="double">
				<Apply function="*">
					<FieldRef field="best-possible-score"/>
					<FieldRef field="('70.0th-pctl-dfs', 'SF')"/>
				</Apply>
			</DerivedField>
			<DerivedField name="float(best-possible-score:('70.0th-pctl-dfs', 'SF'))" optype="continuous" dataType="float">
				<FieldRef field="best-possible-score:('70.0th-pctl-dfs', 'SF')"/>
			</DerivedField>
			<DerivedField name="best-possible-score:('70.0th-pctl-dfs', 'SG')" optype="continuous" dataType="double">
				<Apply function="*">
					<FieldRef field="best-possible-score"/>
					<FieldRef field="('70.0th-pctl-dfs', 'SG')"/>
				</Apply>
			</DerivedField>
			<DerivedField name="float(best-possible-score:('70.0th-pctl-dfs', 'SG'))" optype="continuous" dataType="float">
				<FieldRef field="best-possible-score:('70.0th-pctl-dfs', 'SG')"/>
			</DerivedField>
			<DerivedField name="service=draftkings" optype="continuous" dataType="double">
				<NormDiscrete field="service" value="draftkings"/>
			</DerivedField>
			<DerivedField name="best-possible-score:service=draftkings" optype="continuous" dataType="double">
				<Apply function="*">
					<FieldRef field="best-possible-score"/>
					<FieldRef field="service=draftkings"/>
				</Apply>
			</DerivedField>
			<DerivedField name="float(best-possible-score:service=draftkings)" optype="continuous" dataType="float">
				<FieldRef field="best-possible-score:service=draftkings"/>
			</DerivedField>
			<DerivedField name="service=fanduel" optype="continuous" dataType="double">
				<NormDiscrete field="service" value="fanduel"/>
			</DerivedField>
			<DerivedField name="best-possible-score:service=fanduel" optype="continuous" dataType="double">
				<Apply function="*">
					<FieldRef field="best-possible-score"/>
					<FieldRef field="service=fanduel"/>
				</Apply>
			</DerivedField>
			<DerivedField name="float(best-possible-score:service=fanduel)" optype="continuous" dataType="float">
				<FieldRef field="best-possible-score:service=fanduel"/>
			</DerivedField>
			<DerivedField name="team_count:team-med" optype="continuous" dataType="double">
				<Apply function="*">
					<FieldRef field="team_count"/>
					<FieldRef field="team-med"/>
				</Apply>
			</DerivedField>
			<DerivedField name="float(team_count:team-med)" optype="continuous" dataType="float">
				<FieldRef field="team_count:team-med"/>
			</DerivedField>
			<DerivedField name="team_count:team-70.0th_pctl" optype="continuous" dataType="double">
				<Apply function="*">
					<FieldRef field="team_count"/>
					<FieldRef field="team-70.0th_pctl"/>
				</Apply>
			</DerivedField>
			<DerivedField name="float(team_count:team-70.0th_pctl)" optype="continuous" dataType="float">
				<FieldRef field="team_count:team-70.0th_pctl"/>
			</DerivedField>
			<DerivedField name="team_count:('med-dfs', 'C')" optype="continuous" dataType="double">
				<Apply function="*">
					<FieldRef field="team_count"/>
					<FieldRef field="('med-dfs', 'C')"/>
				</Apply>
			</DerivedField>
			<DerivedField name="float(team_count:('med-dfs', 'C'))" optype="continuous" dataType="float">
				<FieldRef field="team_count:('med-dfs', 'C')"/>
			</DerivedField>
			<DerivedField name="team_count:('med-dfs', 'PG')" optype="continuous" dataType="double">
				<Apply function="*">
					<FieldRef field="team_count"/>
					<FieldRef field="('med-dfs', 'PG')"/>
				</Apply>
			</DerivedField>
			<DerivedField name="float(team_count:('med-dfs', 'PG'))" optype="continuous" dataType="float">
				<FieldRef field="team_count:('med-dfs', 'PG')"/>
			</DerivedField>
			<DerivedField name="team_count:('med-dfs', 'SF')" optype="continuous" dataType="double">
				<Apply function="*">
					<FieldRef field="team_count"/>
					<FieldRef field="('med-dfs', 'SF')"/>
				</Apply>
			</DerivedField>
			<DerivedField name="float(team_count:('med-dfs', 'SF'))" optype="continuous" dataType="float">
				<FieldRef field="team_count:('med-dfs', 'SF')"/>
			</DerivedField>
			<DerivedField name="team_count:('med-dfs', 'SG')" optype="continuous" dataType="double">
				<Apply function="*">
					<FieldRef field="team_count"/>
					<FieldRef field="('med-dfs', 'SG')"/>
				</Apply>
			</DerivedField>
			<DerivedField name="float(team_count:('med-dfs', 'SG'))" optype="continuous" dataType="float">
				<FieldRef field="team_count:('med-dfs', 'SG')"/>
			</DerivedField>
			<DerivedField name="team_count:('70.0th-pctl-dfs', 'C')" optype="continuous" dataType="double">
				<Apply function="*">
					<FieldRef field="team_count"/>
					<FieldRef field="('70.0th-pctl-dfs', 'C')"/>
				</Apply>
			</DerivedField>
			<DerivedField name="float(team_count:('70.0th-pctl-dfs', 'C'))" optype="continuous" dataType="float">
				<FieldRef field="team_count:('70.0th-pctl-dfs', 'C')"/>
			</DerivedField>
			<DerivedField name="team_count:('70.0th-pctl-dfs', 'PF')" optype="continuous" dataType="double">
				<Apply function="*">
					<FieldRef field="team_count"/>
					<FieldRef field="('70.0th-pctl-dfs', 'PF')"/>
				</Apply>
			</DerivedField>
			<DerivedField name="float(team_count:('70.0th-pctl-dfs', 'PF'))" optype="continuous" dataType="float">
				<FieldRef field="team_count:('70.0th-pctl-dfs', 'PF')"/>
			</DerivedField>
			<DerivedField name="team_count:('70.0th-pctl-dfs', 'PG')" optype="continuous" dataType="double">
				<Apply function="*">
					<FieldRef field="team_count"/>
					<FieldRef field="('70.0th-pctl-dfs', 'PG')"/>
				</Apply>
			</DerivedField>
			<DerivedField name="float(team_count:('70.0th-pctl-dfs', 'PG'))" optype="continuous" dataType="float">
				<FieldRef field="team_count:('70.0th-pctl-dfs', 'PG')"/>
			</DerivedField>
			<DerivedField name="team_count:('70.0th-pctl-dfs', 'SF')" optype="continuous" dataType="double">
				<Apply function="*">
					<FieldRef field="team_count"/>
					<FieldRef field="('70.0th-pctl-dfs', 'SF')"/>
				</Apply>
			</DerivedField>
			<DerivedField name="float(team_count:('70.0th-pctl-dfs', 'SF'))" optype="continuous" dataType="float">
				<FieldRef field="team_count:('70.0th-pctl-dfs', 'SF')"/>
			</DerivedField>
			<DerivedField name="team_count:('70.0th-pctl-dfs', 'SG')" optype="continuous" dataType="double">
				<Apply function="*">
					<FieldRef field="team_count"/>
					<FieldRef field="('70.0th-pctl-dfs', 'SG')"/>
				</Apply>
			</DerivedField>
			<DerivedField name="float(team_count:('70.0th-pctl-dfs', 'SG'))" optype="continuous" dataType="float">
				<FieldRef field="team_count:('70.0th-pctl-dfs', 'SG')"/>
			</DerivedField>
			<DerivedField name="team-med^2" optype="continuous" dataType="double">
				<Apply function="pow">
					<FieldRef field="team-med"/>
					<Constant dataType="integer">2</Constant>
				</Apply>
			</DerivedField>
			<DerivedField name="float(team-med^2)" optype="continuous" dataType="float">
				<FieldRef field="team-med^2"/>
			</DerivedField>
			<DerivedField name="team-med:team-70.0th_pctl" optype="continuous" dataType="double">
				<Apply function="*">
					<FieldRef field="team-med"/>
					<FieldRef field="team-70.0th_pctl"/>
				</Apply>
			</DerivedField>
			<DerivedField name="float(team-med:team-70.0th_pctl)" optype="continuous" dataType="float">
				<FieldRef field="team-med:team-70.0th_pctl"/>
			</DerivedField>
			<DerivedField name="team-med:('med-dfs', 'C')" optype="continuous" dataType="double">
				<Apply function="*">
					<FieldRef field="team-med"/>
					<FieldRef field="('med-dfs', 'C')"/>
				</Apply>
			</DerivedField>
			<DerivedField name="float(team-med:('med-dfs', 'C'))" optype="continuous" dataType="float">
				<FieldRef field="team-med:('med-dfs', 'C')"/>
			</DerivedField>
			<DerivedField name="team-med:('med-dfs', 'PF')" optype="continuous" dataType="double">
				<Apply function="*">
					<FieldRef field="team-med"/>
					<FieldRef field="('med-dfs', 'PF')"/>
				</Apply>
			</DerivedField>
			<DerivedField name="float(team-med:('med-dfs', 'PF'))" optype="continuous" dataType="float">
				<FieldRef field="team-med:('med-dfs', 'PF')"/>
			</DerivedField>
			<DerivedField name="team-med:('med-dfs', 'PG')" optype="continuous" dataType="double">
				<Apply function="*">
					<FieldRef field="team-med"/>
					<FieldRef field="('med-dfs', 'PG')"/>
				</Apply>
			</DerivedField>
			<DerivedField name="float(team-med:('med-dfs', 'PG'))" optype="continuous" dataType="float">
				<FieldRef field="team-med:('med-dfs', 'PG')"/>
			</DerivedField>
			<DerivedField name="team-med:('med-dfs', 'SF')" optype="continuous" dataType="double">
				<Apply function="*">
					<FieldRef field="team-med"/>
					<FieldRef field="('med-dfs', 'SF')"/>
				</Apply>
			</DerivedField>
			<DerivedField name="float(team-med:('med-dfs', 'SF'))" optype="continuous" dataType="float">
				<FieldRef field="team-med:('med-dfs', 'SF')"/>
			</DerivedField>
			<DerivedField name="team-med:('med-dfs', 'SG')" optype="continuous" dataType="double">
				<Apply function="*">
					<FieldRef field="team-med"/>
					<FieldRef field="('med-dfs', 'SG')"/>
				</Apply>
			</DerivedField>
			<DerivedField name="float(team-med:('med-dfs', 'SG'))" optype="continuous" dataType="float">
				<FieldRef field="team-med:('med-dfs', 'SG')"/>
			</DerivedField>
			<DerivedField name="team-med:('70.0th-pctl-dfs', 'C')" optype="continuous" dataType="double">
				<Apply function="*">
					<FieldRef field="team-med"/>
					<FieldRef field="('70.0th-pctl-dfs', 'C')"/>
				</Apply>
			</DerivedField>
			<DerivedField name="float(team-med:('70.0th-pctl-dfs', 'C'))" optype="continuous" dataType="float">
				<FieldRef field="team-med:('70.0th-pctl-dfs', 'C')"/>
			</DerivedField>
			<DerivedField name="team-med:('70.0th-pctl-dfs', 'PF')" optype="continuous" dataType="double">
				<Apply function="*">
					<FieldRef field="team-med"/>
					<FieldRef field="('70.0th-pctl-dfs', 'PF')"/>
				</Apply>
			</DerivedField>
			<DerivedField name="float(team-med:('70.0th-pctl-dfs', 'PF'))" optype="continuous" dataType="float">
				<FieldRef field="team-med:('70.0th-pctl-dfs', 'PF')"/>
			</DerivedField>
			<DerivedField name="team-med:('70.0th-pctl-dfs', 'PG')" optype="continuous" dataType="double">
				<Apply function="*">
					<FieldRef field="team-med"/>
					<FieldRef field="('70.0th-pctl-dfs', 'PG')"/>
				</Apply>
			</DerivedField>
			<DerivedField name="float(team-med:('70.0th-pctl-dfs', 'PG'))" optype="continuous" dataType="float">
				<FieldRef field="team-med:('70.0th-pctl-dfs', 'PG')"/>
			</DerivedField>
			<DerivedField name="team-med:('70.0th-pctl-dfs', 'SF')" optype="continuous" dataType="double">
				<Apply function="*">
					<FieldRef field="team-med"/>
					<FieldRef field="('70.0th-pctl-dfs', 'SF')"/>
				</Apply>
			</DerivedField>
			<DerivedField name="float(team-med:('70.0th-pctl-dfs', 'SF'))" optype="continuous" dataType="float">
				<FieldRef field="team-med:('70.0th-pctl-dfs', 'SF')"/>
			</DerivedField>
			<DerivedField name="team-med:('70.0th-pctl-dfs', 'SG')" optype="continuous" dataType="double">
				<Apply function="*">
					<FieldRef field="team-med"/>
					<FieldRef field="('70.0th-pctl-dfs', 'SG')"/>
				</Apply>
			</DerivedField>
			<DerivedField name="float(team-med:('70.0th-pctl-dfs', 'SG'))" optype="continuous" dataType="float">
				<FieldRef field="team-med:('70.0th-pctl-dfs', 'SG')"/>
			</DerivedField>
			<DerivedField name="team-med:service=draftkings" optype="continuous" dataType="double">
				<Apply function="*">
					<FieldRef field="team-med"/>
					<FieldRef field="service=draftkings"/>
				</Apply>
			</DerivedField>
			<DerivedField name="float(team-med:service=draftkings)" optype="continuous" dataType="float">
				<FieldRef field="team-med:service=draftkings"/>
			</DerivedField>
			<DerivedField name="team-med:service=fanduel" optype="continuous" dataType="double">
				<Apply function="*">
					<FieldRef field="team-med"/>
					<FieldRef field="service=fanduel"/>
				</Apply>
			</DerivedField>
			<DerivedField name="float(team-med:service=fanduel)" optype="continuous" dataType="float">
				<FieldRef field="team-med:service=fanduel"/>
			</DerivedField>
			<DerivedField name="team-70.0th_pctl^2" optype="continuous" dataType="double">
				<Apply function="pow">
					<FieldRef field="team-70.0th_pctl"/>
					<Constant dataType="integer">2</Constant>
				</Apply>
			</DerivedField>
			<DerivedField name="float(team-70.0th_pctl^2)" optype="continuous" dataType="float">
				<FieldRef field="team-70.0th_pctl^2"/>
			</DerivedField>
			<DerivedField name="team-70.0th_pctl:('med-dfs', 'C')" optype="continuous" dataType="double">
				<Apply function="*">
					<FieldRef field="team-70.0th_pctl"/>
					<FieldRef field="('med-dfs', 'C')"/>
				</Apply>
			</DerivedField>
			<DerivedField name="float(team-70.0th_pctl:('med-dfs', 'C'))" optype="continuous" dataType="float">
				<FieldRef field="team-70.0th_pctl:('med-dfs', 'C')"/>
			</DerivedField>
			<DerivedField name="team-70.0th_pctl:('med-dfs', 'PF')" optype="continuous" dataType="double">
				<Apply function="*">
					<FieldRef field="team-70.0th_pctl"/>
					<FieldRef field="('med-dfs', 'PF')"/>
				</Apply>
			</DerivedField>
			<DerivedField name="float(team-70.0th_pctl:('med-dfs', 'PF'))" optype="continuous" dataType="float">
				<FieldRef field="team-70.0th_pctl:('med-dfs', 'PF')"/>
			</DerivedField>
			<DerivedField name="team-70.0th_pctl:('med-dfs', 'PG')" optype="continuous" dataType="double">
				<Apply function="*">
					<FieldRef field="team-70.0th_pctl"/>
					<FieldRef field="('med-dfs', 'PG')"/>
				</Apply>
			</DerivedField>
			<DerivedField name="float(team-70.0th_pctl:('med-dfs', 'PG'))" optype="continuous" dataType="float">
				<FieldRef field="team-70.0th_pctl:('med-dfs', 'PG')"/>
			</DerivedField>
			<DerivedField name="team-70.0th_pctl:('med-dfs', 'SF')" optype="continuous" dataType="double">
				<Apply function="*">
					<FieldRef field="team-70.0th_pctl"/>
					<FieldRef field="('med-dfs', 'SF')"/>
				</Apply>
			</DerivedField>
			<DerivedField name="float(team-70.0th_pctl:('med-dfs', 'SF'))" optype="continuous" dataType="float">
				<FieldRef field="team-70.0th_pctl:('med-dfs', 'SF')"/>
			</DerivedField>
			<DerivedField name="team-70.0th_pctl:('med-dfs', 'SG')" optype="continuous" dataType="double">
				<Apply function="*">
					<FieldRef field="team-70.0th_pctl"/>
					<FieldRef field="('med-dfs', 'SG')"/>
				</Apply>
			</DerivedField>
			<DerivedField name="float(team-70.0th_pctl:('med-dfs', 'SG'))" optype="continuous" dataType="float">
				<FieldRef field="team-70.0th_pctl:('med-dfs', 'SG')"/>
			</DerivedField>
			<DerivedField name="team-70.0th_pctl:('70.0th-pctl-dfs', 'C')" optype="continuous" dataType="double">
				<Apply function="*">
					<FieldRef field="team-70.0th_pctl"/>
					<FieldRef field="('70.0th-pctl-dfs', 'C')"/>
				</Apply>
			</DerivedField>
			<DerivedField name="float(team-70.0th_pctl:('70.0th-pctl-dfs', 'C'))" optype="continuous" dataType="float">
				<FieldRef field="team-70.0th_pctl:('70.0th-pctl-dfs', 'C')"/>
			</DerivedField>
			<DerivedField name="team-70.0th_pctl:('70.0th-pctl-dfs', 'PF')" optype="continuous" dataType="double">
				<Apply function="*">
					<FieldRef field="team-70.0th_pctl"/>
					<FieldRef field="('70.0th-pctl-dfs', 'PF')"/>
				</Apply>
			</DerivedField>
			<DerivedField name="float(team-70.0th_pctl:('70.0th-pctl-dfs', 'PF'))" optype="continuous" dataType="float">
				<FieldRef field="team-70.0th_pctl:('70.0th-pctl-dfs', 'PF')"/>
			</DerivedField>
			<DerivedField name="team-70.0th_pctl:('70.0th-pctl-dfs', 'PG')" optype="continuous" dataType="double">
				<Apply function="*">
					<FieldRef field="team-70.0th_pctl"/>
					<FieldRef field="('70.0th-pctl-dfs', 'PG')"/>
				</Apply>
			</DerivedField>
			<DerivedField name="float(team-70.0th_pctl:('70.0th-pctl-dfs', 'PG'))" optype="continuous" dataType="float">
				<FieldRef field="team-70.0th_pctl:('70.0th-pctl-dfs', 'PG')"/>
			</DerivedField>
			<DerivedField name="team-70.0th_pctl:('70.0th-pctl-dfs', 'SF')" optype="continuous" dataType="double">
				<Apply function="*">
					<FieldRef field="team-70.0th_pctl"/>
					<FieldRef field="('70.0th-pctl-dfs', 'SF')"/>
				</Apply>
			</DerivedField>
			<DerivedField name="float(team-70.0th_pctl:('70.0th-pctl-dfs', 'SF'))" optype="continuous" dataType="float">
				<FieldRef field="team-70.0th_pctl:('70.0th-pctl-dfs', 'SF')"/>
			</DerivedField>
			<DerivedField name="team-70.0th_pctl:('70.0th-pctl-dfs', 'SG')" optype="continuous" dataType="double">
				<Apply function="*">
					<FieldRef field="team-70.0th_pctl"/>
					<FieldRef field="('70.0th-pctl-dfs', 'SG')"/>
				</Apply>
			</DerivedField>
			<DerivedField name="float(team-70.0th_pctl:('70.0th-pctl-dfs', 'SG'))" optype="continuous" dataType="float">
				<FieldRef field="team-70.0th_pctl:('70.0th-pctl-dfs', 'SG')"/>
			</DerivedField>
			<DerivedField name="team-70.0th_pctl:service=draftkings" optype="continuous" dataType="double">
				<Apply function="*">
					<FieldRef field="team-70.0th_pctl"/>
					<FieldRef field="service=draftkings"/>
				</Apply>
			</DerivedField>
			<DerivedField name="float(team-70.0th_pctl:service=draftkings)" optype="continuous" dataType="float">
				<FieldRef field="team-70.0th_pctl:service=draftkings"/>
			</DerivedField>
			<DerivedField name="team-70.0th_pctl:service=fanduel" optype="continuous" dataType="double">
				<Apply function="*">
					<FieldRef field="team-70.0th_pctl"/>
					<FieldRef field="service=fanduel"/>
				</Apply>
			</DerivedField>
			<DerivedField name="float(team-70.0th_pctl:service=fanduel)" optype="continuous" dataType="float">
				<FieldRef field="team-70.0th_pctl:service=fanduel"/>
			</DerivedField>
			<DerivedField name="('med-dfs', 'C')^2" optype="continuous" dataType="double">
				<Apply function="pow">
					<FieldRef field="('med-dfs', 'C')"/>
					<Constant dataType="integer">2</Constant>
				</Apply>
			</DerivedField>
			<DerivedField name="float(('med-dfs', 'C')^2)" optype="continuous" dataType="float">
				<FieldRef field="('med-dfs', 'C')^2"/>
			</DerivedField>
			<DerivedField name="('med-dfs', 'C'):('med-dfs', 'PF')" optype="continuous" dataType="double">
				<Apply function="*">
					<FieldRef field="('med-dfs', 'C')"/>
					<FieldRef field="('med-dfs', 'PF')"/>
				</Apply>
			</DerivedField>
			<DerivedField name="float(('med-dfs', 'C'):('med-dfs', 'PF'))" optype="continuous" dataType="float">
				<FieldRef field="('med-dfs', 'C'):('med-dfs', 'PF')"/>
			</DerivedField>
			<DerivedField name="('med-dfs', 'C'):('med-dfs', 'PG')" optype="continuous" dataType="double">
				<Apply function="*">
					<FieldRef field="('med-dfs', 'C')"/>
					<FieldRef field="('med-dfs', 'PG')"/>
				</Apply>
			</DerivedField>
			<DerivedField name="float(('med-dfs', 'C'):('med-dfs', 'PG'))" optype="continuous" dataType="float">
				<FieldRef field="('med-dfs', 'C'):('med-dfs', 'PG')"/>
			</DerivedField>
			<DerivedField name="('med-dfs', 'C'):('med-dfs', 'SF')" optype="continuous" dataType="double">
				<Apply function="*">
					<FieldRef field="('med-dfs', 'C')"/>
					<FieldRef field="('med-dfs', 'SF')"/>
				</Apply>
			</DerivedField>
			<DerivedField name="float(('med-dfs', 'C'):('med-dfs', 'SF'))" optype="continuous" dataType="float">
				<FieldRef field="('med-dfs', 'C'):('med-dfs', 'SF')"/>
			</DerivedField>
			<DerivedField name="('med-dfs', 'C'):('med-dfs', 'SG')" optype="continuous" dataType="double">
				<Apply function="*">
					<FieldRef field="('med-dfs', 'C')"/>
					<FieldRef field="('med-dfs', 'SG')"/>
				</Apply>
			</DerivedField>
			<DerivedField name="float(('med-dfs', 'C'):('med-dfs', 'SG'))" optype="continuous" dataType="float">
				<FieldRef field="('med-dfs', 'C'):('med-dfs', 'SG')"/>
			</DerivedField>
			<DerivedField name="('med-dfs', 'C'):('70.0th-pctl-dfs', 'C')" optype="continuous" dataType="double">
				<Apply function="*">
					<FieldRef field="('med-dfs', 'C')"/>
					<FieldRef field="('70.0th-pctl-dfs', 'C')"/>
				</Apply>
			</DerivedField>
			<DerivedField name="float(('med-dfs', 'C'):('70.0th-pctl-dfs', 'C'))" optype="continuous" dataType="float">
				<FieldRef field="('med-dfs', 'C'):('70.0th-pctl-dfs', 'C')"/>
			</DerivedField>
			<DerivedField name="('med-dfs', 'C'):('70.0th-pctl-dfs', 'PF')" optype="continuous" dataType="double">
				<Apply function="*">
					<FieldRef field="('med-dfs', 'C')"/>
					<FieldRef field="('70.0th-pctl-dfs', 'PF')"/>
				</Apply>
			</DerivedField>
			<DerivedField name="float(('med-dfs', 'C'):('70.0th-pctl-dfs', 'PF'))" optype="continuous" dataType="float">
				<FieldRef field="('med-dfs', 'C'):('70.0th-pctl-dfs', 'PF')"/>
			</DerivedField>
			<DerivedField name="('med-dfs', 'C'):('70.0th-pctl-dfs', 'PG')" optype="continuous" dataType="double">
				<Apply function="*">
					<FieldRef field="('med-dfs', 'C')"/>
					<FieldRef field="('70.0th-pctl-dfs', 'PG')"/>
				</Apply>
			</DerivedField>
			<DerivedField name="float(('med-dfs', 'C'):('70.0th-pctl-dfs', 'PG'))" optype="continuous" dataType="float">
				<FieldRef field="('med-dfs', 'C'):('70.0th-pctl-dfs', 'PG')"/>
			</DerivedField>
			<DerivedField name="('med-dfs', 'C'):('70.0th-pctl-dfs', 'SF')" optype="continuous" dataType="double">
				<Apply function="*">
					<FieldRef field="('med-dfs', 'C')"/>
					<FieldRef field="('70.0th-pctl-dfs', 'SF')"/>
				</Apply>
			</DerivedField>
			<DerivedField name="float(('med-dfs', 'C'):('70.0th-pctl-dfs', 'SF'))" optype="continuous" dataType="float">
				<FieldRef field="('med-dfs', 'C'):('70.0th-pctl-dfs', 'SF')"/>
			</DerivedField>
			<DerivedField name="('med-dfs', 'C'):('70.0th-pctl-dfs', 'SG')" optype="continuous" dataType="double">
				<Apply function="*">
					<FieldRef field="('med-dfs', 'C')"/>
					<FieldRef field="('70.0th-pctl-dfs', 'SG')"/>
				</Apply>
			</DerivedField>
			<DerivedField name="float(('med-dfs', 'C'):('70.0th-pctl-dfs', 'SG'))" optype="continuous" dataType="float">
				<FieldRef field="('med-dfs', 'C'):('70.0th-pctl-dfs', 'SG')"/>
			</DerivedField>
			<DerivedField name="('med-dfs', 'C'):service=draftkings" optype="continuous" dataType="double">
				<Apply function="*">
					<FieldRef field="('med-dfs', 'C')"/>
					<FieldRef field="service=draftkings"/>
				</Apply>
			</DerivedField>
			<DerivedField name="float(('med-dfs', 'C'):service=draftkings)" optype="continuous" dataType="float">
				<FieldRef field="('med-dfs', 'C'):service=draftkings"/>
			</DerivedField>
			<DerivedField name="('med-dfs', 'PF')^2" optype="continuous" dataType="double">
				<Apply function="pow">
					<FieldRef field="('med-dfs', 'PF')"/>
					<Constant dataType="integer">2</Constant>
				</Apply>
			</DerivedField>
			<DerivedField name="float(('med-dfs', 'PF')^2)" optype="continuous" dataType="float">
				<FieldRef field="('med-dfs', 'PF')^2"/>
			</DerivedField>
			<DerivedField name="('med-dfs', 'PF'):('med-dfs', 'PG')" optype="continuous" dataType="double">
				<Apply function="*">
					<FieldRef field="('med-dfs', 'PF')"/>
					<FieldRef field="('med-dfs', 'PG')"/>
				</Apply>
			</DerivedField>
			<DerivedField name="float(('med-dfs', 'PF'):('med-dfs', 'PG'))" optype="continuous" dataType="float">
				<FieldRef field="('med-dfs', 'PF'):('med-dfs', 'PG')"/>
			</DerivedField>
			<DerivedField name="('med-dfs', 'PF'):('med-dfs', 'SF')" optype="continuous" dataType="double">
				<Apply function="*">
					<FieldRef field="('med-dfs', 'PF')"/>
					<FieldRef field="('med-dfs', 'SF')"/>
				</Apply>
			</DerivedField>
			<DerivedField name="float(('med-dfs', 'PF'):('med-dfs', 'SF'))" optype="continuous" dataType="float">
				<FieldRef field="('med-dfs', 'PF'):('med-dfs', 'SF')"/>
			</DerivedField>
			<DerivedField name="('med-dfs', 'PF'):('med-dfs', 'SG')" optype="continuous" dataType="double">
				<Apply function="*">
					<FieldRef field="('med-dfs', 'PF')"/>
					<FieldRef field="('med-dfs', 'SG')"/>
				</Apply>
			</DerivedField>
			<DerivedField name="float(('med-dfs', 'PF'):('med-dfs', 'SG'))" optype="continuous" dataType="float">
				<FieldRef field="('med-dfs', 'PF'):('med-dfs', 'SG')"/>
			</DerivedField>
			<DerivedField name="('med-dfs', 'PF'):('70.0th-pctl-dfs', 'C')" optype="continuous" dataType="double">
				<Apply function="*">
					<FieldRef field="('med-dfs', 'PF')"/>
					<FieldRef field="('70.0th-pctl-dfs', 'C')"/>
				</Apply>
			</DerivedField>
			<DerivedField name="float(('med-dfs', 'PF'):('70.0th-pctl-dfs', 'C'))" optype="continuous" dataType="float">
				<FieldRef field="('med-dfs', 'PF'):('70.0th-pctl-dfs', 'C')"/>
			</DerivedField>
			<DerivedField name="('med-dfs', 'PF'):('70.0th-pctl-dfs', 'PG')" optype="continuous" dataType="double">
				<Apply function="*">
					<FieldRef field="('med-dfs', 'PF')"/>
					<FieldRef field="('70.0th-pctl-dfs', 'PG')"/>
				</Apply>
			</DerivedField>
			<DerivedField name="float(('med-dfs', 'PF'):('70.0th-pctl-dfs', 'PG'))" optype="continuous" dataType="float">
				<FieldRef field="('med-dfs', 'PF'):('70.0th-pctl-dfs', 'PG')"/>
			</DerivedField>
			<DerivedField name="('med-dfs', 'PF'):('70.0th-pctl-dfs', 'SG')" optype="continuous" dataType="double">
				<Apply function="*">
					<FieldRef field="('med-dfs', 'PF')"/>
					<FieldRef field="('70.0th-pctl-dfs', 'SG')"/>
				</Apply>
			</DerivedField>
			<DerivedField name="float(('med-dfs', 'PF'):('70.0th-pctl-dfs', 'SG'))" optype="continuous" dataType="float">
				<FieldRef field="('med-dfs', 'PF'):('70.0th-pctl-dfs', 'SG')"/>
			</DerivedField>
			<DerivedField name="('med-dfs', 'PF'):service=draftkings" optype="continuous" dataType="double">
				<Apply function="*">
					<FieldRef field="('med-dfs', 'PF')"/>
					<FieldRef field="service=draftkings"/>
				</Apply>
			</DerivedField>
			<DerivedField name="float(('med-dfs', 'PF'):service=draftkings)" optype="continuous" dataType="float">
				<FieldRef field="('med-dfs', 'PF'):service=draftkings"/>
			</DerivedField>
			<DerivedField name="('med-dfs', 'PF'):service=fanduel" optype="continuous" dataType="double">
				<Apply function="*">
					<FieldRef field="('med-dfs', 'PF')"/>
					<FieldRef field="service=fanduel"/>
				</Apply>
			</DerivedField>
			<DerivedField name="float(('med-dfs', 'PF'):service=fanduel)" optype="continuous" dataType="float">
				<FieldRef field="('med-dfs', 'PF'):service=fanduel"/>
			</DerivedField>
			<DerivedField name="('med-dfs', 'PG')^2" optype="continuous" dataType="double">
				<Apply function="pow">
					<FieldRef field="('med-dfs', 'PG')"/>
					<Constant dataType="integer">2</Constant>
				</Apply>
			</DerivedField>
			<DerivedField name="float(('med-dfs', 'PG')^2)" optype="continuous" dataType="float">
				<FieldRef field="('med-dfs', 'PG')^2"/>
			</DerivedField>
			<DerivedField name="('med-dfs', 'PG'):('med-dfs', 'SF')" optype="continuous" dataType="double">
				<Apply function="*">
					<FieldRef field="('med-dfs', 'PG')"/>
					<FieldRef field="('med-dfs', 'SF')"/>
				</Apply>
			</DerivedField>
			<DerivedField name="float(('med-dfs', 'PG'):('med-dfs', 'SF'))" optype="continuous" dataType="float">
				<FieldRef field="('med-dfs', 'PG'):('med-dfs', 'SF')"/>
			</DerivedField>
			<DerivedField name="('med-dfs', 'PG'):('med-dfs', 'SG')" optype="continuous" dataType="double">
				<Apply function="*">
					<FieldRef field="('med-dfs', 'PG')"/>
					<FieldRef field="('med-dfs', 'SG')"/>
				</Apply>
			</DerivedField>
			<DerivedField name="float(('med-dfs', 'PG'):('med-dfs', 'SG'))" optype="continuous" dataType="float">
				<FieldRef field="('med-dfs', 'PG'):('med-dfs', 'SG')"/>
			</DerivedField>
			<DerivedField name="('med-dfs', 'PG'):('70.0th-pctl-dfs', 'C')" optype="continuous" dataType="double">
				<Apply function="*">
					<FieldRef field="('med-dfs', 'PG')"/>
					<FieldRef field="('70.0th-pctl-dfs', 'C')"/>
				</Apply>
			</DerivedField>
			<DerivedField name="float(('med-dfs', 'PG'):('70.0th-pctl-dfs', 'C'))" optype="continuous" dataType="float">
				<FieldRef field="('med-dfs', 'PG'):('70.0th-pctl-dfs', 'C')"/>
			</DerivedField>
			<DerivedField name="('med-dfs', 'PG'):('70.0th-pctl-dfs', 'PF')" optype="continuous" dataType="double">
				<Apply function="*">
					<FieldRef field="('med-dfs', 'PG')"/>
					<FieldRef field="('70.0th-pctl-dfs', 'PF')"/>
				</Apply>
			</DerivedField>
			<DerivedField name="float(('med-dfs', 'PG'):('70.0th-pctl-dfs', 'PF'))" optype="continuous" dataType="float">
				<FieldRef field="('med-dfs', 'PG'):('70.0th-pctl-dfs', 'PF')"/>
			</DerivedField>
			<DerivedField name="('med-dfs', 'PG'):('70.0th-pctl-dfs', 'PG')" optype="continuous" dataType="double">
				<Apply function="*">
					<FieldRef field="('med-dfs', 'PG')"/>
					<FieldRef field="('70.0th-pctl-dfs', 'PG')"/>
				</Apply>
			</DerivedField>
			<DerivedField name="float(('med-dfs', 'PG'):('70.0th-pctl-dfs', 'PG'))" optype="continuous" dataType="float">
				<FieldRef field="('med-dfs', 'PG'):('70.0th-pctl-dfs', 'PG')"/>
			</DerivedField>
			<DerivedField name="('med-dfs', 'PG'):('70.0th-pctl-dfs', 'SF')" optype="continuous" dataType="double">
				<Apply function="*">
					<FieldRef field="('med-dfs', 'PG')"/>
					<FieldRef field="('70.0th-pctl-dfs', 'SF')"/>
				</Apply>
			</DerivedField>
			<DerivedField name="float(('med-dfs', 'PG'):('70.0th-pctl-dfs', 'SF'))" optype="continuous" dataType="float">
				<FieldRef field="('med-dfs', 'PG'):('70.0th-pctl-dfs', 'SF')"/>
			</DerivedField>
			<DerivedField name="('med-dfs', 'PG'):('70.0th-pctl-dfs', 'SG')" optype="continuous" dataType="double">
				<Apply function="*">
					<FieldRef field="('med-dfs', 'PG')"/>
					<FieldRef field="('70.0th-pctl-dfs', 'SG')"/>
				</Apply>
			</DerivedField>
			<DerivedField name="float(('med-dfs', 'PG'):('70.0th-pctl-dfs', 'SG'))" optype="continuous" dataType="float">
				<FieldRef field="('med-dfs', 'PG'):('70.0th-pctl-dfs', 'SG')"/>
			</DerivedField>
			<DerivedField name="('med-dfs', 'PG'):service=draftkings" optype="continuous" dataType="double">
				<Apply function="*">
					<FieldRef field="('med-dfs', 'PG')"/>
					<FieldRef field="service=draftkings"/>
				</Apply>
			</DerivedField>
			<DerivedField name="float(('med-dfs', 'PG'):service=draftkings)" optype="continuous" dataType="float">
				<FieldRef field="('med-dfs', 'PG'):service=draftkings"/>
			</DerivedField>
			<DerivedField name="('med-dfs', 'PG'):service=fanduel" optype="continuous" dataType="double">
				<Apply function="*">
					<FieldRef field="('med-dfs', 'PG')"/>
					<FieldRef field="service=fanduel"/>
				</Apply>
			</DerivedField>
			<DerivedField name="float(('med-dfs', 'PG'):service=fanduel)" optype="continuous" dataType="float">
				<FieldRef field="('med-dfs', 'PG'):service=fanduel"/>
			</DerivedField>
			<DerivedField name="('med-dfs', 'SF'):('med-dfs', 'SG')" optype="continuous" dataType="double">
				<Apply function="*">
					<FieldRef field="('med-dfs', 'SF')"/>
					<FieldRef field="('med-dfs', 'SG')"/>
				</Apply>
			</DerivedField>
			<DerivedField name="float(('med-dfs', 'SF'):('med-dfs', 'SG'))" optype="continuous" dataType="float">
				<FieldRef field="('med-dfs', 'SF'):('med-dfs', 'SG')"/>
			</DerivedField>
			<DerivedField name="('med-dfs', 'SF'):('70.0th-pctl-dfs', 'C')" optype="continuous" dataType="double">
				<Apply function="*">
					<FieldRef field="('med-dfs', 'SF')"/>
					<FieldRef field="('70.0th-pctl-dfs', 'C')"/>
				</Apply>
			</DerivedField>
			<DerivedField name="float(('med-dfs', 'SF'):('70.0th-pctl-dfs', 'C'))" optype="continuous" dataType="float">
				<FieldRef field="('med-dfs', 'SF'):('70.0th-pctl-dfs', 'C')"/>
			</DerivedField>
			<DerivedField name="('med-dfs', 'SF'):('70.0th-pctl-dfs', 'PF')" optype="continuous" dataType="double">
				<Apply function="*">
					<FieldRef field="('med-dfs', 'SF')"/>
					<FieldRef field="('70.0th-pctl-dfs', 'PF')"/>
				</Apply>
			</DerivedField>
			<DerivedField name="float(('med-dfs', 'SF'):('70.0th-pctl-dfs', 'PF'))" optype="continuous" dataType="float">
				<FieldRef field="('med-dfs', 'SF'):('70.0th-pctl-dfs', 'PF')"/>
			</DerivedField>
			<DerivedField name="('med-dfs', 'SF'):('70.0th-pctl-dfs', 'PG')" optype="continuous" dataType="double">
				<Apply function="*">
					<FieldRef field="('med-dfs', 'SF')"/>
					<FieldRef field="('70.0th-pctl-dfs', 'PG')"/>
				</Apply>
			</DerivedField>
			<DerivedField name="float(('med-dfs', 'SF'):('70.0th-pctl-dfs', 'PG'))" optype="continuous" dataType="float">
				<FieldRef field="('med-dfs', 'SF'):('70.0th-pctl-dfs', 'PG')"/>
			</DerivedField>
			<DerivedField name="('med-dfs', 'SF'):('70.0th-pctl-dfs', 'SF')" optype="continuous" dataType="double">
				<Apply function="*">
					<FieldRef field="('med-dfs', 'SF')"/>
					<FieldRef field="('70.0th-pctl-dfs', 'SF')"/>
				</Apply>
			</DerivedField>
			<DerivedField name="float(('med-dfs', 'SF'):('70.0th-pctl-dfs', 'SF'))" optype="continuous" dataType="float">
				<FieldRef field="('med-dfs', 'SF'):('70.0th-pctl-dfs', 'SF')"/>
			</DerivedField>
			<DerivedField name="('med-dfs', 'SF'):('70.0th-pctl-dfs', 'SG')" optype="continuous" dataType="double">
				<Apply function="*">
					<FieldRef field="('med-dfs', 'SF')"/>
					<FieldRef field="('70.0th-pctl-dfs', 'SG')"/>
				</Apply>
			</DerivedField>
			<DerivedField name="float(('med-dfs', 'SF'):('70.0th-pctl-dfs', 'SG'))" optype="continuous" dataType="float">
				<FieldRef field="('med-dfs', 'SF'):('70.0th-pctl-dfs', 'SG')"/>
			</DerivedField>
			<DerivedField name="('med-dfs', 'SF'):service=fanduel" optype="continuous" dataType="double">
				<Apply function="*">
					<FieldRef field="('med-dfs', 'SF')"/>
					<FieldRef field="service=fanduel"/>
				</Apply>
			</DerivedField>
			<DerivedField name="float(('med-dfs', 'SF'):service=fanduel)" optype="continuous" dataType="float">
				<FieldRef field="('med-dfs', 'SF'):service=fanduel"/>
			</DerivedField>
			<DerivedField name="('med-dfs', 'SG')^2" optype="continuous" dataType="double">
				<Apply function="pow">
					<FieldRef field="('med-dfs', 'SG')"/>
					<Constant dataType="integer">2</Constant>
				</Apply>
			</DerivedField>
			<DerivedField name="float(('med-dfs', 'SG')^2)" optype="continuous" dataType="float">
				<FieldRef field="('med-dfs', 'SG')^2"/>
			</DerivedField>
			<DerivedField name="('med-dfs', 'SG'):('70.0th-pctl-dfs', 'C')" optype="continuous" dataType="double">
				<Apply function="*">
					<FieldRef field="('med-dfs', 'SG')"/>
					<FieldRef field="('70.0th-pctl-dfs', 'C')"/>
				</Apply>
			</DerivedField>
			<DerivedField name="float(('med-dfs', 'SG'):('70.0th-pctl-dfs', 'C'))" optype="continuous" dataType="float">
				<FieldRef field="('med-dfs', 'SG'):('70.0th-pctl-dfs', 'C')"/>
			</DerivedField>
			<DerivedField name="('med-dfs', 'SG'):('70.0th-pctl-dfs', 'PF')" optype="continuous" dataType="double">
				<Apply function="*">
					<FieldRef field="('med-dfs', 'SG')"/>
					<FieldRef field="('70.0th-pctl-dfs', 'PF')"/>
				</Apply>
			</DerivedField>
			<DerivedField name="float(('med-dfs', 'SG'):('70.0th-pctl-dfs', 'PF'))" optype="continuous" dataType="float">
				<FieldRef field="('med-dfs', 'SG'):('70.0th-pctl-dfs', 'PF')"/>
			</DerivedField>
			<DerivedField name="('med-dfs', 'SG'):('70.0th-pctl-dfs', 'PG')" optype="continuous" dataType="double">
				<Apply function="*">
					<FieldRef field="('med-dfs', 'SG')"/>
					<FieldRef field="('70.0th-pctl-dfs', 'PG')"/>
				</Apply>
			</DerivedField>
			<DerivedField name="float(('med-dfs', 'SG'):('70.0th-pctl-dfs', 'PG'))" optype="continuous" dataType="float">
				<FieldRef field="('med-dfs', 'SG'):('70.0th-pctl-dfs', 'PG')"/>
			</DerivedField>
			<DerivedField name="('med-dfs', 'SG'):('70.0th-pctl-dfs', 'SF')" optype="continuous" dataType="double">
				<Apply function="*">
					<FieldRef field="('med-dfs', 'SG')"/>
					<FieldRef field="('70.0th-pctl-dfs', 'SF')"/>
				</Apply>
			</DerivedField>
			<DerivedField name="float(('med-dfs', 'SG'):('70.0th-pctl-dfs', 'SF'))" optype="continuous" dataType="float">
				<FieldRef field="('med-dfs', 'SG'):('70.0th-pctl-dfs', 'SF')"/>
			</DerivedField>
			<DerivedField name="('med-dfs', 'SG'):service=draftkings" optype="continuous" dataType="double">
				<Apply function="*">
					<FieldRef field="('med-dfs', 'SG')"/>
					<FieldRef field="service=draftkings"/>
				</Apply>
			</DerivedField>
			<DerivedField name="float(('med-dfs', 'SG'):service=draftkings)" optype="continuous" dataType="float">
				<FieldRef field="('med-dfs', 'SG'):service=draftkings"/>
			</DerivedField>
			<DerivedField name="('70.0th-pctl-dfs', 'C')^2" optype="continuous" dataType="double">
				<Apply function="pow">
					<FieldRef field="('70.0th-pctl-dfs', 'C')"/>
					<Constant dataType="integer">2</Constant>
				</Apply>
			</DerivedField>
			<DerivedField name="float(('70.0th-pctl-dfs', 'C')^2)" optype="continuous" dataType="float">
				<FieldRef field="('70.0th-pctl-dfs', 'C')^2"/>
			</DerivedField>
			<DerivedField name="('70.0th-pctl-dfs', 'C'):('70.0th-pctl-dfs', 'PF')" optype="continuous" dataType="double">
				<Apply function="*">
					<FieldRef field="('70.0th-pctl-dfs', 'C')"/>
					<FieldRef field="('70.0th-pctl-dfs', 'PF')"/>
				</Apply>
			</DerivedField>
			<DerivedField name="float(('70.0th-pctl-dfs', 'C'):('70.0th-pctl-dfs', 'PF'))" optype="continuous" dataType="float">
				<FieldRef field="('70.0th-pctl-dfs', 'C'):('70.0th-pctl-dfs', 'PF')"/>
			</DerivedField>
			<DerivedField name="('70.0th-pctl-dfs', 'C'):('70.0th-pctl-dfs', 'PG')" optype="continuous" dataType="double">
				<Apply function="*">
					<FieldRef field="('70.0th-pctl-dfs', 'C')"/>
					<FieldRef field="('70.0th-pctl-dfs', 'PG')"/>
				</Apply>
			</DerivedField>
			<DerivedField name="float(('70.0th-pctl-dfs', 'C'):('70.0th-pctl-dfs', 'PG'))" optype="continuous" dataType="float">
				<FieldRef field="('70.0th-pctl-dfs', 'C'):('70.0th-pctl-dfs', 'PG')"/>
			</DerivedField>
			<DerivedField name="('70.0th-pctl-dfs', 'C'):('70.0th-pctl-dfs', 'SF')" optype="continuous" dataType="double">
				<Apply function="*">
					<FieldRef field="('70.0th-pctl-dfs', 'C')"/>
					<FieldRef field="('70.0th-pctl-dfs', 'SF')"/>
				</Apply>
			</DerivedField>
			<DerivedField name="float(('70.0th-pctl-dfs', 'C'):('70.0th-pctl-dfs', 'SF'))" optype="continuous" dataType="float">
				<FieldRef field="('70.0th-pctl-dfs', 'C'):('70.0th-pctl-dfs', 'SF')"/>
			</DerivedField>
			<DerivedField name="('70.0th-pctl-dfs', 'C'):('70.0th-pctl-dfs', 'SG')" optype="continuous" dataType="double">
				<Apply function="*">
					<FieldRef field="('70.0th-pctl-dfs', 'C')"/>
					<FieldRef field="('70.0th-pctl-dfs', 'SG')"/>
				</Apply>
			</DerivedField>
			<DerivedField name="float(('70.0th-pctl-dfs', 'C'):('70.0th-pctl-dfs', 'SG'))" optype="continuous" dataType="float">
				<FieldRef field="('70.0th-pctl-dfs', 'C'):('70.0th-pctl-dfs', 'SG')"/>
			</DerivedField>
			<DerivedField name="('70.0th-pctl-dfs', 'C'):service=draftkings" optype="continuous" dataType="double">
				<Apply function="*">
					<FieldRef field="('70.0th-pctl-dfs', 'C')"/>
					<FieldRef field="service=draftkings"/>
				</Apply>
			</DerivedField>
			<DerivedField name="float(('70.0th-pctl-dfs', 'C'):service=draftkings)" optype="continuous" dataType="float">
				<FieldRef field="('70.0th-pctl-dfs', 'C'):service=draftkings"/>
			</DerivedField>
			<DerivedField name="('70.0th-pctl-dfs', 'C'):service=fanduel" optype="continuous" dataType="double">
				<Apply function="*">
					<FieldRef field="('70.0th-pctl-dfs', 'C')"/>
					<FieldRef field="service=fanduel"/>
				</Apply>
			</DerivedField>
			<DerivedField name="float(('70.0th-pctl-dfs', 'C'):service=fanduel)" optype="continuous" dataType="float">
				<FieldRef field="('70.0th-pctl-dfs', 'C'):service=fanduel"/>
			</DerivedField>
			<DerivedField name="('70.0th-pctl-dfs', 'PF')^2" optype="continuous" dataType="double">
				<Apply function="pow">
					<FieldRef field="('70.0th-pctl-dfs', 'PF')"/>
					<Constant dataType="integer">2</Constant>
				</Apply>
			</DerivedField>
			<DerivedField name="float(('70.0th-pctl-dfs', 'PF')^2)" optype="continuous" dataType="float">
				<FieldRef field="('70.0th-pctl-dfs', 'PF')^2"/>
			</DerivedField>
			<DerivedField name="('70.0th-pctl-dfs', 'PF'):('70.0th-pctl-dfs', 'PG')" optype="continuous" dataType="double">
				<Apply function="*">
					<FieldRef field="('70.0th-pctl-dfs', 'PF')"/>
					<FieldRef field="('70.0th-pctl-dfs', 'PG')"/>
				</Apply>
			</DerivedField>
			<DerivedField name="float(('70.0th-pctl-dfs', 'PF'):('70.0th-pctl-dfs', 'PG'))" optype="continuous" dataType="float">
				<FieldRef field="('70.0th-pctl-dfs', 'PF'):('70.0th-pctl-dfs', 'PG')"/>
			</DerivedField>
			<DerivedField name="('70.0th-pctl-dfs', 'PF'):('70.0th-pctl-dfs', 'SF')" optype="continuous" dataType="double">
				<Apply function="*">
					<FieldRef field="('70.0th-pctl-dfs', 'PF')"/>
					<FieldRef field="('70.0th-pctl-dfs', 'SF')"/>
				</Apply>
			</DerivedField>
			<DerivedField name="float(('70.0th-pctl-dfs', 'PF'):('70.0th-pctl-dfs', 'SF'))" optype="continuous" dataType="float">
				<FieldRef field="('70.0th-pctl-dfs', 'PF'):('70.0th-pctl-dfs', 'SF')"/>
			</DerivedField>
			<DerivedField name="('70.0th-pctl-dfs', 'PF'):('70.0th-pctl-dfs', 'SG')" optype="continuous" dataType="double">
				<Apply function="*">
					<FieldRef field="('70.0th-pctl-dfs', 'PF')"/>
					<FieldRef field="('70.0th-pctl-dfs', 'SG')"/>
				</Apply>
			</DerivedField>
			<DerivedField name="float(('70.0th-pctl-dfs', 'PF'):('70.0th-pctl-dfs', 'SG'))" optype="continuous" dataType="float">
				<FieldRef field="('70.0th-pctl-dfs', 'PF'):('70.0th-pctl-dfs', 'SG')"/>
			</DerivedField>
			<DerivedField name="('70.0th-pctl-dfs', 'PF'):service=draftkings" optype="continuous" dataType="double">
				<Apply function="*">
					<FieldRef field="('70.0th-pctl-dfs', 'PF')"/>
					<FieldRef field="service=draftkings"/>
				</Apply>
			</DerivedField>
			<DerivedField name="float(('70.0th-pctl-dfs', 'PF'):service=draftkings)" optype="continuous" dataType="float">
				<FieldRef field="('70.0th-pctl-dfs', 'PF'):service=draftkings"/>
			</DerivedField>
			<DerivedField name="('70.0th-pctl-dfs', 'PF'):service=fanduel" optype="continuous" dataType="double">
				<Apply function="*">
					<FieldRef field="('70.0th-pctl-dfs', 'PF')"/>
					<FieldRef field="service=fanduel"/>
				</Apply>
			</DerivedField>
			<DerivedField name="float(('70.0th-pctl-dfs', 'PF'):service=fanduel)" optype="continuous" dataType="float">
				<FieldRef field="('70.0th-pctl-dfs', 'PF'):service=fanduel"/>
			</DerivedField>
			<DerivedField name="('70.0th-pctl-dfs', 'PG'):('70.0th-pctl-dfs', 'SF')" optype="continuous" dataType="double">
				<Apply function="*">
					<FieldRef field="('70.0th-pctl-dfs', 'PG')"/>
					<FieldRef field="('70.0th-pctl-dfs', 'SF')"/>
				</Apply>
			</DerivedField>
			<DerivedField name="float(('70.0th-pctl-dfs', 'PG'):('70.0th-pctl-dfs', 'SF'))" optype="continuous" dataType="float">
				<FieldRef field="('70.0th-pctl-dfs', 'PG'):('70.0th-pctl-dfs', 'SF')"/>
			</DerivedField>
			<DerivedField name="('70.0th-pctl-dfs', 'PG'):('70.0th-pctl-dfs', 'SG')" optype="continuous" dataType="double">
				<Apply function="*">
					<FieldRef field="('70.0th-pctl-dfs', 'PG')"/>
					<FieldRef field="('70.0th-pctl-dfs', 'SG')"/>
				</Apply>
			</DerivedField>
			<DerivedField name="float(('70.0th-pctl-dfs', 'PG'):('70.0th-pctl-dfs', 'SG'))" optype="continuous" dataType="float">
				<FieldRef field="('70.0th-pctl-dfs', 'PG'):('70.0th-pctl-dfs', 'SG')"/>
			</DerivedField>
			<DerivedField name="('70.0th-pctl-dfs', 'PG'):service=draftkings" optype="continuous" dataType="double">
				<Apply function="*">
					<FieldRef field="('70.0th-pctl-dfs', 'PG')"/>
					<FieldRef field="service=draftkings"/>
				</Apply>
			</DerivedField>
			<DerivedField name="float(('70.0th-pctl-dfs', 'PG'):service=draftkings)" optype="continuous" dataType="float">
				<FieldRef field="('70.0th-pctl-dfs', 'PG'):service=draftkings"/>
			</DerivedField>
			<DerivedField name="('70.0th-pctl-dfs', 'PG'):service=fanduel" optype="continuous" dataType="double">
				<Apply function="*">
					<FieldRef field="('70.0th-pctl-dfs', 'PG')"/>
					<FieldRef field="service=fanduel"/>
				</Apply>
			</DerivedField>
			<DerivedField name="float(('70.0th-pctl-dfs', 'PG'):service=fanduel)" optype="continuous" dataType="float">
				<FieldRef field="('70.0th-pctl-dfs', 'PG'):service=fanduel"/>
			</DerivedField>
			<DerivedField name="('70.0th-pctl-dfs', 'SF')^2" optype="continuous" dataType="double">
				<Apply function="pow">
					<FieldRef field="('70.0th-pctl-dfs', 'SF')"/>
					<Constant dataType="integer">2</Constant>
				</Apply>
			</DerivedField>
			<DerivedField name="float(('70.0th-pctl-dfs', 'SF')^2)" optype="continuous" dataType="float">
				<FieldRef field="('70.0th-pctl-dfs', 'SF')^2"/>
			</DerivedField>
			<DerivedField name="('70.0th-pctl-dfs', 'SF'):('70.0th-pctl-dfs', 'SG')" optype="continuous" dataType="double">
				<Apply function="*">
					<FieldRef field="('70.0th-pctl-dfs', 'SF')"/>
					<FieldRef field="('70.0th-pctl-dfs', 'SG')"/>
				</Apply>
			</DerivedField>
			<DerivedField name="float(('70.0th-pctl-dfs', 'SF'):('70.0th-pctl-dfs', 'SG'))" optype="continuous" dataType="float">
				<FieldRef field="('70.0th-pctl-dfs', 'SF'):('70.0th-pctl-dfs', 'SG')"/>
			</DerivedField>
			<DerivedField name="('70.0th-pctl-dfs', 'SF'):service=draftkings" optype="continuous" dataType="double">
				<Apply function="*">
					<FieldRef field="('70.0th-pctl-dfs', 'SF')"/>
					<FieldRef field="service=draftkings"/>
				</Apply>
			</DerivedField>
			<DerivedField name="float(('70.0th-pctl-dfs', 'SF'):service=draftkings)" optype="continuous" dataType="float">
				<FieldRef field="('70.0th-pctl-dfs', 'SF'):service=draftkings"/>
			</DerivedField>
			<DerivedField name="('70.0th-pctl-dfs', 'SF'):service=fanduel" optype="continuous" dataType="double">
				<Apply function="*">
					<FieldRef field="('70.0th-pctl-dfs', 'SF')"/>
					<FieldRef field="service=fanduel"/>
				</Apply>
			</DerivedField>
			<DerivedField name="float(('70.0th-pctl-dfs', 'SF'):service=fanduel)" optype="continuous" dataType="float">
				<FieldRef field="('70.0th-pctl-dfs', 'SF'):service=fanduel"/>
			</DerivedField>
			<DerivedField name="('70.0th-pctl-dfs', 'SG'):service=draftkings" optype="continuous" dataType="double">
				<Apply function="*">
					<FieldRef field="('70.0th-pctl-dfs', 'SG')"/>
					<FieldRef field="service=draftkings"/>
				</Apply>
			</DerivedField>
			<DerivedField name="float(('70.0th-pctl-dfs', 'SG'):service=draftkings)" optype="continuous" dataType="float">
				<FieldRef field="('70.0th-pctl-dfs', 'SG'):service=draftkings"/>
			</DerivedField>
			<DerivedField name="('70.0th-pctl-dfs', 'SG'):service=fanduel" optype="continuous" dataType="double">
				<Apply function="*">
					<FieldRef field="('70.0th-pctl-dfs', 'SG')"/>
					<FieldRef field="service=fanduel"/>
				</Apply>
			</DerivedField>
			<DerivedField name="float(('70.0th-pctl-dfs', 'SG'):service=fanduel)" optype="continuous" dataType="float">
				<FieldRef field="('70.0th-pctl-dfs', 'SG'):service=fanduel"/>
			</DerivedField>
			<DerivedField name="double(float(('med-dfs', 'PG'):service=draftkings))" optype="continuous" dataType="double">
				<FieldRef field="float(('med-dfs', 'PG'):service=draftkings)"/>
			</DerivedField>
			<DerivedField name="double(float(best-possible-score:team-70.0th_pctl))" optype="continuous" dataType="double">
				<FieldRef field="float(best-possible-score:team-70.0th_pctl)"/>
			</DerivedField>
			<DerivedField name="double(float(('med-dfs', 'SG'):('70.0th-pctl-dfs', 'PF')))" optype="continuous" dataType="double">
				<FieldRef field="float(('med-dfs', 'SG'):('70.0th-pctl-dfs', 'PF'))"/>
			</DerivedField>
			<DerivedField name="double(float(team-med:('70.0th-pctl-dfs', 'SF')))" optype="continuous" dataType="double">
				<FieldRef field="float(team-med:('70.0th-pctl-dfs', 'SF'))"/>
			</DerivedField>
			<DerivedField name="double(float(('med-dfs', 'SG'):('70.0th-pctl-dfs', 'C')))" optype="continuous" dataType="double">
				<FieldRef field="float(('med-dfs', 'SG'):('70.0th-pctl-dfs', 'C'))"/>
			</DerivedField>
			<DerivedField name="double(float(team-med:('med-dfs', 'SG')))" optype="continuous" dataType="double">
				<FieldRef field="float(team-med:('med-dfs', 'SG'))"/>
			</DerivedField>
			<DerivedField name="double(float(team-70.0th_pctl:('med-dfs', 'SG')))" optype="continuous" dataType="double">
				<FieldRef field="float(team-70.0th_pctl:('med-dfs', 'SG'))"/>
			</DerivedField>
			<DerivedField name="double(float(('med-dfs', 'SG'):service=draftkings))" optype="continuous" dataType="double">
				<FieldRef field="float(('med-dfs', 'SG'):service=draftkings)"/>
			</DerivedField>
			<DerivedField name="double(float(best-possible-score:team-med))" optype="continuous" dataType="double">
				<FieldRef field="float(best-possible-score:team-med)"/>
			</DerivedField>
			<DerivedField name="double(float(team-med:('med-dfs', 'SF')))" optype="continuous" dataType="double">
				<FieldRef field="float(team-med:('med-dfs', 'SF'))"/>
			</DerivedField>
			<DerivedField name="double(float(('med-dfs', 'PG'):service=fanduel))" optype="continuous" dataType="double">
				<FieldRef field="float(('med-dfs', 'PG'):service=fanduel)"/>
			</DerivedField>
			<DerivedField name="double(float(('med-dfs', 'PG'):('70.0th-pctl-dfs', 'SG')))" optype="continuous" dataType="double">
				<FieldRef field="float(('med-dfs', 'PG'):('70.0th-pctl-dfs', 'SG'))"/>
			</DerivedField>
			<DerivedField name="double(float(team-med:service=fanduel))" optype="continuous" dataType="double">
				<FieldRef field="float(team-med:service=fanduel)"/>
			</DerivedField>
			<DerivedField name="double(float(best-possible-score:('70.0th-pctl-dfs', 'PG')))" optype="continuous" dataType="double">
				<FieldRef field="float(best-possible-score:('70.0th-pctl-dfs', 'PG'))"/>
			</DerivedField>
			<DerivedField name="double(float(('med-dfs', 'PG'):('med-dfs', 'SG')))" optype="continuous" dataType="double">
				<FieldRef field="float(('med-dfs', 'PG'):('med-dfs', 'SG'))"/>
			</DerivedField>
			<DerivedField name="double(float(team-70.0th_pctl:('med-dfs', 'C')))" optype="continuous" dataType="double">
				<FieldRef field="float(team-70.0th_pctl:('med-dfs', 'C'))"/>
			</DerivedField>
			<DerivedField name="double(float(team-70.0th_pctl:('70.0th-pctl-dfs', 'SG')))" optype="continuous" dataType="double">
				<FieldRef field="float(team-70.0th_pctl:('70.0th-pctl-dfs', 'SG'))"/>
			</DerivedField>
			<DerivedField name="double(float(team-70.0th_pctl))" optype="continuous" dataType="double">
				<FieldRef field="float(team-70.0th_pctl)"/>
			</DerivedField>
			<DerivedField name="double(float(team-70.0th_pctl:('70.0th-pctl-dfs', 'PG')))" optype="continuous" dataType="double">
				<FieldRef field="float(team-70.0th_pctl:('70.0th-pctl-dfs', 'PG'))"/>
			</DerivedField>
			<DerivedField name="double(float(team_count:('70.0th-pctl-dfs', 'C')))" optype="continuous" dataType="double">
				<FieldRef field="float(team_count:('70.0th-pctl-dfs', 'C'))"/>
			</DerivedField>
			<DerivedField name="double(float(best-possible-score:service=draftkings))" optype="continuous" dataType="double">
				<FieldRef field="float(best-possible-score:service=draftkings)"/>
			</DerivedField>
			<DerivedField name="double(float(('70.0th-pctl-dfs', 'PG'):service=fanduel))" optype="continuous" dataType="double">
				<FieldRef field="float(('70.0th-pctl-dfs', 'PG'):service=fanduel)"/>
			</DerivedField>
			<DerivedField name="double(float(best-possible-score^2))" optype="continuous" dataType="double">
				<FieldRef field="float(best-possible-score^2)"/>
			</DerivedField>
			<DerivedField name="double(float(team-70.0th_pctl:('med-dfs', 'SF')))" optype="continuous" dataType="double">
				<FieldRef field="float(team-70.0th_pctl:('med-dfs', 'SF'))"/>
			</DerivedField>
			<DerivedField name="double(float(('med-dfs', 'SG')^2))" optype="continuous" dataType="double">
				<FieldRef field="float(('med-dfs', 'SG')^2)"/>
			</DerivedField>
			<DerivedField name="double(float(('med-dfs', 'C'):('70.0th-pctl-dfs', 'PG')))" optype="continuous" dataType="double">
				<FieldRef field="float(('med-dfs', 'C'):('70.0th-pctl-dfs', 'PG'))"/>
			</DerivedField>
			<DerivedField name="double(float(('med-dfs', 'SF'):('70.0th-pctl-dfs', 'SF')))" optype="continuous" dataType="double">
				<FieldRef field="float(('med-dfs', 'SF'):('70.0th-pctl-dfs', 'SF'))"/>
			</DerivedField>
			<DerivedField name="double(float(team_count:('70.0th-pctl-dfs', 'PG')))" optype="continuous" dataType="double">
				<FieldRef field="float(team_count:('70.0th-pctl-dfs', 'PG'))"/>
			</DerivedField>
			<DerivedField name="double(float(team_count:('70.0th-pctl-dfs', 'SG')))" optype="continuous" dataType="double">
				<FieldRef field="float(team_count:('70.0th-pctl-dfs', 'SG'))"/>
			</DerivedField>
			<DerivedField name="double(float(team-70.0th_pctl:('70.0th-pctl-dfs', 'C')))" optype="continuous" dataType="double">
				<FieldRef field="float(team-70.0th_pctl:('70.0th-pctl-dfs', 'C'))"/>
			</DerivedField>
			<DerivedField name="double(float(team-70.0th_pctl^2))" optype="continuous" dataType="double">
				<FieldRef field="float(team-70.0th_pctl^2)"/>
			</DerivedField>
			<DerivedField name="double(float(('med-dfs', 'SF'):('70.0th-pctl-dfs', 'C')))" optype="continuous" dataType="double">
				<FieldRef field="float(('med-dfs', 'SF'):('70.0th-pctl-dfs', 'C'))"/>
			</DerivedField>
			<DerivedField name="double(float(team-med:('70.0th-pctl-dfs', 'SG')))" optype="continuous" dataType="double">
				<FieldRef field="float(team-med:('70.0th-pctl-dfs', 'SG'))"/>
			</DerivedField>
			<DerivedField name="double(float(('med-dfs', 'PF'):('med-dfs', 'PG')))" optype="continuous" dataType="double">
				<FieldRef field="float(('med-dfs', 'PF'):('med-dfs', 'PG'))"/>
			</DerivedField>
			<DerivedField name="double(float(team-med^2))" optype="continuous" dataType="double">
				<FieldRef field="float(team-med^2)"/>
			</DerivedField>
			<DerivedField name="double(float(team_count:('med-dfs', 'SG')))" optype="continuous" dataType="double">
				<FieldRef field="float(team_count:('med-dfs', 'SG'))"/>
			</DerivedField>
			<DerivedField name="double(float(team-med:('med-dfs', 'PF')))" optype="continuous" dataType="double">
				<FieldRef field="float(team-med:('med-dfs', 'PF'))"/>
			</DerivedField>
			<DerivedField name="double(float(('med-dfs', 'C'):('med-dfs', 'PF')))" optype="continuous" dataType="double">
				<FieldRef field="float(('med-dfs', 'C'):('med-dfs', 'PF'))"/>
			</DerivedField>
			<DerivedField name="double(float(('70.0th-pctl-dfs', 'C'):('70.0th-pctl-dfs', 'PF')))" optype="continuous" dataType="double">
				<FieldRef field="float(('70.0th-pctl-dfs', 'C'):('70.0th-pctl-dfs', 'PF'))"/>
			</DerivedField>
			<DerivedField name="double(float(('med-dfs', 'PF'):('med-dfs', 'SG')))" optype="continuous" dataType="double">
				<FieldRef field="float(('med-dfs', 'PF'):('med-dfs', 'SG'))"/>
			</DerivedField>
			<DerivedField name="double(float(('70.0th-pctl-dfs', 'PF'):service=fanduel))" optype="continuous" dataType="double">
				<FieldRef field="float(('70.0th-pctl-dfs', 'PF'):service=fanduel)"/>
			</DerivedField>
			<DerivedField name="double(float(('med-dfs', 'C'):('70.0th-pctl-dfs', 'SF')))" optype="continuous" dataType="double">
				<FieldRef field="float(('med-dfs', 'C'):('70.0th-pctl-dfs', 'SF'))"/>
			</DerivedField>
			<DerivedField name="double(float(team-med:('70.0th-pctl-dfs', 'PG')))" optype="continuous" dataType="double">
				<FieldRef field="float(team-med:('70.0th-pctl-dfs', 'PG'))"/>
			</DerivedField>
			<DerivedField name="double(float(best-possible-score:('med-dfs', 'C')))" optype="continuous" dataType="double">
				<FieldRef field="float(best-possible-score:('med-dfs', 'C'))"/>
			</DerivedField>
			<DerivedField name="double(float(best-possible-score:service=fanduel))" optype="continuous" dataType="double">
				<FieldRef field="float(best-possible-score:service=fanduel)"/>
			</DerivedField>
			<DerivedField name="double(float(team-med:('med-dfs', 'C')))" optype="continuous" dataType="double">
				<FieldRef field="float(team-med:('med-dfs', 'C'))"/>
			</DerivedField>
			<DerivedField name="double(float(('70.0th-pctl-dfs', 'C'):('70.0th-pctl-dfs', 'SG')))" optype="continuous" dataType="double">
				<FieldRef field="float(('70.0th-pctl-dfs', 'C'):('70.0th-pctl-dfs', 'SG'))"/>
			</DerivedField>
			<DerivedField name="double(float(best-possible-score))" optype="continuous" dataType="double">
				<FieldRef field="float(best-possible-score)"/>
			</DerivedField>
			<DerivedField name="double(float(('med-dfs', 'SF'):('70.0th-pctl-dfs', 'PG')))" optype="continuous" dataType="double">
				<FieldRef field="float(('med-dfs', 'SF'):('70.0th-pctl-dfs', 'PG'))"/>
			</DerivedField>
			<DerivedField name="double(float(('med-dfs', 'PG'):('70.0th-pctl-dfs', 'PF')))" optype="continuous" dataType="double">
				<FieldRef field="float(('med-dfs', 'PG'):('70.0th-pctl-dfs', 'PF'))"/>
			</DerivedField>
			<DerivedField name="double(float(('70.0th-pctl-dfs', 'C'):('70.0th-pctl-dfs', 'SF')))" optype="continuous" dataType="double">
				<FieldRef field="float(('70.0th-pctl-dfs', 'C'):('70.0th-pctl-dfs', 'SF'))"/>
			</DerivedField>
			<DerivedField name="double(float(('med-dfs', 'PF'):service=draftkings))" optype="continuous" dataType="double">
				<FieldRef field="float(('med-dfs', 'PF'):service=draftkings)"/>
			</DerivedField>
			<DerivedField name="double(float(('70.0th-pctl-dfs', 'PF'):('70.0th-pctl-dfs', 'SF')))" optype="continuous" dataType="double">
				<FieldRef field="float(('70.0th-pctl-dfs', 'PF'):('70.0th-pctl-dfs', 'SF'))"/>
			</DerivedField>
			<DerivedField name="double(float(('med-dfs', 'PG'):('70.0th-pctl-dfs', 'PG')))" optype="continuous" dataType="double">
				<FieldRef field="float(('med-dfs', 'PG'):('70.0th-pctl-dfs', 'PG'))"/>
			</DerivedField>
			<DerivedField name="double(float(('70.0th-pctl-dfs', 'C')^2))" optype="continuous" dataType="double">
				<FieldRef field="float(('70.0th-pctl-dfs', 'C')^2)"/>
			</DerivedField>
			<DerivedField name="double(float(team_count:('med-dfs', 'SF')))" optype="continuous" dataType="double">
				<FieldRef field="float(team_count:('med-dfs', 'SF'))"/>
			</DerivedField>
			<DerivedField name="double(float(('70.0th-pctl-dfs', 'C'):('70.0th-pctl-dfs', 'PG')))" optype="continuous" dataType="double">
				<FieldRef field="float(('70.0th-pctl-dfs', 'C'):('70.0th-pctl-dfs', 'PG'))"/>
			</DerivedField>
			<DerivedField name="double(float(('70.0th-pctl-dfs', 'PF'):('70.0th-pctl-dfs', 'SG')))" optype="continuous" dataType="double">
				<FieldRef field="float(('70.0th-pctl-dfs', 'PF'):('70.0th-pctl-dfs', 'SG'))"/>
			</DerivedField>
			<DerivedField name="double(float(('med-dfs', 'SG'):('70.0th-pctl-dfs', 'SF')))" optype="continuous" dataType="double">
				<FieldRef field="float(('med-dfs', 'SG'):('70.0th-pctl-dfs', 'SF'))"/>
			</DerivedField>
			<DerivedField name="double(float(('med-dfs', 'PG'):('med-dfs', 'SF')))" optype="continuous" dataType="double">
				<FieldRef field="float(('med-dfs', 'PG'):('med-dfs', 'SF'))"/>
			</DerivedField>
			<DerivedField name="double(float(('70.0th-pctl-dfs', 'PG'):service=draftkings))" optype="continuous" dataType="double">
				<FieldRef field="float(('70.0th-pctl-dfs', 'PG'):service=draftkings)"/>
			</DerivedField>
			<DerivedField name="double(float(best-possible-score:('med-dfs', 'SG')))" optype="continuous" dataType="double">
				<FieldRef field="float(best-possible-score:('med-dfs', 'SG'))"/>
			</DerivedField>
			<DerivedField name="double(float(('70.0th-pctl-dfs', 'PF')^2))" optype="continuous" dataType="double">
				<FieldRef field="float(('70.0th-pctl-dfs', 'PF')^2)"/>
			</DerivedField>
			<DerivedField name="double(float(('med-dfs', 'SG'):('70.0th-pctl-dfs', 'PG')))" optype="continuous" dataType="double">
				<FieldRef field="float(('med-dfs', 'SG'):('70.0th-pctl-dfs', 'PG'))"/>
			</DerivedField>
			<DerivedField name="double(float(('med-dfs', 'PF')^2))" optype="continuous" dataType="double">
				<FieldRef field="float(('med-dfs', 'PF')^2)"/>
			</DerivedField>
			<DerivedField name="double(float(('med-dfs', 'SF'):('70.0th-pctl-dfs', 'PF')))" optype="continuous" dataType="double">
				<FieldRef field="float(('med-dfs', 'SF'):('70.0th-pctl-dfs', 'PF'))"/>
			</DerivedField>
			<DerivedField name="double(float(team_count:('70.0th-pctl-dfs', 'PF')))" optype="continuous" dataType="double">
				<FieldRef field="float(team_count:('70.0th-pctl-dfs', 'PF'))"/>
			</DerivedField>
			<DerivedField name="double(float(best-possible-score:('70.0th-pctl-dfs', 'PF')))" optype="continuous" dataType="double">
				<FieldRef field="float(best-possible-score:('70.0th-pctl-dfs', 'PF'))"/>
			</DerivedField>
			<DerivedField name="double(float(('med-dfs', 'SF')))" optype="continuous" dataType="double">
				<FieldRef field="float(('med-dfs', 'SF'))"/>
			</DerivedField>
			<DerivedField name="double(float(('med-dfs', 'SF'):('70.0th-pctl-dfs', 'SG')))" optype="continuous" dataType="double">
				<FieldRef field="float(('med-dfs', 'SF'):('70.0th-pctl-dfs', 'SG'))"/>
			</DerivedField>
			<DerivedField name="double(float(('med-dfs', 'C'):('med-dfs', 'SF')))" optype="continuous" dataType="double">
				<FieldRef field="float(('med-dfs', 'C'):('med-dfs', 'SF'))"/>
			</DerivedField>
			<DerivedField name="double(float(('med-dfs', 'C'):('70.0th-pctl-dfs', 'SG')))" optype="continuous" dataType="double">
				<FieldRef field="float(('med-dfs', 'C'):('70.0th-pctl-dfs', 'SG'))"/>
			</DerivedField>
			<DerivedField name="double(float(best-possible-score:('med-dfs', 'SF')))" optype="continuous" dataType="double">
				<FieldRef field="float(best-possible-score:('med-dfs', 'SF'))"/>
			</DerivedField>
			<DerivedField name="double(float(('med-dfs', 'PF'):('70.0th-pctl-dfs', 'SG')))" optype="continuous" dataType="double">
				<FieldRef field="float(('med-dfs', 'PF'):('70.0th-pctl-dfs', 'SG'))"/>
			</DerivedField>
			<DerivedField name="double(float(team_count:team-70.0th_pctl))" optype="continuous" dataType="double">
				<FieldRef field="float(team_count:team-70.0th_pctl)"/>
			</DerivedField>
			<DerivedField name="double(float(best-possible-score:('med-dfs', 'PG')))" optype="continuous" dataType="double">
				<FieldRef field="float(best-possible-score:('med-dfs', 'PG'))"/>
			</DerivedField>
			<DerivedField name="double(float(('med-dfs', 'SF'):service=fanduel))" optype="continuous" dataType="double">
				<FieldRef field="float(('med-dfs', 'SF'):service=fanduel)"/>
			</DerivedField>
			<DerivedField name="double(float(('med-dfs', 'PG'):('70.0th-pctl-dfs', 'SF')))" optype="continuous" dataType="double">
				<FieldRef field="float(('med-dfs', 'PG'):('70.0th-pctl-dfs', 'SF'))"/>
			</DerivedField>
			<DerivedField name="double(float(team-70.0th_pctl:service=draftkings))" optype="continuous" dataType="double">
				<FieldRef field="float(team-70.0th_pctl:service=draftkings)"/>
			</DerivedField>
			<DerivedField name="double(float(('med-dfs', 'C'):('70.0th-pctl-dfs', 'PF')))" optype="continuous" dataType="double">
				<FieldRef field="float(('med-dfs', 'C'):('70.0th-pctl-dfs', 'PF'))"/>
			</DerivedField>
			<DerivedField name="double(float(('med-dfs', 'PG'):('70.0th-pctl-dfs', 'C')))" optype="continuous" dataType="double">
				<FieldRef field="float(('med-dfs', 'PG'):('70.0th-pctl-dfs', 'C'))"/>
			</DerivedField>
			<DerivedField name="double(float(team-med:('70.0th-pctl-dfs', 'PF')))" optype="continuous" dataType="double">
				<FieldRef field="float(team-med:('70.0th-pctl-dfs', 'PF'))"/>
			</DerivedField>
			<DerivedField name="double(float(best-possible-score:('70.0th-pctl-dfs', 'SF')))" optype="continuous" dataType="double">
				<FieldRef field="float(best-possible-score:('70.0th-pctl-dfs', 'SF'))"/>
			</DerivedField>
			<DerivedField name="double(float(('70.0th-pctl-dfs', 'PF'):service=draftkings))" optype="continuous" dataType="double">
				<FieldRef field="float(('70.0th-pctl-dfs', 'PF'):service=draftkings)"/>
			</DerivedField>
			<DerivedField name="double(float(team_count:('med-dfs', 'PG')))" optype="continuous" dataType="double">
				<FieldRef field="float(team_count:('med-dfs', 'PG'))"/>
			</DerivedField>
			<DerivedField name="double(float(team-70.0th_pctl:('70.0th-pctl-dfs', 'PF')))" optype="continuous" dataType="double">
				<FieldRef field="float(team-70.0th_pctl:('70.0th-pctl-dfs', 'PF'))"/>
			</DerivedField>
			<DerivedField name="double(float(('70.0th-pctl-dfs', 'PF')))" optype="continuous" dataType="double">
				<FieldRef field="float(('70.0th-pctl-dfs', 'PF'))"/>
			</DerivedField>
			<DerivedField name="double(float(('med-dfs', 'PF'):service=fanduel))" optype="continuous" dataType="double">
				<FieldRef field="float(('med-dfs', 'PF'):service=fanduel)"/>
			</DerivedField>
			<DerivedField name="double(float(team-med:('70.0th-pctl-dfs', 'C')))" optype="continuous" dataType="double">
				<FieldRef field="float(team-med:('70.0th-pctl-dfs', 'C'))"/>
			</DerivedField>
			<DerivedField name="double(float(team_count:team-med))" optype="continuous" dataType="double">
				<FieldRef field="float(team_count:team-med)"/>
			</DerivedField>
			<DerivedField name="double(float(('med-dfs', 'PF')))" optype="continuous" dataType="double">
				<FieldRef field="float(('med-dfs', 'PF'))"/>
			</DerivedField>
			<DerivedField name="double(float(('70.0th-pctl-dfs', 'C'):service=draftkings))" optype="continuous" dataType="double">
				<FieldRef field="float(('70.0th-pctl-dfs', 'C'):service=draftkings)"/>
			</DerivedField>
			<DerivedField name="double(float(team_count:('med-dfs', 'C')))" optype="continuous" dataType="double">
				<FieldRef field="float(team_count:('med-dfs', 'C'))"/>
			</DerivedField>
			<DerivedField name="double(float(('med-dfs', 'C'):('70.0th-pctl-dfs', 'C')))" optype="continuous" dataType="double">
				<FieldRef field="float(('med-dfs', 'C'):('70.0th-pctl-dfs', 'C'))"/>
			</DerivedField>
			<DerivedField name="double(float(team-70.0th_pctl:service=fanduel))" optype="continuous" dataType="double">
				<FieldRef field="float(team-70.0th_pctl:service=fanduel)"/>
			</DerivedField>
			<DerivedField name="double(float(('med-dfs', 'C'):('med-dfs', 'PG')))" optype="continuous" dataType="double">
				<FieldRef field="float(('med-dfs', 'C'):('med-dfs', 'PG'))"/>
			</DerivedField>
			<DerivedField name="double(float(team-med:('med-dfs', 'PG')))" optype="continuous" dataType="double">
				<FieldRef field="float(team-med:('med-dfs', 'PG'))"/>
			</DerivedField>
			<DerivedField name="double(float(('70.0th-pctl-dfs', 'PF'):('70.0th-pctl-dfs', 'PG')))" optype="continuous" dataType="double">
				<FieldRef field="float(('70.0th-pctl-dfs', 'PF'):('70.0th-pctl-dfs', 'PG'))"/>
			</DerivedField>
			<DerivedField name="double(float(team-med:service=draftkings))" optype="continuous" dataType="double">
				<FieldRef field="float(team-med:service=draftkings)"/>
			</DerivedField>
			<DerivedField name="double(float(('70.0th-pctl-dfs', 'PG'):('70.0th-pctl-dfs', 'SG')))" optype="continuous" dataType="double">
				<FieldRef field="float(('70.0th-pctl-dfs', 'PG'):('70.0th-pctl-dfs', 'SG'))"/>
			</DerivedField>
			<DerivedField name="double(float(('70.0th-pctl-dfs', 'C')))" optype="continuous" dataType="double">
				<FieldRef field="float(('70.0th-pctl-dfs', 'C'))"/>
			</DerivedField>
			<DerivedField name="double(float(team-med:team-70.0th_pctl))" optype="continuous" dataType="double">
				<FieldRef field="float(team-med:team-70.0th_pctl)"/>
			</DerivedField>
			<DerivedField name="double(float(('70.0th-pctl-dfs', 'SG'):service=draftkings))" optype="continuous" dataType="double">
				<FieldRef field="float(('70.0th-pctl-dfs', 'SG'):service=draftkings)"/>
			</DerivedField>
			<DerivedField name="double(float(('med-dfs', 'SF'):('med-dfs', 'SG')))" optype="continuous" dataType="double">
				<FieldRef field="float(('med-dfs', 'SF'):('med-dfs', 'SG'))"/>
			</DerivedField>
			<DerivedField name="double(float(team-70.0th_pctl:('med-dfs', 'PG')))" optype="continuous" dataType="double">
				<FieldRef field="float(team-70.0th_pctl:('med-dfs', 'PG'))"/>
			</DerivedField>
			<DerivedField name="double(float(('70.0th-pctl-dfs', 'SF'):service=draftkings))" optype="continuous" dataType="double">
				<FieldRef field="float(('70.0th-pctl-dfs', 'SF'):service=draftkings)"/>
			</DerivedField>
			<DerivedField name="double(float(best-possible-score:('70.0th-pctl-dfs', 'C')))" optype="continuous" dataType="double">
				<FieldRef field="float(best-possible-score:('70.0th-pctl-dfs', 'C'))"/>
			</DerivedField>
			<DerivedField name="double(float(('med-dfs', 'PF'):('70.0th-pctl-dfs', 'C')))" optype="continuous" dataType="double">
				<FieldRef field="float(('med-dfs', 'PF'):('70.0th-pctl-dfs', 'C'))"/>
			</DerivedField>
			<DerivedField name="double(float(best-possible-score:('70.0th-pctl-dfs', 'SG')))" optype="continuous" dataType="double">
				<FieldRef field="float(best-possible-score:('70.0th-pctl-dfs', 'SG'))"/>
			</DerivedField>
			<DerivedField name="double(float(('70.0th-pctl-dfs', 'SF')^2))" optype="continuous" dataType="double">
				<FieldRef field="float(('70.0th-pctl-dfs', 'SF')^2)"/>
			</DerivedField>
			<DerivedField name="double(float(('med-dfs', 'PF'):('70.0th-pctl-dfs', 'PG')))" optype="continuous" dataType="double">
				<FieldRef field="float(('med-dfs', 'PF'):('70.0th-pctl-dfs', 'PG'))"/>
			</DerivedField>
			<DerivedField name="double(float(('med-dfs', 'PF'):('med-dfs', 'SF')))" optype="continuous" dataType="double">
				<FieldRef field="float(('med-dfs', 'PF'):('med-dfs', 'SF'))"/>
			</DerivedField>
			<DerivedField name="double(float(team-med))" optype="continuous" dataType="double">
				<FieldRef field="float(team-med)"/>
			</DerivedField>
			<DerivedField name="double(float(team_count:('70.0th-pctl-dfs', 'SF')))" optype="continuous" dataType="double">
				<FieldRef field="float(team_count:('70.0th-pctl-dfs', 'SF'))"/>
			</DerivedField>
			<DerivedField name="double(float(('70.0th-pctl-dfs', 'SF'):('70.0th-pctl-dfs', 'SG')))" optype="continuous" dataType="double">
				<FieldRef field="float(('70.0th-pctl-dfs', 'SF'):('70.0th-pctl-dfs', 'SG'))"/>
			</DerivedField>
			<DerivedField name="double(float(team-70.0th_pctl:('70.0th-pctl-dfs', 'SF')))" optype="continuous" dataType="double">
				<FieldRef field="float(team-70.0th_pctl:('70.0th-pctl-dfs', 'SF'))"/>
			</DerivedField>
			<DerivedField name="double(float(('70.0th-pctl-dfs', 'SG'):service=fanduel))" optype="continuous" dataType="double">
				<FieldRef field="float(('70.0th-pctl-dfs', 'SG'):service=fanduel)"/>
			</DerivedField>
			<DerivedField name="double(float(('70.0th-pctl-dfs', 'PG'):('70.0th-pctl-dfs', 'SF')))" optype="continuous" dataType="double">
				<FieldRef field="float(('70.0th-pctl-dfs', 'PG'):('70.0th-pctl-dfs', 'SF'))"/>
			</DerivedField>
			<DerivedField name="double(float(team-70.0th_pctl:('med-dfs', 'PF')))" optype="continuous" dataType="double">
				<FieldRef field="float(team-70.0th_pctl:('med-dfs', 'PF'))"/>
			</DerivedField>
			<DerivedField name="double(float(('70.0th-pctl-dfs', 'SF'):service=fanduel))" optype="continuous" dataType="double">
				<FieldRef field="float(('70.0th-pctl-dfs', 'SF'):service=fanduel)"/>
			</DerivedField>
			<DerivedField name="double(float(('med-dfs', 'C')^2))" optype="continuous" dataType="double">
				<FieldRef field="float(('med-dfs', 'C')^2)"/>
			</DerivedField>
			<DerivedField name="double(float(('70.0th-pctl-dfs', 'C'):service=fanduel))" optype="continuous" dataType="double">
				<FieldRef field="float(('70.0th-pctl-dfs', 'C'):service=fanduel)"/>
			</DerivedField>
			<DerivedField name="double(float(('med-dfs', 'C'):('med-dfs', 'SG')))" optype="continuous" dataType="double">
				<FieldRef field="float(('med-dfs', 'C'):('med-dfs', 'SG'))"/>
			</DerivedField>
			<DerivedField name="double(float(('med-dfs', 'PG')^2))" optype="continuous" dataType="double">
				<FieldRef field="float(('med-dfs', 'PG')^2)"/>
			</DerivedField>
			<DerivedField name="double(float(('med-dfs', 'C'):service=draftkings))" optype="continuous" dataType="double">
				<FieldRef field="float(('med-dfs', 'C'):service=draftkings)"/>
			</DerivedField>
			<DerivedField name="double(float(('med-dfs', 'PG')))" optype="continuous" dataType="double">
				<FieldRef field="float(('med-dfs', 'PG'))"/>
			</DerivedField>
			<DerivedField name="double(float(best-possible-score:('med-dfs', 'PF')))" optype="continuous" dataType="double">
				<FieldRef field="float(best-possible-score:('med-dfs', 'PF'))"/>
			</DerivedField>
		</LocalTransformations>
		<Segmentation multipleModelMethod="sum" missingPredictionTreatment="returnMissing">
			<Segment id="1">
				<True/>
				<TreeModel functionName="regression" missingValueStrategy="nullPrediction" noTrueChildStrategy="returnLastPrediction">
					<MiningSchema>
						<MiningField name="double(float(('med-dfs', 'PG'):service=draftkings))"/>
						<MiningField name="double(float(best-possible-score:team-70.0th_pctl))"/>
						<MiningField name="double(float(('med-dfs', 'SG'):('70.0th-pctl-dfs', 'PF')))"/>
						<MiningField name="double(float(team-med:('70.0th-pctl-dfs', 'SF')))"/>
						<MiningField name="double(float(('med-dfs', 'SG'):('70.0th-pctl-dfs', 'C')))"/>
						<MiningField name="double(float(team-med:('med-dfs', 'SG')))"/>
						<MiningField name="double(float(team-70.0th_pctl:('med-dfs', 'SG')))"/>
					</MiningSchema>
					<Node score="21.35000000000008">
						<True/>
						<Node score="-21.89999999999992">
							<SimplePredicate field="double(float(('med-dfs', 'PG'):service=draftkings))" operator="lessOrEqual" value="16.8125"/>
							<Node score="-32.2999999999999">
								<SimplePredicate field="double(float(best-possible-score:team-70.0th_pctl))" operator="lessOrEqual" value="48688.513671875"/>
								<Node score="-41.39999999999992">
									<SimplePredicate field="double(float(('med-dfs', 'SG'):('70.0th-pctl-dfs', 'PF')))" operator="lessOrEqual" value="542.8844909667969"/>
								</Node>
							</Node>
							<Node score="32.80000000000018">
								<SimplePredicate field="double(float(team-med:('70.0th-pctl-dfs', 'SF')))" operator="lessOrEqual" value="2812.907470703125"/>
							</Node>
							<Node score="-16.599999999999966">
								<SimplePredicate field="double(float(('med-dfs', 'SG'):('70.0th-pctl-dfs', 'C')))" operator="lessOrEqual" value="599.6669921875"/>
							</Node>
						</Node>
						<Node score="-4.39999999999992">
							<SimplePredicate field="double(float(team-med:('med-dfs', 'SG')))" operator="lessOrEqual" value="2009.0625"/>
						</Node>
						<Node score="28.10000000000008">
							<SimplePredicate field="double(float(team-70.0th_pctl:('med-dfs', 'SG')))" operator="lessOrEqual" value="2479.5"/>
						</Node>
						<Node score="8.10000000000008">
							<SimplePredicate field="double(float(team-70.0th_pctl:('med-dfs', 'SG')))" operator="lessOrEqual" value="2604.65625"/>
						</Node>
					</Node>
				</TreeModel>
			</Segment>
			<Segment id="2">
				<True/>
				<TreeModel functionName="regression" missingValueStrategy="nullPrediction" noTrueChildStrategy="returnLastPrediction">
					<MiningSchema>
						<MiningField name="double(float(('med-dfs', 'SG'):service=draftkings))"/>
						<MiningField name="double(float(best-possible-score:team-med))"/>
						<MiningField name="double(float(team-med:('med-dfs', 'SF')))"/>
						<MiningField name="double(float(('med-dfs', 'PG'):service=fanduel))"/>
						<MiningField name="double(float(('med-dfs', 'PG'):('70.0th-pctl-dfs', 'SG')))"/>
						<MiningField name="double(float(team-med:service=fanduel))"/>
						<MiningField name="double(float(best-possible-score:('70.0th-pctl-dfs', 'PG')))"/>
						<MiningField name="double(float(('med-dfs', 'PG'):('med-dfs', 'SG')))"/>
					</MiningSchema>
					<Node score="24.21500000000009">
						<True/>
						<Node score="-1.4799999999999613">
							<SimplePredicate field="double(float(('med-dfs', 'SG'):service=draftkings))" operator="lessOrEqual" value="16.9375"/>
							<Node score="-29.069999999999936">
								<SimplePredicate field="double(float(best-possible-score:team-med))" operator="lessOrEqual" value="46962.287109375"/>
								<Node score="-34.559999999999945">
									<SimplePredicate field="double(float(team-med:('med-dfs', 'SF')))" operator="lessOrEqual" value="2218.3125"/>
									<Node score="-30.55999999999989">
										<SimplePredicate field="double(float(('med-dfs', 'PG'):service=fanduel))" operator="lessOrEqual" value="20.15000057220459"/>
									</Node>
								</Node>
							</Node>
							<Node score="21.660000000000082">
								<SimplePredicate field="double(float(('med-dfs', 'PG'):('70.0th-pctl-dfs', 'SG')))" operator="lessOrEqual" value="523.6200256347656"/>
							</Node>
							<Node score="-20.810000000000002">
								<SimplePredicate field="double(float(team-med:service=fanduel))" operator="lessOrEqual" value="113.0"/>
							</Node>
						</Node>
						<Node score="9.290000000000077">
							<SimplePredicate field="double(float(best-possible-score:('70.0th-pctl-dfs', 'PG')))" operator="lessOrEqual" value="11654.912109375"/>
						</Node>
						<Node score="26.290000000000077">
							<SimplePredicate field="double(float(('med-dfs', 'PG'):('med-dfs', 'SG')))" operator="lessOrEqual" value="538.1875"/>
						</Node>
					</Node>
				</TreeModel>
			</Segment>
			<Segment id="3">
				<True/>
				<TreeModel functionName="regression" missingValueStrategy="nullPrediction" noTrueChildStrategy="returnLastPrediction">
					<MiningSchema>
						<MiningField name="double(float(('med-dfs', 'SG'):service=draftkings))"/>
						<MiningField name="double(float(best-possible-score:team-med))"/>
						<MiningField name="double(float(team-med:('med-dfs', 'SF')))"/>
						<MiningField name="double(float(('med-dfs', 'PG'):('70.0th-pctl-dfs', 'SG')))"/>
						<MiningField name="double(float(best-possible-score:('70.0th-pctl-dfs', 'PG')))"/>
						<MiningField name="double(float(('med-dfs', 'PG'):('med-dfs', 'SG')))"/>
						<MiningField name="double(float(team-70.0th_pctl:('med-dfs', 'C')))"/>
					</MiningSchema>
					<Node score="27.11850000000004">
						<True/>
						<Node score="-16.628999999999905">
							<SimplePredicate field="double(float(('med-dfs', 'SG'):service=draftkings))" operator="lessOrEqual" value="17.4375"/>
							<Node score="-26.162999999999954">
								<SimplePredicate field="double(float(best-possible-score:team-med))" operator="lessOrEqual" value="46962.287109375"/>
								<Node score="-36.00399999999996">
									<SimplePredicate field="double(float(team-med:('med-dfs', 'SF')))" operator="lessOrEqual" value="2218.3125"/>
									<Node score="-18.91399999999993">
										<SimplePredicate field="double(float(team-70.0th_pctl:('med-dfs', 'C')))" operator="lessOrEqual" value="2550.1099853515625"/>
									</Node>
								</Node>
							</Node>
							<Node score="2.2240000000001032">
								<SimplePredicate field="double(float(('med-dfs', 'PG'):('med-dfs', 'SG')))" operator="lessOrEqual" value="406.4499969482422"/>
							</Node>
						</Node>
						<Node score="8.361000000000047">
							<SimplePredicate field="double(float(best-possible-score:('70.0th-pctl-dfs', 'PG')))" operator="lessOrEqual" value="11654.912109375"/>
						</Node>
						<Node score="16.79350000000011">
							<SimplePredicate field="double(float(('med-dfs', 'PG'):('70.0th-pctl-dfs', 'SG')))" operator="lessOrEqual" value="717.4874877929688"/>
						</Node>
					</Node>
				</TreeModel>
			</Segment>
			<Segment id="4">
				<True/>
				<TreeModel functionName="regression" missingValueStrategy="nullPrediction" noTrueChildStrategy="returnLastPrediction">
					<MiningSchema>
						<MiningField name="double(float(('med-dfs', 'SG'):service=draftkings))"/>
						<MiningField name="double(float(best-possible-score:team-med))"/>
						<MiningField name="double(float(team-med:('med-dfs', 'SF')))"/>
						<MiningField name="double(float(('med-dfs', 'PG'):('70.0th-pctl-dfs', 'SG')))"/>
						<MiningField name="double(float(team-70.0th_pctl:('70.0th-pctl-dfs', 'SG')))"/>
						<MiningField name="double(float(team-70.0th_pctl))"/>
						<MiningField name="double(float(team-70.0th_pctl:('70.0th-pctl-dfs', 'PG')))"/>
						<MiningField name="double(float(team_count:('70.0th-pctl-dfs', 'C')))"/>
					</MiningSchema>
					<Node score="13.081650000000081">
						<True/>
						<Node score="-14.09909999999985">
							<SimplePredicate field="double(float(('med-dfs', 'SG'):service=draftkings))" operator="lessOrEqual" value="16.3125"/>
							<Node score="-23.41669999999999">
								<SimplePredicate field="double(float(best-possible-score:team-med))" operator="lessOrEqual" value="47214.07421875"/>
								<Node score="-25.61259999999993">
									<SimplePredicate field="double(float(team-med:('med-dfs', 'SF')))" operator="lessOrEqual" value="2153.7874755859375"/>
									<Node score="-30.60359999999997">
										<SimplePredicate field="double(float(team-70.0th_pctl:('70.0th-pctl-dfs', 'SG')))" operator="lessOrEqual" value="2910.302978515625"/>
									</Node>
								</Node>
							</Node>
							<Node score="26.231600000000014">
								<SimplePredicate field="double(float(best-possible-score:team-med))" operator="lessOrEqual" value="48650.80078125"/>
							</Node>
							<Node score="-2.2543999999999187">
								<SimplePredicate field="double(float(('med-dfs', 'PG'):('70.0th-pctl-dfs', 'SG')))" operator="lessOrEqual" value="571.0150146484375"/>
							</Node>
						</Node>
						<Node score="24.23165000000006">
							<SimplePredicate field="double(float(team-70.0th_pctl))" operator="lessOrEqual" value="122.1500015258789"/>
							<Node score="2.9816500000000588">
								<SimplePredicate field="double(float(team-70.0th_pctl:('70.0th-pctl-dfs', 'PG')))" operator="lessOrEqual" value="3629.8262939453125"/>
								<Node score="13.231650000000059">
									<SimplePredicate field="double(float(team_count:('70.0th-pctl-dfs', 'C')))" operator="lessOrEqual" value="415.27500915527344"/>
								</Node>
							</Node>
						</Node>
					</Node>
				</TreeModel>
			</Segment>
			<Segment id="5">
				<True/>
				<TreeModel functionName="regression" missingValueStrategy="nullPrediction" noTrueChildStrategy="returnLastPrediction">
					<MiningSchema>
						<MiningField name="double(float(best-possible-score:team-70.0th_pctl))"/>
						<MiningField name="double(float(best-possible-score:team-med))"/>
						<MiningField name="double(float(best-possible-score:service=draftkings))"/>
						<MiningField name="double(float(('70.0th-pctl-dfs', 'PG'):service=fanduel))"/>
						<MiningField name="double(float(best-possible-score^2))"/>
						<MiningField name="double(float(team-70.0th_pctl:('med-dfs', 'SF')))"/>
